digraph Tree {
node [shape=box] ;
0 [label="total_pymnt_inv <= 3215.0298\ngini = 0.2478\nsamples = 27316\nvalue = [3958, 23358]"] ;
1 [label="funded_amnt_inv <= 3000.0017\ngini = 0.491\nsamples = 3573\nvalue = [1547, 2026]"] ;
0 -> 1 [labeldistance=2.5, labelangle=45, headlabel="True"] ;
2 [label="total_pymnt_inv <= 1000.535\ngini = 0.3024\nsamples = 2483\nvalue = [461, 2022]"] ;
1 -> 2 ;
3 [label="funded_amnt_inv <= 987.5\ngini = 0.4987\nsamples = 447\nvalue = [235, 212]"] ;
2 -> 3 ;
4 [label="total_pymnt_inv <= 147.11\ngini = 0.3011\nsamples = 260\nvalue = [48, 212]"] ;
3 -> 4 ;
5 [label="int_rate <= 9.73\ngini = 0.437\nsamples = 124\nvalue = [40, 84]"] ;
4 -> 5 ;
6 [label="delinq_2yrs <= 1.5\ngini = 0.0928\nsamples = 41\nvalue = [2, 39]"] ;
5 -> 6 ;
7 [label="inq_last_6mths <= 5.5\ngini = 0.0487\nsamples = 40\nvalue = [1, 39]"] ;
6 -> 7 ;
8 [label="gini = 0.0\nsamples = 38\nvalue = [0, 38]"] ;
7 -> 8 ;
9 [label="total_pymnt_inv <= 12.59\ngini = 0.5\nsamples = 2\nvalue = [1, 1]"] ;
7 -> 9 ;
10 [label="gini = 0.0\nsamples = 1\nvalue = [1, 0]"] ;
9 -> 10 ;
11 [label="gini = 0.0\nsamples = 1\nvalue = [0, 1]"] ;
9 -> 11 ;
12 [label="gini = 0.0\nsamples = 1\nvalue = [1, 0]"] ;
6 -> 12 ;
13 [label="funded_amnt_inv <= 0.0001\ngini = 0.4964\nsamples = 83\nvalue = [38, 45]"] ;
5 -> 13 ;
14 [label="funded_amnt <= 10650.0\ngini = 0.4515\nsamples = 61\nvalue = [21, 40]"] ;
13 -> 14 ;
15 [label="open_acc <= 6.5\ngini = 0.4228\nsamples = 56\nvalue = [17, 39]"] ;
14 -> 15 ;
16 [label="annual_inc <= 51500.0\ngini = 0.5\nsamples = 18\nvalue = [9, 9]"] ;
15 -> 16 ;
17 [label="int_rate <= 10.675\ngini = 0.4592\nsamples = 14\nvalue = [9, 5]"] ;
16 -> 17 ;
18 [label="gini = 0.0\nsamples = 6\nvalue = [6, 0]"] ;
17 -> 18 ;
19 [label="loan_amnt <= 4037.5\ngini = 0.4688\nsamples = 8\nvalue = [3, 5]"] ;
17 -> 19 ;
20 [label="gini = 0.0\nsamples = 1\nvalue = [1, 0]"] ;
19 -> 20 ;
21 [label="int_rate <= 12.575\ngini = 0.4082\nsamples = 7\nvalue = [2, 5]"] ;
19 -> 21 ;
22 [label="gini = 0.0\nsamples = 4\nvalue = [0, 4]"] ;
21 -> 22 ;
23 [label="dti <= 15.1\ngini = 0.4444\nsamples = 3\nvalue = [2, 1]"] ;
21 -> 23 ;
24 [label="gini = 0.0\nsamples = 1\nvalue = [0, 1]"] ;
23 -> 24 ;
25 [label="gini = 0.0\nsamples = 2\nvalue = [2, 0]"] ;
23 -> 25 ;
26 [label="gini = 0.0\nsamples = 4\nvalue = [0, 4]"] ;
16 -> 26 ;
27 [label="loan_amnt <= 20000.0\ngini = 0.3324\nsamples = 38\nvalue = [8, 30]"] ;
15 -> 27 ;
28 [label="pub_rec_bankruptcies <= 0.5\ngini = 0.3068\nsamples = 37\nvalue = [7, 30]"] ;
27 -> 28 ;
29 [label="open_acc <= 22.5\ngini = 0.2778\nsamples = 36\nvalue = [6, 30]"] ;
28 -> 29 ;
30 [label="dti <= 17.235\ngini = 0.2449\nsamples = 35\nvalue = [5, 30]"] ;
29 -> 30 ;
31 [label="installment <= 145.405\ngini = 0.0997\nsamples = 19\nvalue = [1, 18]"] ;
30 -> 31 ;
32 [label="funded_amnt <= 3175.0\ngini = 0.375\nsamples = 4\nvalue = [1, 3]"] ;
31 -> 32 ;
33 [label="gini = 0.0\nsamples = 3\nvalue = [0, 3]"] ;
32 -> 33 ;
34 [label="gini = 0.0\nsamples = 1\nvalue = [1, 0]"] ;
32 -> 34 ;
35 [label="gini = 0.0\nsamples = 15\nvalue = [0, 15]"] ;
31 -> 35 ;
36 [label="open_acc <= 10.0\ngini = 0.375\nsamples = 16\nvalue = [4, 12]"] ;
30 -> 36 ;
37 [label="funded_amnt <= 4750.0\ngini = 0.4444\nsamples = 3\nvalue = [2, 1]"] ;
36 -> 37 ;
38 [label="gini = 0.0\nsamples = 1\nvalue = [0, 1]"] ;
37 -> 38 ;
39 [label="gini = 0.0\nsamples = 2\nvalue = [2, 0]"] ;
37 -> 39 ;
40 [label="dti <= 18.045\ngini = 0.2604\nsamples = 13\nvalue = [2, 11]"] ;
36 -> 40 ;
41 [label="gini = 0.0\nsamples = 1\nvalue = [1, 0]"] ;
40 -> 41 ;
42 [label="funded_amnt <= 7275.0\ngini = 0.1528\nsamples = 12\nvalue = [1, 11]"] ;
40 -> 42 ;
43 [label="gini = 0.0\nsamples = 9\nvalue = [0, 9]"] ;
42 -> 43 ;
44 [label="open_acc <= 15.5\ngini = 0.4444\nsamples = 3\nvalue = [1, 2]"] ;
42 -> 44 ;
45 [label="gini = 0.0\nsamples = 2\nvalue = [0, 2]"] ;
44 -> 45 ;
46 [label="gini = 0.0\nsamples = 1\nvalue = [1, 0]"] ;
44 -> 46 ;
47 [label="gini = 0.0\nsamples = 1\nvalue = [1, 0]"] ;
29 -> 47 ;
48 [label="gini = 0.0\nsamples = 1\nvalue = [1, 0]"] ;
28 -> 48 ;
49 [label="gini = 0.0\nsamples = 1\nvalue = [1, 0]"] ;
27 -> 49 ;
50 [label="delinq_2yrs <= 1.0\ngini = 0.32\nsamples = 5\nvalue = [4, 1]"] ;
14 -> 50 ;
51 [label="gini = 0.0\nsamples = 4\nvalue = [4, 0]"] ;
50 -> 51 ;
52 [label="gini = 0.0\nsamples = 1\nvalue = [0, 1]"] ;
50 -> 52 ;
53 [label="funded_amnt_inv <= 0.2471\ngini = 0.3512\nsamples = 22\nvalue = [17, 5]"] ;
13 -> 53 ;
54 [label="gini = 0.0\nsamples = 14\nvalue = [14, 0]"] ;
53 -> 54 ;
55 [label="total_pymnt_inv <= 82.38\ngini = 0.4688\nsamples = 8\nvalue = [3, 5]"] ;
53 -> 55 ;
56 [label="gini = 0.0\nsamples = 5\nvalue = [0, 5]"] ;
55 -> 56 ;
57 [label="gini = 0.0\nsamples = 3\nvalue = [3, 0]"] ;
55 -> 57 ;
58 [label="loan_amnt <= 13250.0\ngini = 0.1107\nsamples = 136\nvalue = [8, 128]"] ;
4 -> 58 ;
59 [label="term <= 48.0\ngini = 0.0862\nsamples = 133\nvalue = [6, 127]"] ;
58 -> 59 ;
60 [label="loan_amnt <= 8250.0\ngini = 0.0729\nsamples = 132\nvalue = [5, 127]"] ;
59 -> 60 ;
61 [label="Source Verified <= 0.5\ngini = 0.0476\nsamples = 123\nvalue = [3, 120]"] ;
60 -> 61 ;
62 [label="funded_amnt_inv <= 897.515\ngini = 0.033\nsamples = 119\nvalue = [2, 117]"] ;
61 -> 62 ;
63 [label="pub_rec_bankruptcies <= 0.5\ngini = 0.0179\nsamples = 111\nvalue = [1, 110]"] ;
62 -> 63 ;
64 [label="gini = 0.0\nsamples = 102\nvalue = [0, 102]"] ;
63 -> 64 ;
65 [label="funded_amnt_inv <= 351.0288\ngini = 0.1975\nsamples = 9\nvalue = [1, 8]"] ;
63 -> 65 ;
66 [label="gini = 0.0\nsamples = 1\nvalue = [1, 0]"] ;
65 -> 66 ;
67 [label="gini = 0.0\nsamples = 8\nvalue = [0, 8]"] ;
65 -> 67 ;
68 [label="total_pymnt_inv <= 841.015\ngini = 0.2188\nsamples = 8\nvalue = [1, 7]"] ;
62 -> 68 ;
69 [label="gini = 0.0\nsamples = 1\nvalue = [1, 0]"] ;
68 -> 69 ;
70 [label="gini = 0.0\nsamples = 7\nvalue = [0, 7]"] ;
68 -> 70 ;
71 [label="total_pymnt_inv <= 446.375\ngini = 0.375\nsamples = 4\nvalue = [1, 3]"] ;
61 -> 71 ;
72 [label="gini = 0.0\nsamples = 1\nvalue = [1, 0]"] ;
71 -> 72 ;
73 [label="gini = 0.0\nsamples = 3\nvalue = [0, 3]"] ;
71 -> 73 ;
74 [label="total_pymnt_inv <= 357.105\ngini = 0.3457\nsamples = 9\nvalue = [2, 7]"] ;
60 -> 74 ;
75 [label="gini = 0.0\nsamples = 2\nvalue = [2, 0]"] ;
74 -> 75 ;
76 [label="gini = 0.0\nsamples = 7\nvalue = [0, 7]"] ;
74 -> 76 ;
77 [label="gini = 0.0\nsamples = 1\nvalue = [1, 0]"] ;
59 -> 77 ;
78 [label="revol_util <= 68.95\ngini = 0.4444\nsamples = 3\nvalue = [2, 1]"] ;
58 -> 78 ;
79 [label="gini = 0.0\nsamples = 2\nvalue = [2, 0]"] ;
78 -> 79 ;
80 [label="gini = 0.0\nsamples = 1\nvalue = [0, 1]"] ;
78 -> 80 ;
81 [label="gini = 0.0\nsamples = 187\nvalue = [187, 0]"] ;
3 -> 81 ;
82 [label="funded_amnt_inv <= 2796.5518\ngini = 0.1974\nsamples = 2036\nvalue = [226, 1810]"] ;
2 -> 82 ;
83 [label="total_pymnt_inv <= 1902.4551\ngini = 0.1495\nsamples = 1843\nvalue = [150, 1693]"] ;
82 -> 83 ;
84 [label="funded_amnt_inv <= 1850.2778\ngini = 0.2463\nsamples = 716\nvalue = [103, 613]"] ;
83 -> 84 ;
85 [label="funded_amnt_inv <= 1668.5426\ngini = 0.125\nsamples = 657\nvalue = [44, 613]"] ;
84 -> 85 ;
86 [label="delinq_2yrs <= 3.5\ngini = 0.1027\nsamples = 626\nvalue = [34, 592]"] ;
85 -> 86 ;
87 [label="funded_amnt_inv <= 1203.0649\ngini = 0.0975\nsamples = 623\nvalue = [32, 591]"] ;
86 -> 87 ;
88 [label="int_rate <= 15.25\ngini = 0.0397\nsamples = 296\nvalue = [6, 290]"] ;
87 -> 88 ;
89 [label="dti <= 16.32\ngini = 0.0218\nsamples = 272\nvalue = [3, 269]"] ;
88 -> 89 ;
90 [label="gini = 0.0\nsamples = 186\nvalue = [0, 186]"] ;
89 -> 90 ;
91 [label="dti <= 16.54\ngini = 0.0673\nsamples = 86\nvalue = [3, 83]"] ;
89 -> 91 ;
92 [label="gini = 0.0\nsamples = 1\nvalue = [1, 0]"] ;
91 -> 92 ;
93 [label="revol_util <= 31.65\ngini = 0.046\nsamples = 85\nvalue = [2, 83]"] ;
91 -> 93 ;
94 [label="revol_util <= 30.8\ngini = 0.1528\nsamples = 24\nvalue = [2, 22]"] ;
93 -> 94 ;
95 [label="annual_inc <= 12500.0\ngini = 0.0832\nsamples = 23\nvalue = [1, 22]"] ;
94 -> 95 ;
96 [label="funded_amnt_inv <= 975.0\ngini = 0.5\nsamples = 2\nvalue = [1, 1]"] ;
95 -> 96 ;
97 [label="gini = 0.0\nsamples = 1\nvalue = [0, 1]"] ;
96 -> 97 ;
98 [label="gini = 0.0\nsamples = 1\nvalue = [1, 0]"] ;
96 -> 98 ;
99 [label="gini = 0.0\nsamples = 21\nvalue = [0, 21]"] ;
95 -> 99 ;
100 [label="gini = 0.0\nsamples = 1\nvalue = [1, 0]"] ;
94 -> 100 ;
101 [label="gini = 0.0\nsamples = 61\nvalue = [0, 61]"] ;
93 -> 101 ;
102 [label="total_pymnt_inv <= 1215.23\ngini = 0.2188\nsamples = 24\nvalue = [3, 21]"] ;
88 -> 102 ;
103 [label="dti <= 9.66\ngini = 0.5\nsamples = 6\nvalue = [3, 3]"] ;
102 -> 103 ;
104 [label="gini = 0.0\nsamples = 2\nvalue = [0, 2]"] ;
103 -> 104 ;
105 [label="dti <= 16.635\ngini = 0.375\nsamples = 4\nvalue = [3, 1]"] ;
103 -> 105 ;
106 [label="gini = 0.0\nsamples = 3\nvalue = [3, 0]"] ;
105 -> 106 ;
107 [label="gini = 0.0\nsamples = 1\nvalue = [0, 1]"] ;
105 -> 107 ;
108 [label="gini = 0.0\nsamples = 18\nvalue = [0, 18]"] ;
102 -> 108 ;
109 [label="total_pymnt_inv <= 1293.02\ngini = 0.1464\nsamples = 327\nvalue = [26, 301]"] ;
87 -> 109 ;
110 [label="int_rate <= 9.79\ngini = 0.2604\nsamples = 13\nvalue = [11, 2]"] ;
109 -> 110 ;
111 [label="gini = 0.0\nsamples = 2\nvalue = [0, 2]"] ;
110 -> 111 ;
112 [label="gini = 0.0\nsamples = 11\nvalue = [11, 0]"] ;
110 -> 112 ;
113 [label="total_pymnt_inv <= 1483.87\ngini = 0.091\nsamples = 314\nvalue = [15, 299]"] ;
109 -> 113 ;
114 [label="funded_amnt_inv <= 1412.5\ngini = 0.2975\nsamples = 44\nvalue = [8, 36]"] ;
113 -> 114 ;
115 [label="total_pymnt_inv <= 1481.6851\ngini = 0.142\nsamples = 39\nvalue = [3, 36]"] ;
114 -> 115 ;
116 [label="funded_amnt_inv <= 1206.4001\ngini = 0.0997\nsamples = 38\nvalue = [2, 36]"] ;
115 -> 116 ;
117 [label="gini = 0.0\nsamples = 1\nvalue = [1, 0]"] ;
116 -> 117 ;
118 [label="pub_rec_bankruptcies <= 0.5\ngini = 0.0526\nsamples = 37\nvalue = [1, 36]"] ;
116 -> 118 ;
119 [label="gini = 0.0\nsamples = 35\nvalue = [0, 35]"] ;
118 -> 119 ;
120 [label="int_rate <= 11.24\ngini = 0.5\nsamples = 2\nvalue = [1, 1]"] ;
118 -> 120 ;
121 [label="gini = 0.0\nsamples = 1\nvalue = [1, 0]"] ;
120 -> 121 ;
122 [label="gini = 0.0\nsamples = 1\nvalue = [0, 1]"] ;
120 -> 122 ;
123 [label="gini = 0.0\nsamples = 1\nvalue = [1, 0]"] ;
115 -> 123 ;
124 [label="gini = 0.0\nsamples = 5\nvalue = [5, 0]"] ;
114 -> 124 ;
125 [label="dti <= 0.075\ngini = 0.0505\nsamples = 270\nvalue = [7, 263]"] ;
113 -> 125 ;
126 [label="total_pymnt_inv <= 1689.145\ngini = 0.5\nsamples = 2\nvalue = [1, 1]"] ;
125 -> 126 ;
127 [label="gini = 0.0\nsamples = 1\nvalue = [0, 1]"] ;
126 -> 127 ;
128 [label="gini = 0.0\nsamples = 1\nvalue = [1, 0]"] ;
126 -> 128 ;
129 [label="annual_inc <= 18288.0\ngini = 0.0438\nsamples = 268\nvalue = [6, 262]"] ;
125 -> 129 ;
130 [label="funded_amnt_inv <= 1550.0\ngini = 0.1723\nsamples = 21\nvalue = [2, 19]"] ;
129 -> 130 ;
131 [label="gini = 0.0\nsamples = 18\nvalue = [0, 18]"] ;
130 -> 131 ;
132 [label="installment <= 51.99\ngini = 0.4444\nsamples = 3\nvalue = [2, 1]"] ;
130 -> 132 ;
133 [label="gini = 0.0\nsamples = 1\nvalue = [0, 1]"] ;
132 -> 133 ;
134 [label="gini = 0.0\nsamples = 2\nvalue = [2, 0]"] ;
132 -> 134 ;
135 [label="total_pymnt_inv <= 1564.5699\ngini = 0.0319\nsamples = 247\nvalue = [4, 243]"] ;
129 -> 135 ;
136 [label="total_pymnt_inv <= 1563.905\ngini = 0.1271\nsamples = 44\nvalue = [3, 41]"] ;
135 -> 136 ;
137 [label="revol_util <= 0.15\ngini = 0.0887\nsamples = 43\nvalue = [2, 41]"] ;
136 -> 137 ;
138 [label="installment <= 45.69\ngini = 0.5\nsamples = 2\nvalue = [1, 1]"] ;
137 -> 138 ;
139 [label="gini = 0.0\nsamples = 1\nvalue = [0, 1]"] ;
138 -> 139 ;
140 [label="gini = 0.0\nsamples = 1\nvalue = [1, 0]"] ;
138 -> 140 ;
141 [label="total_pymnt_inv <= 1550.275\ngini = 0.0476\nsamples = 41\nvalue = [1, 40]"] ;
137 -> 141 ;
142 [label="gini = 0.0\nsamples = 33\nvalue = [0, 33]"] ;
141 -> 142 ;
143 [label="gini = 0.2188\nsamples = 8\nvalue = [1, 7]"] ;
141 -> 143 ;
144 [label="gini = 0.0\nsamples = 1\nvalue = [1, 0]"] ;
136 -> 144 ;
145 [label="dti <= 1.475\ngini = 0.0098\nsamples = 203\nvalue = [1, 202]"] ;
135 -> 145 ;
146 [label="dti <= 1.225\ngini = 0.18\nsamples = 10\nvalue = [1, 9]"] ;
145 -> 146 ;
147 [label="gini = 0.0\nsamples = 9\nvalue = [0, 9]"] ;
146 -> 147 ;
148 [label="gini = 0.0\nsamples = 1\nvalue = [1, 0]"] ;
146 -> 148 ;
149 [label="gini = 0.0\nsamples = 193\nvalue = [0, 193]"] ;
145 -> 149 ;
150 [label="installment <= 37.905\ngini = 0.4444\nsamples = 3\nvalue = [2, 1]"] ;
86 -> 150 ;
151 [label="gini = 0.0\nsamples = 1\nvalue = [0, 1]"] ;
150 -> 151 ;
152 [label="gini = 0.0\nsamples = 2\nvalue = [2, 0]"] ;
150 -> 152 ;
153 [label="total_pymnt_inv <= 1735.64\ngini = 0.437\nsamples = 31\nvalue = [10, 21]"] ;
85 -> 153 ;
154 [label="gini = 0.0\nsamples = 9\nvalue = [9, 0]"] ;
153 -> 154 ;
155 [label="revol_util <= 0.55\ngini = 0.0868\nsamples = 22\nvalue = [1, 21]"] ;
153 -> 155 ;
156 [label="Source Verified <= 0.5\ngini = 0.5\nsamples = 2\nvalue = [1, 1]"] ;
155 -> 156 ;
157 [label="gini = 0.0\nsamples = 1\nvalue = [0, 1]"] ;
156 -> 157 ;
158 [label="gini = 0.0\nsamples = 1\nvalue = [1, 0]"] ;
156 -> 158 ;
159 [label="gini = 0.0\nsamples = 20\nvalue = [0, 20]"] ;
155 -> 159 ;
160 [label="gini = 0.0\nsamples = 59\nvalue = [59, 0]"] ;
84 -> 160 ;
161 [label="open_acc <= 3.5\ngini = 0.0799\nsamples = 1127\nvalue = [47, 1080]"] ;
83 -> 161 ;
162 [label="dti <= 24.675\ngini = 0.179\nsamples = 161\nvalue = [16, 145]"] ;
161 -> 162 ;
163 [label="installment <= 88.65\ngini = 0.1606\nsamples = 159\nvalue = [14, 145]"] ;
162 -> 163 ;
164 [label="revol_util <= 99.8\ngini = 0.1195\nsamples = 141\nvalue = [9, 132]"] ;
163 -> 164 ;
165 [label="dti <= 1.325\ngini = 0.1085\nsamples = 139\nvalue = [8, 131]"] ;
164 -> 165 ;
166 [label="total_pymnt_inv <= 2144.1201\ngini = 0.2907\nsamples = 17\nvalue = [3, 14]"] ;
165 -> 166 ;
167 [label="gini = 0.0\nsamples = 1\nvalue = [1, 0]"] ;
166 -> 167 ;
168 [label="dti <= 1.255\ngini = 0.2188\nsamples = 16\nvalue = [2, 14]"] ;
166 -> 168 ;
169 [label="term <= 48.0\ngini = 0.1244\nsamples = 15\nvalue = [1, 14]"] ;
168 -> 169 ;
170 [label="gini = 0.0\nsamples = 13\nvalue = [0, 13]"] ;
169 -> 170 ;
171 [label="int_rate <= 18.93\ngini = 0.5\nsamples = 2\nvalue = [1, 1]"] ;
169 -> 171 ;
172 [label="gini = 0.0\nsamples = 1\nvalue = [1, 0]"] ;
171 -> 172 ;
173 [label="gini = 0.0\nsamples = 1\nvalue = [0, 1]"] ;
171 -> 173 ;
174 [label="gini = 0.0\nsamples = 1\nvalue = [1, 0]"] ;
168 -> 174 ;
175 [label="installment <= 75.745\ngini = 0.0786\nsamples = 122\nvalue = [5, 117]"] ;
165 -> 175 ;
176 [label="dti <= 20.615\ngini = 0.0241\nsamples = 82\nvalue = [1, 81]"] ;
175 -> 176 ;
177 [label="gini = 0.0\nsamples = 76\nvalue = [0, 76]"] ;
176 -> 177 ;
178 [label="dti <= 21.035\ngini = 0.2778\nsamples = 6\nvalue = [1, 5]"] ;
176 -> 178 ;
179 [label="gini = 0.0\nsamples = 1\nvalue = [1, 0]"] ;
178 -> 179 ;
180 [label="gini = 0.0\nsamples = 5\nvalue = [0, 5]"] ;
178 -> 180 ;
181 [label="total_pymnt_inv <= 2356.54\ngini = 0.18\nsamples = 40\nvalue = [4, 36]"] ;
175 -> 181 ;
182 [label="gini = 0.0\nsamples = 3\nvalue = [3, 0]"] ;
181 -> 182 ;
183 [label="annual_inc <= 22098.0\ngini = 0.0526\nsamples = 37\nvalue = [1, 36]"] ;
181 -> 183 ;
184 [label="annual_inc <= 20998.0\ngini = 0.2188\nsamples = 8\nvalue = [1, 7]"] ;
183 -> 184 ;
185 [label="gini = 0.0\nsamples = 7\nvalue = [0, 7]"] ;
184 -> 185 ;
186 [label="gini = 0.0\nsamples = 1\nvalue = [1, 0]"] ;
184 -> 186 ;
187 [label="gini = 0.0\nsamples = 29\nvalue = [0, 29]"] ;
183 -> 187 ;
188 [label="Source Verified <= 0.5\ngini = 0.5\nsamples = 2\nvalue = [1, 1]"] ;
164 -> 188 ;
189 [label="gini = 0.0\nsamples = 1\nvalue = [0, 1]"] ;
188 -> 189 ;
190 [label="gini = 0.0\nsamples = 1\nvalue = [1, 0]"] ;
188 -> 190 ;
191 [label="installment <= 95.33\ngini = 0.4012\nsamples = 18\nvalue = [5, 13]"] ;
163 -> 191 ;
192 [label="dti <= 18.165\ngini = 0.32\nsamples = 5\nvalue = [4, 1]"] ;
191 -> 192 ;
193 [label="gini = 0.0\nsamples = 4\nvalue = [4, 0]"] ;
192 -> 193 ;
194 [label="gini = 0.0\nsamples = 1\nvalue = [0, 1]"] ;
192 -> 194 ;
195 [label="funded_amnt_inv <= 1876.6604\ngini = 0.142\nsamples = 13\nvalue = [1, 12]"] ;
191 -> 195 ;
196 [label="gini = 0.0\nsamples = 1\nvalue = [1, 0]"] ;
195 -> 196 ;
197 [label="gini = 0.0\nsamples = 12\nvalue = [0, 12]"] ;
195 -> 197 ;
198 [label="gini = 0.0\nsamples = 2\nvalue = [2, 0]"] ;
162 -> 198 ;
199 [label="term <= 48.0\ngini = 0.0621\nsamples = 966\nvalue = [31, 935]"] ;
161 -> 199 ;
200 [label="installment <= 77.355\ngini = 0.05\nsamples = 897\nvalue = [23, 874]"] ;
199 -> 200 ;
201 [label="revol_util <= 96.8\ngini = 0.012\nsamples = 496\nvalue = [3, 493]"] ;
200 -> 201 ;
202 [label="pub_rec_bankruptcies <= 0.5\ngini = 0.0083\nsamples = 482\nvalue = [2, 480]"] ;
201 -> 202 ;
203 [label="annual_inc <= 78500.0\ngini = 0.0043\nsamples = 463\nvalue = [1, 462]"] ;
202 -> 203 ;
204 [label="gini = 0.0\nsamples = 401\nvalue = [0, 401]"] ;
203 -> 204 ;
205 [label="annual_inc <= 79432.0\ngini = 0.0317\nsamples = 62\nvalue = [1, 61]"] ;
203 -> 205 ;
206 [label="open_acc <= 10.0\ngini = 0.5\nsamples = 2\nvalue = [1, 1]"] ;
205 -> 206 ;
207 [label="gini = 0.0\nsamples = 1\nvalue = [0, 1]"] ;
206 -> 207 ;
208 [label="gini = 0.0\nsamples = 1\nvalue = [1, 0]"] ;
206 -> 208 ;
209 [label="gini = 0.0\nsamples = 60\nvalue = [0, 60]"] ;
205 -> 209 ;
210 [label="delinq_2yrs <= 0.5\ngini = 0.0997\nsamples = 19\nvalue = [1, 18]"] ;
202 -> 210 ;
211 [label="gini = 0.0\nsamples = 17\nvalue = [0, 17]"] ;
210 -> 211 ;
212 [label="int_rate <= 13.32\ngini = 0.5\nsamples = 2\nvalue = [1, 1]"] ;
210 -> 212 ;
213 [label="gini = 0.0\nsamples = 1\nvalue = [1, 0]"] ;
212 -> 213 ;
214 [label="gini = 0.0\nsamples = 1\nvalue = [0, 1]"] ;
212 -> 214 ;
215 [label="revol_util <= 97.1\ngini = 0.1327\nsamples = 14\nvalue = [1, 13]"] ;
201 -> 215 ;
216 [label="dti <= 8.66\ngini = 0.5\nsamples = 2\nvalue = [1, 1]"] ;
215 -> 216 ;
217 [label="gini = 0.0\nsamples = 1\nvalue = [1, 0]"] ;
216 -> 217 ;
218 [label="gini = 0.0\nsamples = 1\nvalue = [0, 1]"] ;
216 -> 218 ;
219 [label="gini = 0.0\nsamples = 12\nvalue = [0, 12]"] ;
215 -> 219 ;
220 [label="total_pymnt_inv <= 2454.8999\ngini = 0.0948\nsamples = 401\nvalue = [20, 381]"] ;
200 -> 220 ;
221 [label="funded_amnt_inv <= 2349.4412\ngini = 0.4082\nsamples = 49\nvalue = [14, 35]"] ;
220 -> 221 ;
222 [label="annual_inc <= 30565.5\ngini = 0.0555\nsamples = 35\nvalue = [1, 34]"] ;
221 -> 222 ;
223 [label="dti <= 9.38\ngini = 0.5\nsamples = 2\nvalue = [1, 1]"] ;
222 -> 223 ;
224 [label="gini = 0.0\nsamples = 1\nvalue = [0, 1]"] ;
223 -> 224 ;
225 [label="gini = 0.0\nsamples = 1\nvalue = [1, 0]"] ;
223 -> 225 ;
226 [label="gini = 0.0\nsamples = 33\nvalue = [0, 33]"] ;
222 -> 226 ;
227 [label="total_pymnt_inv <= 2424.2051\ngini = 0.1327\nsamples = 14\nvalue = [13, 1]"] ;
221 -> 227 ;
228 [label="gini = 0.0\nsamples = 12\nvalue = [12, 0]"] ;
227 -> 228 ;
229 [label="int_rate <= 13.05\ngini = 0.5\nsamples = 2\nvalue = [1, 1]"] ;
227 -> 229 ;
230 [label="gini = 0.0\nsamples = 1\nvalue = [0, 1]"] ;
229 -> 230 ;
231 [label="gini = 0.0\nsamples = 1\nvalue = [1, 0]"] ;
229 -> 231 ;
232 [label="total_pymnt_inv <= 3205.5049\ngini = 0.0335\nsamples = 352\nvalue = [6, 346]"] ;
220 -> 232 ;
233 [label="funded_amnt_inv <= 2712.4998\ngini = 0.0282\nsamples = 349\nvalue = [5, 344]"] ;
232 -> 233 ;
234 [label="open_acc <= 18.0\ngini = 0.0181\nsamples = 328\nvalue = [3, 325]"] ;
233 -> 234 ;
235 [label="revol_util <= 0.05\ngini = 0.0124\nsamples = 320\nvalue = [2, 318]"] ;
234 -> 235 ;
236 [label="inq_last_6mths <= 2.5\ngini = 0.2188\nsamples = 8\nvalue = [1, 7]"] ;
235 -> 236 ;
237 [label="gini = 0.0\nsamples = 7\nvalue = [0, 7]"] ;
236 -> 237 ;
238 [label="gini = 0.0\nsamples = 1\nvalue = [1, 0]"] ;
236 -> 238 ;
239 [label="total_pymnt_inv <= 3169.2349\ngini = 0.0064\nsamples = 312\nvalue = [1, 311]"] ;
235 -> 239 ;
240 [label="gini = 0.0\nsamples = 303\nvalue = [0, 303]"] ;
239 -> 240 ;
241 [label="total_pymnt_inv <= 3173.9551\ngini = 0.1975\nsamples = 9\nvalue = [1, 8]"] ;
239 -> 241 ;
242 [label="gini = 0.0\nsamples = 1\nvalue = [1, 0]"] ;
241 -> 242 ;
243 [label="gini = 0.0\nsamples = 8\nvalue = [0, 8]"] ;
241 -> 243 ;
244 [label="annual_inc <= 49815.0\ngini = 0.2188\nsamples = 8\nvalue = [1, 7]"] ;
234 -> 244 ;
245 [label="open_acc <= 19.5\ngini = 0.5\nsamples = 2\nvalue = [1, 1]"] ;
244 -> 245 ;
246 [label="gini = 0.0\nsamples = 1\nvalue = [1, 0]"] ;
245 -> 246 ;
247 [label="gini = 0.0\nsamples = 1\nvalue = [0, 1]"] ;
245 -> 247 ;
248 [label="gini = 0.0\nsamples = 6\nvalue = [0, 6]"] ;
244 -> 248 ;
249 [label="total_pymnt_inv <= 2675.8599\ngini = 0.1723\nsamples = 21\nvalue = [2, 19]"] ;
233 -> 249 ;
250 [label="gini = 0.0\nsamples = 1\nvalue = [1, 0]"] ;
249 -> 250 ;
251 [label="dti <= 3.53\ngini = 0.095\nsamples = 20\nvalue = [1, 19]"] ;
249 -> 251 ;
252 [label="gini = 0.0\nsamples = 1\nvalue = [1, 0]"] ;
251 -> 252 ;
253 [label="gini = 0.0\nsamples = 19\nvalue = [0, 19]"] ;
251 -> 253 ;
254 [label="dti <= 11.11\ngini = 0.4444\nsamples = 3\nvalue = [1, 2]"] ;
232 -> 254 ;
255 [label="gini = 0.0\nsamples = 2\nvalue = [0, 2]"] ;
254 -> 255 ;
256 [label="gini = 0.0\nsamples = 1\nvalue = [1, 0]"] ;
254 -> 256 ;
257 [label="revol_util <= 24.665\ngini = 0.205\nsamples = 69\nvalue = [8, 61]"] ;
199 -> 257 ;
258 [label="revol_util <= 23.0\ngini = 0.4082\nsamples = 21\nvalue = [6, 15]"] ;
257 -> 258 ;
259 [label="dti <= 4.01\ngini = 0.2076\nsamples = 17\nvalue = [2, 15]"] ;
258 -> 259 ;
260 [label="funded_amnt_inv <= 2250.0\ngini = 0.4444\nsamples = 3\nvalue = [2, 1]"] ;
259 -> 260 ;
261 [label="gini = 0.0\nsamples = 2\nvalue = [2, 0]"] ;
260 -> 261 ;
262 [label="gini = 0.0\nsamples = 1\nvalue = [0, 1]"] ;
260 -> 262 ;
263 [label="gini = 0.0\nsamples = 14\nvalue = [0, 14]"] ;
259 -> 263 ;
264 [label="gini = 0.0\nsamples = 4\nvalue = [4, 0]"] ;
258 -> 264 ;
265 [label="open_acc <= 19.0\ngini = 0.0799\nsamples = 48\nvalue = [2, 46]"] ;
257 -> 265 ;
266 [label="inq_last_6mths <= 2.5\ngini = 0.0416\nsamples = 47\nvalue = [1, 46]"] ;
265 -> 266 ;
267 [label="gini = 0.0\nsamples = 41\nvalue = [0, 41]"] ;
266 -> 267 ;
268 [label="annual_inc <= 21904.0\ngini = 0.2778\nsamples = 6\nvalue = [1, 5]"] ;
266 -> 268 ;
269 [label="gini = 0.0\nsamples = 1\nvalue = [1, 0]"] ;
268 -> 269 ;
270 [label="gini = 0.0\nsamples = 5\nvalue = [0, 5]"] ;
268 -> 270 ;
271 [label="gini = 0.0\nsamples = 1\nvalue = [1, 0]"] ;
265 -> 271 ;
272 [label="total_pymnt_inv <= 2808.3052\ngini = 0.4774\nsamples = 193\nvalue = [76, 117]"] ;
82 -> 272 ;
273 [label="gini = 0.0\nsamples = 72\nvalue = [72, 0]"] ;
272 -> 273 ;
274 [label="total_pymnt_inv <= 2823.075\ngini = 0.0639\nsamples = 121\nvalue = [4, 117]"] ;
272 -> 274 ;
275 [label="annual_inc <= 45000.0\ngini = 0.5\nsamples = 2\nvalue = [1, 1]"] ;
274 -> 275 ;
276 [label="gini = 0.0\nsamples = 1\nvalue = [0, 1]"] ;
275 -> 276 ;
277 [label="gini = 0.0\nsamples = 1\nvalue = [1, 0]"] ;
275 -> 277 ;
278 [label="installment <= 99.295\ngini = 0.0491\nsamples = 119\nvalue = [3, 116]"] ;
274 -> 278 ;
279 [label="gini = 0.0\nsamples = 101\nvalue = [0, 101]"] ;
278 -> 279 ;
280 [label="installment <= 99.99\ngini = 0.2778\nsamples = 18\nvalue = [3, 15]"] ;
278 -> 280 ;
281 [label="gini = 0.0\nsamples = 3\nvalue = [3, 0]"] ;
280 -> 281 ;
282 [label="gini = 0.0\nsamples = 15\nvalue = [0, 15]"] ;
280 -> 282 ;
283 [label="funded_amnt_inv <= 3162.5\ngini = 0.0073\nsamples = 1090\nvalue = [1086, 4]"] ;
1 -> 283 ;
284 [label="total_pymnt_inv <= 2931.98\ngini = 0.3911\nsamples = 15\nvalue = [11, 4]"] ;
283 -> 284 ;
285 [label="gini = 0.0\nsamples = 11\nvalue = [11, 0]"] ;
284 -> 285 ;
286 [label="gini = 0.0\nsamples = 4\nvalue = [0, 4]"] ;
284 -> 286 ;
287 [label="gini = 0.0\nsamples = 1075\nvalue = [1075, 0]"] ;
283 -> 287 ;
288 [label="int_rate <= 16.075\ngini = 0.1825\nsamples = 23743\nvalue = [2411, 21332]"] ;
0 -> 288 [labeldistance=2.5, labelangle=-45, headlabel="False"] ;
289 [label="total_pymnt_inv <= 5343.79\ngini = 0.1444\nsamples = 20137\nvalue = [1578, 18559]"] ;
288 -> 289 ;
290 [label="funded_amnt_inv <= 5112.4961\ngini = 0.2816\nsamples = 3055\nvalue = [518, 2537]"] ;
289 -> 290 ;
291 [label="funded_amnt_inv <= 4995.3716\ngini = 0.1011\nsamples = 2679\nvalue = [143, 2536]"] ;
290 -> 291 ;
292 [label="funded_amnt_inv <= 4770.1533\ngini = 0.0726\nsamples = 2545\nvalue = [96, 2449]"] ;
291 -> 292 ;
293 [label="total_pymnt_inv <= 4104.7002\ngini = 0.0603\nsamples = 2409\nvalue = [75, 2334]"] ;
292 -> 293 ;
294 [label="funded_amnt_inv <= 4100.0\ngini = 0.1019\nsamples = 1096\nvalue = [59, 1037]"] ;
293 -> 294 ;
295 [label="funded_amnt_inv <= 3787.5\ngini = 0.0813\nsamples = 1083\nvalue = [46, 1037]"] ;
294 -> 295 ;
296 [label="installment <= 114.17\ngini = 0.0515\nsamples = 1020\nvalue = [27, 993]"] ;
295 -> 296 ;
297 [label="int_rate <= 11.77\ngini = 0.0237\nsamples = 835\nvalue = [10, 825]"] ;
296 -> 297 ;
298 [label="funded_amnt_inv <= 2962.5\ngini = 0.0035\nsamples = 568\nvalue = [1, 567]"] ;
297 -> 298 ;
299 [label="delinq_2yrs <= 0.5\ngini = 0.0454\nsamples = 43\nvalue = [1, 42]"] ;
298 -> 299 ;
300 [label="gini = 0.0\nsamples = 40\nvalue = [0, 40]"] ;
299 -> 300 ;
301 [label="loan_amnt <= 2900.0\ngini = 0.4444\nsamples = 3\nvalue = [1, 2]"] ;
299 -> 301 ;
302 [label="gini = 0.0\nsamples = 2\nvalue = [0, 2]"] ;
301 -> 302 ;
303 [label="gini = 0.0\nsamples = 1\nvalue = [1, 0]"] ;
301 -> 303 ;
304 [label="gini = 0.0\nsamples = 525\nvalue = [0, 525]"] ;
298 -> 304 ;
305 [label="funded_amnt_inv <= 3437.5\ngini = 0.0651\nsamples = 267\nvalue = [9, 258]"] ;
297 -> 305 ;
306 [label="total_pymnt_inv <= 3488.9399\ngini = 0.0583\nsamples = 266\nvalue = [8, 258]"] ;
305 -> 306 ;
307 [label="funded_amnt_inv <= 3225.0\ngini = 0.2257\nsamples = 54\nvalue = [7, 47]"] ;
306 -> 307 ;
308 [label="dti <= 0.145\ngini = 0.1738\nsamples = 52\nvalue = [5, 47]"] ;
307 -> 308 ;
309 [label="gini = 0.0\nsamples = 1\nvalue = [1, 0]"] ;
308 -> 309 ;
310 [label="dti <= 24.65\ngini = 0.1446\nsamples = 51\nvalue = [4, 47]"] ;
308 -> 310 ;
311 [label="funded_amnt_inv <= 2987.5\ngini = 0.1128\nsamples = 50\nvalue = [3, 47]"] ;
310 -> 311 ;
312 [label="gini = 0.0\nsamples = 31\nvalue = [0, 31]"] ;
311 -> 312 ;
313 [label="gini = 0.2659\nsamples = 19\nvalue = [3, 16]"] ;
311 -> 313 ;
314 [label="gini = 0.0\nsamples = 1\nvalue = [1, 0]"] ;
310 -> 314 ;
315 [label="gini = 0.0\nsamples = 2\nvalue = [2, 0]"] ;
307 -> 315 ;
316 [label="installment <= 64.505\ngini = 0.0094\nsamples = 212\nvalue = [1, 211]"] ;
306 -> 316 ;
317 [label="revol_util <= 77.8\ngini = 0.4444\nsamples = 3\nvalue = [1, 2]"] ;
316 -> 317 ;
318 [label="gini = 0.0\nsamples = 2\nvalue = [0, 2]"] ;
317 -> 318 ;
319 [label="gini = 0.0\nsamples = 1\nvalue = [1, 0]"] ;
317 -> 319 ;
320 [label="gini = 0.0\nsamples = 209\nvalue = [0, 209]"] ;
316 -> 320 ;
321 [label="gini = 0.0\nsamples = 1\nvalue = [1, 0]"] ;
305 -> 321 ;
322 [label="inq_last_6mths <= 2.5\ngini = 0.1669\nsamples = 185\nvalue = [17, 168]"] ;
296 -> 322 ;
323 [label="total_pymnt_inv <= 4103.5146\ngini = 0.1107\nsamples = 170\nvalue = [10, 160]"] ;
322 -> 323 ;
324 [label="total_pymnt_inv <= 3693.5952\ngini = 0.1008\nsamples = 169\nvalue = [9, 160]"] ;
323 -> 324 ;
325 [label="funded_amnt_inv <= 3471.6738\ngini = 0.2008\nsamples = 53\nvalue = [6, 47]"] ;
324 -> 325 ;
326 [label="funded_amnt <= 17100.0\ngini = 0.05\nsamples = 39\nvalue = [1, 38]"] ;
325 -> 326 ;
327 [label="gini = 0.0\nsamples = 37\nvalue = [0, 37]"] ;
326 -> 327 ;
328 [label="installment <= 696.93\ngini = 0.5\nsamples = 2\nvalue = [1, 1]"] ;
326 -> 328 ;
329 [label="gini = 0.0\nsamples = 1\nvalue = [1, 0]"] ;
328 -> 329 ;
330 [label="gini = 0.0\nsamples = 1\nvalue = [0, 1]"] ;
328 -> 330 ;
331 [label="total_pymnt_inv <= 3482.74\ngini = 0.4592\nsamples = 14\nvalue = [5, 9]"] ;
325 -> 331 ;
332 [label="gini = 0.0\nsamples = 3\nvalue = [3, 0]"] ;
331 -> 332 ;
333 [label="open_acc <= 6.5\ngini = 0.2975\nsamples = 11\nvalue = [2, 9]"] ;
331 -> 333 ;
334 [label="open_acc <= 4.5\ngini = 0.4444\nsamples = 3\nvalue = [2, 1]"] ;
333 -> 334 ;
335 [label="gini = 0.0\nsamples = 1\nvalue = [0, 1]"] ;
334 -> 335 ;
336 [label="gini = 0.0\nsamples = 2\nvalue = [2, 0]"] ;
334 -> 336 ;
337 [label="gini = 0.0\nsamples = 8\nvalue = [0, 8]"] ;
333 -> 337 ;
338 [label="revol_util <= 0.1\ngini = 0.0504\nsamples = 116\nvalue = [3, 113]"] ;
324 -> 338 ;
339 [label="installment <= 336.935\ngini = 0.2778\nsamples = 6\nvalue = [1, 5]"] ;
338 -> 339 ;
340 [label="gini = 0.0\nsamples = 5\nvalue = [0, 5]"] ;
339 -> 340 ;
341 [label="gini = 0.0\nsamples = 1\nvalue = [1, 0]"] ;
339 -> 341 ;
342 [label="total_pymnt_inv <= 4084.7651\ngini = 0.0357\nsamples = 110\nvalue = [2, 108]"] ;
338 -> 342 ;
343 [label="pub_rec_bankruptcies <= 0.5\ngini = 0.0192\nsamples = 103\nvalue = [1, 102]"] ;
342 -> 343 ;
344 [label="gini = 0.0\nsamples = 96\nvalue = [0, 96]"] ;
343 -> 344 ;
345 [label="funded_amnt_inv <= 3577.0898\ngini = 0.2449\nsamples = 7\nvalue = [1, 6]"] ;
343 -> 345 ;
346 [label="gini = 0.0\nsamples = 6\nvalue = [0, 6]"] ;
345 -> 346 ;
347 [label="gini = 0.0\nsamples = 1\nvalue = [1, 0]"] ;
345 -> 347 ;
348 [label="revol_util <= 75.25\ngini = 0.2449\nsamples = 7\nvalue = [1, 6]"] ;
342 -> 348 ;
349 [label="gini = 0.0\nsamples = 6\nvalue = [0, 6]"] ;
348 -> 349 ;
350 [label="gini = 0.0\nsamples = 1\nvalue = [1, 0]"] ;
348 -> 350 ;
351 [label="gini = 0.0\nsamples = 1\nvalue = [1, 0]"] ;
323 -> 351 ;
352 [label="revol_util <= 44.3\ngini = 0.4978\nsamples = 15\nvalue = [7, 8]"] ;
322 -> 352 ;
353 [label="funded_amnt_inv <= 3594.8286\ngini = 0.2449\nsamples = 7\nvalue = [1, 6]"] ;
352 -> 353 ;
354 [label="gini = 0.0\nsamples = 6\nvalue = [0, 6]"] ;
353 -> 354 ;
355 [label="gini = 0.0\nsamples = 1\nvalue = [1, 0]"] ;
353 -> 355 ;
356 [label="funded_amnt_inv <= 3550.0\ngini = 0.375\nsamples = 8\nvalue = [6, 2]"] ;
352 -> 356 ;
357 [label="gini = 0.0\nsamples = 6\nvalue = [6, 0]"] ;
356 -> 357 ;
358 [label="gini = 0.0\nsamples = 2\nvalue = [0, 2]"] ;
356 -> 358 ;
359 [label="total_pymnt_inv <= 3839.595\ngini = 0.4213\nsamples = 63\nvalue = [19, 44]"] ;
295 -> 359 ;
360 [label="gini = 0.0\nsamples = 13\nvalue = [13, 0]"] ;
359 -> 360 ;
361 [label="dti <= 16.08\ngini = 0.2112\nsamples = 50\nvalue = [6, 44]"] ;
359 -> 361 ;
362 [label="int_rate <= 14.13\ngini = 0.0526\nsamples = 37\nvalue = [1, 36]"] ;
361 -> 362 ;
363 [label="gini = 0.0\nsamples = 35\nvalue = [0, 35]"] ;
362 -> 363 ;
364 [label="int_rate <= 14.74\ngini = 0.5\nsamples = 2\nvalue = [1, 1]"] ;
362 -> 364 ;
365 [label="gini = 0.0\nsamples = 1\nvalue = [1, 0]"] ;
364 -> 365 ;
366 [label="gini = 0.0\nsamples = 1\nvalue = [0, 1]"] ;
364 -> 366 ;
367 [label="int_rate <= 9.995\ngini = 0.4734\nsamples = 13\nvalue = [5, 8]"] ;
361 -> 367 ;
368 [label="gini = 0.0\nsamples = 5\nvalue = [0, 5]"] ;
367 -> 368 ;
369 [label="annual_inc <= 49200.0\ngini = 0.4688\nsamples = 8\nvalue = [5, 3]"] ;
367 -> 369 ;
370 [label="total_pymnt_inv <= 3918.1699\ngini = 0.48\nsamples = 5\nvalue = [2, 3]"] ;
369 -> 370 ;
371 [label="gini = 0.0\nsamples = 2\nvalue = [2, 0]"] ;
370 -> 371 ;
372 [label="gini = 0.0\nsamples = 3\nvalue = [0, 3]"] ;
370 -> 372 ;
373 [label="gini = 0.0\nsamples = 3\nvalue = [3, 0]"] ;
369 -> 373 ;
374 [label="gini = 0.0\nsamples = 13\nvalue = [13, 0]"] ;
294 -> 374 ;
375 [label="int_rate <= 13.95\ngini = 0.0241\nsamples = 1313\nvalue = [16, 1297]"] ;
293 -> 375 ;
376 [label="open_acc <= 3.5\ngini = 0.0159\nsamples = 1124\nvalue = [9, 1115]"] ;
375 -> 376 ;
377 [label="annual_inc <= 54150.0\ngini = 0.0997\nsamples = 57\nvalue = [3, 54]"] ;
376 -> 377 ;
378 [label="dti <= 21.525\ngini = 0.04\nsamples = 49\nvalue = [1, 48]"] ;
377 -> 378 ;
379 [label="gini = 0.0\nsamples = 45\nvalue = [0, 45]"] ;
378 -> 379 ;
380 [label="dti <= 21.78\ngini = 0.375\nsamples = 4\nvalue = [1, 3]"] ;
378 -> 380 ;
381 [label="gini = 0.0\nsamples = 1\nvalue = [1, 0]"] ;
380 -> 381 ;
382 [label="gini = 0.0\nsamples = 3\nvalue = [0, 3]"] ;
380 -> 382 ;
383 [label="dti <= 3.865\ngini = 0.375\nsamples = 8\nvalue = [2, 6]"] ;
377 -> 383 ;
384 [label="gini = 0.0\nsamples = 6\nvalue = [0, 6]"] ;
383 -> 384 ;
385 [label="gini = 0.0\nsamples = 2\nvalue = [2, 0]"] ;
383 -> 385 ;
386 [label="installment <= 116.855\ngini = 0.0112\nsamples = 1067\nvalue = [6, 1061]"] ;
376 -> 386 ;
387 [label="installment <= 116.735\ngini = 0.0517\nsamples = 113\nvalue = [3, 110]"] ;
386 -> 387 ;
388 [label="dti <= 2.71\ngini = 0.0351\nsamples = 112\nvalue = [2, 110]"] ;
387 -> 388 ;
389 [label="dti <= 2.615\ngini = 0.2311\nsamples = 15\nvalue = [2, 13]"] ;
388 -> 389 ;
390 [label="gini = 0.0\nsamples = 12\nvalue = [0, 12]"] ;
389 -> 390 ;
391 [label="funded_amnt_inv <= 4350.0\ngini = 0.4444\nsamples = 3\nvalue = [2, 1]"] ;
389 -> 391 ;
392 [label="gini = 0.0\nsamples = 2\nvalue = [2, 0]"] ;
391 -> 392 ;
393 [label="gini = 0.0\nsamples = 1\nvalue = [0, 1]"] ;
391 -> 393 ;
394 [label="gini = 0.0\nsamples = 97\nvalue = [0, 97]"] ;
388 -> 394 ;
395 [label="gini = 0.0\nsamples = 1\nvalue = [1, 0]"] ;
387 -> 395 ;
396 [label="delinq_2yrs <= 0.5\ngini = 0.0063\nsamples = 954\nvalue = [3, 951]"] ;
386 -> 396 ;
397 [label="installment <= 167.81\ngini = 0.0023\nsamples = 860\nvalue = [1, 859]"] ;
396 -> 397 ;
398 [label="gini = 0.0\nsamples = 793\nvalue = [0, 793]"] ;
397 -> 398 ;
399 [label="installment <= 168.655\ngini = 0.0294\nsamples = 67\nvalue = [1, 66]"] ;
397 -> 399 ;
400 [label="gini = 0.0\nsamples = 1\nvalue = [1, 0]"] ;
399 -> 400 ;
401 [label="gini = 0.0\nsamples = 66\nvalue = [0, 66]"] ;
399 -> 401 ;
402 [label="annual_inc <= 117500.0\ngini = 0.0416\nsamples = 94\nvalue = [2, 92]"] ;
396 -> 402 ;
403 [label="open_acc <= 4.5\ngini = 0.0222\nsamples = 89\nvalue = [1, 88]"] ;
402 -> 403 ;
404 [label="int_rate <= 9.615\ngini = 0.1653\nsamples = 11\nvalue = [1, 10]"] ;
403 -> 404 ;
405 [label="gini = 0.0\nsamples = 1\nvalue = [1, 0]"] ;
404 -> 405 ;
406 [label="gini = 0.0\nsamples = 10\nvalue = [0, 10]"] ;
404 -> 406 ;
407 [label="gini = 0.0\nsamples = 78\nvalue = [0, 78]"] ;
403 -> 407 ;
408 [label="total_pymnt_inv <= 4708.8203\ngini = 0.32\nsamples = 5\nvalue = [1, 4]"] ;
402 -> 408 ;
409 [label="gini = 0.0\nsamples = 4\nvalue = [0, 4]"] ;
408 -> 409 ;
410 [label="gini = 0.0\nsamples = 1\nvalue = [1, 0]"] ;
408 -> 410 ;
411 [label="dti <= 12.975\ngini = 0.0713\nsamples = 189\nvalue = [7, 182]"] ;
375 -> 411 ;
412 [label="term <= 48.0\ngini = 0.0194\nsamples = 102\nvalue = [1, 101]"] ;
411 -> 412 ;
413 [label="gini = 0.0\nsamples = 89\nvalue = [0, 89]"] ;
412 -> 413 ;
414 [label="installment <= 94.335\ngini = 0.142\nsamples = 13\nvalue = [1, 12]"] ;
412 -> 414 ;
415 [label="gini = 0.0\nsamples = 12\nvalue = [0, 12]"] ;
414 -> 415 ;
416 [label="gini = 0.0\nsamples = 1\nvalue = [1, 0]"] ;
414 -> 416 ;
417 [label="dti <= 13.21\ngini = 0.1284\nsamples = 87\nvalue = [6, 81]"] ;
411 -> 417 ;
418 [label="gini = 0.0\nsamples = 1\nvalue = [1, 0]"] ;
417 -> 418 ;
419 [label="annual_inc <= 18900.0\ngini = 0.1095\nsamples = 86\nvalue = [5, 81]"] ;
417 -> 419 ;
420 [label="delinq_2yrs <= 0.5\ngini = 0.5\nsamples = 2\nvalue = [1, 1]"] ;
419 -> 420 ;
421 [label="gini = 0.0\nsamples = 1\nvalue = [0, 1]"] ;
420 -> 421 ;
422 [label="gini = 0.0\nsamples = 1\nvalue = [1, 0]"] ;
420 -> 422 ;
423 [label="revol_util <= 56.9\ngini = 0.0907\nsamples = 84\nvalue = [4, 80]"] ;
419 -> 423 ;
424 [label="revol_util <= 56.0\ngini = 0.2188\nsamples = 32\nvalue = [4, 28]"] ;
423 -> 424 ;
425 [label="int_rate <= 15.425\ngini = 0.1748\nsamples = 31\nvalue = [3, 28]"] ;
424 -> 425 ;
426 [label="int_rate <= 13.985\ngini = 0.0713\nsamples = 27\nvalue = [1, 26]"] ;
425 -> 426 ;
427 [label="open_acc <= 11.0\ngini = 0.4444\nsamples = 3\nvalue = [1, 2]"] ;
426 -> 427 ;
428 [label="gini = 0.0\nsamples = 2\nvalue = [0, 2]"] ;
427 -> 428 ;
429 [label="gini = 0.0\nsamples = 1\nvalue = [1, 0]"] ;
427 -> 429 ;
430 [label="gini = 0.0\nsamples = 24\nvalue = [0, 24]"] ;
426 -> 430 ;
431 [label="dti <= 17.195\ngini = 0.5\nsamples = 4\nvalue = [2, 2]"] ;
425 -> 431 ;
432 [label="gini = 0.0\nsamples = 2\nvalue = [0, 2]"] ;
431 -> 432 ;
433 [label="gini = 0.0\nsamples = 2\nvalue = [2, 0]"] ;
431 -> 433 ;
434 [label="gini = 0.0\nsamples = 1\nvalue = [1, 0]"] ;
424 -> 434 ;
435 [label="gini = 0.0\nsamples = 52\nvalue = [0, 52]"] ;
423 -> 435 ;
436 [label="total_pymnt_inv <= 4848.4297\ngini = 0.2611\nsamples = 136\nvalue = [21, 115]"] ;
292 -> 436 ;
437 [label="gini = 0.0\nsamples = 15\nvalue = [15, 0]"] ;
436 -> 437 ;
438 [label="revol_util <= 92.7\ngini = 0.0943\nsamples = 121\nvalue = [6, 115]"] ;
436 -> 438 ;
439 [label="dti <= 0.12\ngini = 0.065\nsamples = 119\nvalue = [4, 115]"] ;
438 -> 439 ;
440 [label="gini = 0.0\nsamples = 1\nvalue = [1, 0]"] ;
439 -> 440 ;
441 [label="dti <= 19.385\ngini = 0.0496\nsamples = 118\nvalue = [3, 115]"] ;
439 -> 441 ;
442 [label="gini = 0.0\nsamples = 102\nvalue = [0, 102]"] ;
441 -> 442 ;
443 [label="dti <= 19.775\ngini = 0.3047\nsamples = 16\nvalue = [3, 13]"] ;
441 -> 443 ;
444 [label="gini = 0.0\nsamples = 2\nvalue = [2, 0]"] ;
443 -> 444 ;
445 [label="funded_amnt_inv <= 4779.4365\ngini = 0.1327\nsamples = 14\nvalue = [1, 13]"] ;
443 -> 445 ;
446 [label="gini = 0.0\nsamples = 1\nvalue = [1, 0]"] ;
445 -> 446 ;
447 [label="gini = 0.0\nsamples = 13\nvalue = [0, 13]"] ;
445 -> 447 ;
448 [label="gini = 0.0\nsamples = 2\nvalue = [2, 0]"] ;
438 -> 448 ;
449 [label="total_pymnt_inv <= 5013.0952\ngini = 0.4554\nsamples = 134\nvalue = [47, 87]"] ;
291 -> 449 ;
450 [label="gini = 0.0\nsamples = 40\nvalue = [40, 0]"] ;
449 -> 450 ;
451 [label="dti <= 15.23\ngini = 0.1378\nsamples = 94\nvalue = [7, 87]"] ;
449 -> 451 ;
452 [label="gini = 0.0\nsamples = 65\nvalue = [0, 65]"] ;
451 -> 452 ;
453 [label="int_rate <= 8.695\ngini = 0.3662\nsamples = 29\nvalue = [7, 22]"] ;
451 -> 453 ;
454 [label="gini = 0.0\nsamples = 14\nvalue = [0, 14]"] ;
453 -> 454 ;
455 [label="int_rate <= 10.365\ngini = 0.4978\nsamples = 15\nvalue = [7, 8]"] ;
453 -> 455 ;
456 [label="gini = 0.0\nsamples = 3\nvalue = [3, 0]"] ;
455 -> 456 ;
457 [label="revol_util <= 90.9\ngini = 0.4444\nsamples = 12\nvalue = [4, 8]"] ;
455 -> 457 ;
458 [label="dti <= 16.375\ngini = 0.32\nsamples = 10\nvalue = [2, 8]"] ;
457 -> 458 ;
459 [label="gini = 0.0\nsamples = 1\nvalue = [1, 0]"] ;
458 -> 459 ;
460 [label="installment <= 108.54\ngini = 0.1975\nsamples = 9\nvalue = [1, 8]"] ;
458 -> 460 ;
461 [label="total_pymnt_inv <= 5118.375\ngini = 0.5\nsamples = 2\nvalue = [1, 1]"] ;
460 -> 461 ;
462 [label="gini = 0.0\nsamples = 1\nvalue = [0, 1]"] ;
461 -> 462 ;
463 [label="gini = 0.0\nsamples = 1\nvalue = [1, 0]"] ;
461 -> 463 ;
464 [label="gini = 0.0\nsamples = 7\nvalue = [0, 7]"] ;
460 -> 464 ;
465 [label="gini = 0.0\nsamples = 2\nvalue = [2, 0]"] ;
457 -> 465 ;
466 [label="installment <= 111.325\ngini = 0.0053\nsamples = 376\nvalue = [375, 1]"] ;
290 -> 466 ;
467 [label="gini = 0.0\nsamples = 1\nvalue = [0, 1]"] ;
466 -> 467 ;
468 [label="gini = 0.0\nsamples = 375\nvalue = [375, 0]"] ;
466 -> 468 ;
469 [label="term <= 48.0\ngini = 0.1164\nsamples = 17082\nvalue = [1060, 16022]"] ;
289 -> 469 ;
470 [label="installment <= 271.395\ngini = 0.0863\nsamples = 13082\nvalue = [591, 12491]"] ;
469 -> 470 ;
471 [label="total_pymnt_inv <= 6549.7354\ngini = 0.0389\nsamples = 4882\nvalue = [97, 4785]"] ;
470 -> 471 ;
472 [label="funded_amnt_inv <= 6458.0249\ngini = 0.0772\nsamples = 1840\nvalue = [74, 1766]"] ;
471 -> 472 ;
473 [label="installment <= 189.145\ngini = 0.0402\nsamples = 1803\nvalue = [37, 1766]"] ;
472 -> 473 ;
474 [label="total_pymnt_inv <= 6546.2549\ngini = 0.0197\nsamples = 1610\nvalue = [16, 1594]"] ;
473 -> 474 ;
475 [label="funded_amnt_inv <= 6037.5\ngini = 0.0185\nsamples = 1607\nvalue = [15, 1592]"] ;
474 -> 475 ;
476 [label="int_rate <= 13.475\ngini = 0.0173\nsamples = 1603\nvalue = [14, 1589]"] ;
475 -> 476 ;
477 [label="total_pymnt_inv <= 5352.625\ngini = 0.0104\nsamples = 1337\nvalue = [7, 1330]"] ;
476 -> 477 ;
478 [label="dti <= 3.81\ngini = 0.18\nsamples = 10\nvalue = [1, 9]"] ;
477 -> 478 ;
479 [label="gini = 0.0\nsamples = 1\nvalue = [1, 0]"] ;
478 -> 479 ;
480 [label="gini = 0.0\nsamples = 9\nvalue = [0, 9]"] ;
478 -> 480 ;
481 [label="total_pymnt_inv <= 5512.8901\ngini = 0.009\nsamples = 1327\nvalue = [6, 1321]"] ;
477 -> 481 ;
482 [label="funded_amnt_inv <= 5450.0\ngini = 0.0326\nsamples = 241\nvalue = [4, 237]"] ;
481 -> 482 ;
483 [label="total_pymnt_inv <= 5511.0049\ngini = 0.0247\nsamples = 240\nvalue = [3, 237]"] ;
482 -> 483 ;
484 [label="revol_util <= 90.2\ngini = 0.0166\nsamples = 239\nvalue = [2, 237]"] ;
483 -> 484 ;
485 [label="total_pymnt_inv <= 5472.9346\ngini = 0.0084\nsamples = 237\nvalue = [1, 236]"] ;
484 -> 485 ;
486 [label="gini = 0.0\nsamples = 175\nvalue = [0, 175]"] ;
485 -> 486 ;
487 [label="gini = 0.0317\nsamples = 62\nvalue = [1, 61]"] ;
485 -> 487 ;
488 [label="annual_inc <= 75000.0\ngini = 0.5\nsamples = 2\nvalue = [1, 1]"] ;
484 -> 488 ;
489 [label="gini = 0.0\nsamples = 1\nvalue = [0, 1]"] ;
488 -> 489 ;
490 [label="gini = 0.0\nsamples = 1\nvalue = [1, 0]"] ;
488 -> 490 ;
491 [label="gini = 0.0\nsamples = 1\nvalue = [1, 0]"] ;
483 -> 491 ;
492 [label="gini = 0.0\nsamples = 1\nvalue = [1, 0]"] ;
482 -> 492 ;
493 [label="installment <= 186.665\ngini = 0.0037\nsamples = 1086\nvalue = [2, 1084]"] ;
481 -> 493 ;
494 [label="Verified <= 0.5\ngini = 0.0019\nsamples = 1036\nvalue = [1, 1035]"] ;
493 -> 494 ;
495 [label="gini = 0.0\nsamples = 850\nvalue = [0, 850]"] ;
494 -> 495 ;
496 [label="total_pymnt_inv <= 5670.5249\ngini = 0.0107\nsamples = 186\nvalue = [1, 185]"] ;
494 -> 496 ;
497 [label="total_pymnt_inv <= 5667.1299\ngini = 0.0487\nsamples = 40\nvalue = [1, 39]"] ;
496 -> 497 ;
498 [label="gini = 0.0\nsamples = 39\nvalue = [0, 39]"] ;
497 -> 498 ;
499 [label="gini = 0.0\nsamples = 1\nvalue = [1, 0]"] ;
497 -> 499 ;
500 [label="gini = 0.0\nsamples = 146\nvalue = [0, 146]"] ;
496 -> 500 ;
501 [label="installment <= 186.74\ngini = 0.0392\nsamples = 50\nvalue = [1, 49]"] ;
493 -> 501 ;
502 [label="annual_inc <= 73998.0\ngini = 0.1975\nsamples = 9\nvalue = [1, 8]"] ;
501 -> 502 ;
503 [label="gini = 0.0\nsamples = 8\nvalue = [0, 8]"] ;
502 -> 503 ;
504 [label="gini = 0.0\nsamples = 1\nvalue = [1, 0]"] ;
502 -> 504 ;
505 [label="gini = 0.0\nsamples = 41\nvalue = [0, 41]"] ;
501 -> 505 ;
506 [label="total_pymnt_inv <= 5819.7402\ngini = 0.0512\nsamples = 266\nvalue = [7, 259]"] ;
476 -> 506 ;
507 [label="total_pymnt_inv <= 5810.9551\ngini = 0.1755\nsamples = 72\nvalue = [7, 65]"] ;
506 -> 507 ;
508 [label="open_acc <= 18.5\ngini = 0.1327\nsamples = 70\nvalue = [5, 65]"] ;
507 -> 508 ;
509 [label="dti <= 3.875\ngini = 0.1107\nsamples = 68\nvalue = [4, 64]"] ;
508 -> 509 ;
510 [label="funded_amnt_inv <= 4900.0\ngini = 0.4082\nsamples = 7\nvalue = [2, 5]"] ;
509 -> 510 ;
511 [label="gini = 0.0\nsamples = 5\nvalue = [0, 5]"] ;
510 -> 511 ;
512 [label="gini = 0.0\nsamples = 2\nvalue = [2, 0]"] ;
510 -> 512 ;
513 [label="annual_inc <= 19482.0\ngini = 0.0634\nsamples = 61\nvalue = [2, 59]"] ;
509 -> 513 ;
514 [label="funded_amnt <= 4900.0\ngini = 0.4444\nsamples = 3\nvalue = [1, 2]"] ;
513 -> 514 ;
515 [label="gini = 0.0\nsamples = 2\nvalue = [0, 2]"] ;
514 -> 515 ;
516 [label="gini = 0.0\nsamples = 1\nvalue = [1, 0]"] ;
514 -> 516 ;
517 [label="revol_util <= 90.4\ngini = 0.0339\nsamples = 58\nvalue = [1, 57]"] ;
513 -> 517 ;
518 [label="gini = 0.0\nsamples = 53\nvalue = [0, 53]"] ;
517 -> 518 ;
519 [label="gini = 0.32\nsamples = 5\nvalue = [1, 4]"] ;
517 -> 519 ;
520 [label="funded_amnt_inv <= 4750.0\ngini = 0.5\nsamples = 2\nvalue = [1, 1]"] ;
508 -> 520 ;
521 [label="gini = 0.0\nsamples = 1\nvalue = [0, 1]"] ;
520 -> 521 ;
522 [label="gini = 0.0\nsamples = 1\nvalue = [1, 0]"] ;
520 -> 522 ;
523 [label="gini = 0.0\nsamples = 2\nvalue = [2, 0]"] ;
507 -> 523 ;
524 [label="gini = 0.0\nsamples = 194\nvalue = [0, 194]"] ;
506 -> 524 ;
525 [label="total_pymnt_inv <= 6467.0449\ngini = 0.375\nsamples = 4\nvalue = [1, 3]"] ;
475 -> 525 ;
526 [label="gini = 0.0\nsamples = 3\nvalue = [0, 3]"] ;
525 -> 526 ;
527 [label="gini = 0.0\nsamples = 1\nvalue = [1, 0]"] ;
525 -> 527 ;
528 [label="Verified <= 0.5\ngini = 0.4444\nsamples = 3\nvalue = [1, 2]"] ;
474 -> 528 ;
529 [label="gini = 0.0\nsamples = 2\nvalue = [0, 2]"] ;
528 -> 529 ;
530 [label="gini = 0.0\nsamples = 1\nvalue = [1, 0]"] ;
528 -> 530 ;
531 [label="funded_amnt_inv <= 5962.5347\ngini = 0.1939\nsamples = 193\nvalue = [21, 172]"] ;
473 -> 531 ;
532 [label="dti <= 24.295\ngini = 0.0517\nsamples = 113\nvalue = [3, 110]"] ;
531 -> 532 ;
533 [label="total_pymnt_inv <= 5474.415\ngini = 0.0351\nsamples = 112\nvalue = [2, 110]"] ;
532 -> 533 ;
534 [label="int_rate <= 13.0\ngini = 0.5\nsamples = 2\nvalue = [1, 1]"] ;
533 -> 534 ;
535 [label="gini = 0.0\nsamples = 1\nvalue = [1, 0]"] ;
534 -> 535 ;
536 [label="gini = 0.0\nsamples = 1\nvalue = [0, 1]"] ;
534 -> 536 ;
537 [label="int_rate <= 14.945\ngini = 0.018\nsamples = 110\nvalue = [1, 109]"] ;
533 -> 537 ;
538 [label="gini = 0.0\nsamples = 101\nvalue = [0, 101]"] ;
537 -> 538 ;
539 [label="annual_inc <= 45150.0\ngini = 0.1975\nsamples = 9\nvalue = [1, 8]"] ;
537 -> 539 ;
540 [label="gini = 0.0\nsamples = 1\nvalue = [1, 0]"] ;
539 -> 540 ;
541 [label="gini = 0.0\nsamples = 8\nvalue = [0, 8]"] ;
539 -> 541 ;
542 [label="gini = 0.0\nsamples = 1\nvalue = [1, 0]"] ;
532 -> 542 ;
543 [label="total_pymnt_inv <= 6065.165\ngini = 0.3488\nsamples = 80\nvalue = [18, 62]"] ;
531 -> 543 ;
544 [label="gini = 0.0\nsamples = 10\nvalue = [10, 0]"] ;
543 -> 544 ;
545 [label="open_acc <= 18.5\ngini = 0.2024\nsamples = 70\nvalue = [8, 62]"] ;
543 -> 545 ;
546 [label="revol_util <= 96.35\ngini = 0.1631\nsamples = 67\nvalue = [6, 61]"] ;
545 -> 546 ;
547 [label="int_rate <= 13.225\ngini = 0.14\nsamples = 66\nvalue = [5, 61]"] ;
546 -> 547 ;
548 [label="open_acc <= 13.5\ngini = 0.0726\nsamples = 53\nvalue = [2, 51]"] ;
547 -> 548 ;
549 [label="gini = 0.0\nsamples = 45\nvalue = [0, 45]"] ;
548 -> 549 ;
550 [label="installment <= 192.805\ngini = 0.375\nsamples = 8\nvalue = [2, 6]"] ;
548 -> 550 ;
551 [label="gini = 0.0\nsamples = 2\nvalue = [2, 0]"] ;
550 -> 551 ;
552 [label="gini = 0.0\nsamples = 6\nvalue = [0, 6]"] ;
550 -> 552 ;
553 [label="annual_inc <= 57500.0\ngini = 0.355\nsamples = 13\nvalue = [3, 10]"] ;
547 -> 553 ;
554 [label="annual_inc <= 43750.0\ngini = 0.5\nsamples = 6\nvalue = [3, 3]"] ;
553 -> 554 ;
555 [label="gini = 0.0\nsamples = 2\nvalue = [0, 2]"] ;
554 -> 555 ;
556 [label="total_pymnt_inv <= 6118.0698\ngini = 0.375\nsamples = 4\nvalue = [3, 1]"] ;
554 -> 556 ;
557 [label="gini = 0.0\nsamples = 1\nvalue = [0, 1]"] ;
556 -> 557 ;
558 [label="gini = 0.0\nsamples = 3\nvalue = [3, 0]"] ;
556 -> 558 ;
559 [label="gini = 0.0\nsamples = 7\nvalue = [0, 7]"] ;
553 -> 559 ;
560 [label="gini = 0.0\nsamples = 1\nvalue = [1, 0]"] ;
546 -> 560 ;
561 [label="int_rate <= 11.77\ngini = 0.4444\nsamples = 3\nvalue = [2, 1]"] ;
545 -> 561 ;
562 [label="gini = 0.0\nsamples = 2\nvalue = [2, 0]"] ;
561 -> 562 ;
563 [label="gini = 0.0\nsamples = 1\nvalue = [0, 1]"] ;
561 -> 563 ;
564 [label="gini = 0.0\nsamples = 37\nvalue = [37, 0]"] ;
472 -> 564 ;
565 [label="installment <= 225.26\ngini = 0.015\nsamples = 3042\nvalue = [23, 3019]"] ;
471 -> 565 ;
566 [label="gini = 0.0\nsamples = 1537\nvalue = [0, 1537]"] ;
565 -> 566 ;
567 [label="total_pymnt_inv <= 7087.7197\ngini = 0.0301\nsamples = 1505\nvalue = [23, 1482]"] ;
565 -> 567 ;
568 [label="funded_amnt_inv <= 6875.0\ngini = 0.3856\nsamples = 23\nvalue = [6, 17]"] ;
567 -> 568 ;
569 [label="gini = 0.0\nsamples = 15\nvalue = [0, 15]"] ;
568 -> 569 ;
570 [label="inq_last_6mths <= 1.5\ngini = 0.375\nsamples = 8\nvalue = [6, 2]"] ;
568 -> 570 ;
571 [label="gini = 0.0\nsamples = 6\nvalue = [6, 0]"] ;
570 -> 571 ;
572 [label="gini = 0.0\nsamples = 2\nvalue = [0, 2]"] ;
570 -> 572 ;
573 [label="total_pymnt_inv <= 8008.5898\ngini = 0.0227\nsamples = 1482\nvalue = [17, 1465]"] ;
567 -> 573 ;
574 [label="funded_amnt_inv <= 7900.0\ngini = 0.1161\nsamples = 194\nvalue = [12, 182]"] ;
573 -> 574 ;
575 [label="total_pymnt_inv <= 8001.9453\ngini = 0.0713\nsamples = 189\nvalue = [7, 182]"] ;
574 -> 575 ;
576 [label="int_rate <= 15.675\ngini = 0.0618\nsamples = 188\nvalue = [6, 182]"] ;
575 -> 576 ;
577 [label="annual_inc <= 29400.0\ngini = 0.0523\nsamples = 186\nvalue = [5, 181]"] ;
576 -> 577 ;
578 [label="total_pymnt_inv <= 7424.6797\ngini = 0.3047\nsamples = 16\nvalue = [3, 13]"] ;
577 -> 578 ;
579 [label="funded_amnt_inv <= 6719.4976\ngini = 0.4444\nsamples = 3\nvalue = [2, 1]"] ;
578 -> 579 ;
580 [label="gini = 0.0\nsamples = 1\nvalue = [0, 1]"] ;
579 -> 580 ;
581 [label="gini = 0.0\nsamples = 2\nvalue = [2, 0]"] ;
579 -> 581 ;
582 [label="Source Verified <= 0.5\ngini = 0.142\nsamples = 13\nvalue = [1, 12]"] ;
578 -> 582 ;
583 [label="gini = 0.0\nsamples = 12\nvalue = [0, 12]"] ;
582 -> 583 ;
584 [label="gini = 0.0\nsamples = 1\nvalue = [1, 0]"] ;
582 -> 584 ;
585 [label="installment <= 225.35\ngini = 0.0233\nsamples = 170\nvalue = [2, 168]"] ;
577 -> 585 ;
586 [label="dti <= 11.16\ngini = 0.375\nsamples = 4\nvalue = [1, 3]"] ;
585 -> 586 ;
587 [label="gini = 0.0\nsamples = 1\nvalue = [1, 0]"] ;
586 -> 587 ;
588 [label="gini = 0.0\nsamples = 3\nvalue = [0, 3]"] ;
586 -> 588 ;
589 [label="int_rate <= 14.125\ngini = 0.012\nsamples = 166\nvalue = [1, 165]"] ;
585 -> 589 ;
590 [label="gini = 0.0\nsamples = 155\nvalue = [0, 155]"] ;
589 -> 590 ;
591 [label="total_pymnt_inv <= 7847.9399\ngini = 0.1653\nsamples = 11\nvalue = [1, 10]"] ;
589 -> 591 ;
592 [label="gini = 0.0\nsamples = 9\nvalue = [0, 9]"] ;
591 -> 592 ;
593 [label="total_pymnt_inv <= 7890.0801\ngini = 0.5\nsamples = 2\nvalue = [1, 1]"] ;
591 -> 593 ;
594 [label="gini = 0.0\nsamples = 1\nvalue = [1, 0]"] ;
593 -> 594 ;
595 [label="gini = 0.0\nsamples = 1\nvalue = [0, 1]"] ;
593 -> 595 ;
596 [label="funded_amnt <= 7100.0\ngini = 0.5\nsamples = 2\nvalue = [1, 1]"] ;
576 -> 596 ;
597 [label="gini = 0.0\nsamples = 1\nvalue = [1, 0]"] ;
596 -> 597 ;
598 [label="gini = 0.0\nsamples = 1\nvalue = [0, 1]"] ;
596 -> 598 ;
599 [label="gini = 0.0\nsamples = 1\nvalue = [1, 0]"] ;
575 -> 599 ;
600 [label="gini = 0.0\nsamples = 5\nvalue = [5, 0]"] ;
574 -> 600 ;
601 [label="funded_amnt_inv <= 8437.5\ngini = 0.0077\nsamples = 1288\nvalue = [5, 1283]"] ;
573 -> 601 ;
602 [label="int_rate <= 15.6\ngini = 0.0049\nsamples = 1228\nvalue = [3, 1225]"] ;
601 -> 602 ;
603 [label="dti <= 24.57\ngini = 0.0033\nsamples = 1204\nvalue = [2, 1202]"] ;
602 -> 603 ;
604 [label="dti <= 20.175\ngini = 0.0017\nsamples = 1163\nvalue = [1, 1162]"] ;
603 -> 604 ;
605 [label="gini = 0.0\nsamples = 998\nvalue = [0, 998]"] ;
604 -> 605 ;
606 [label="dti <= 20.215\ngini = 0.012\nsamples = 165\nvalue = [1, 164]"] ;
604 -> 606 ;
607 [label="gini = 0.0\nsamples = 1\nvalue = [1, 0]"] ;
606 -> 607 ;
608 [label="gini = 0.0\nsamples = 164\nvalue = [0, 164]"] ;
606 -> 608 ;
609 [label="dti <= 24.59\ngini = 0.0476\nsamples = 41\nvalue = [1, 40]"] ;
603 -> 609 ;
610 [label="gini = 0.0\nsamples = 1\nvalue = [1, 0]"] ;
609 -> 610 ;
611 [label="gini = 0.0\nsamples = 40\nvalue = [0, 40]"] ;
609 -> 611 ;
612 [label="funded_amnt_inv <= 7485.2148\ngini = 0.0799\nsamples = 24\nvalue = [1, 23]"] ;
602 -> 612 ;
613 [label="gini = 0.0\nsamples = 21\nvalue = [0, 21]"] ;
612 -> 613 ;
614 [label="annual_inc <= 55500.0\ngini = 0.4444\nsamples = 3\nvalue = [1, 2]"] ;
612 -> 614 ;
615 [label="gini = 0.0\nsamples = 2\nvalue = [0, 2]"] ;
614 -> 615 ;
616 [label="gini = 0.0\nsamples = 1\nvalue = [1, 0]"] ;
614 -> 616 ;
617 [label="total_pymnt_inv <= 8569.3604\ngini = 0.0644\nsamples = 60\nvalue = [2, 58]"] ;
601 -> 617 ;
618 [label="gini = 0.0\nsamples = 2\nvalue = [2, 0]"] ;
617 -> 618 ;
619 [label="gini = 0.0\nsamples = 58\nvalue = [0, 58]"] ;
617 -> 619 ;
620 [label="total_pymnt_inv <= 8798.3047\ngini = 0.1132\nsamples = 8200\nvalue = [494, 7706]"] ;
470 -> 620 ;
621 [label="funded_amnt_inv <= 7981.9189\ngini = 0.5\nsamples = 430\nvalue = [217, 213]"] ;
620 -> 621 ;
622 [label="funded_amnt_inv <= 7399.5371\ngini = 0.0754\nsamples = 204\nvalue = [8, 196]"] ;
621 -> 622 ;
623 [label="int_rate <= 11.085\ngini = 0.0225\nsamples = 176\nvalue = [2, 174]"] ;
622 -> 623 ;
624 [label="revol_util <= 69.65\ngini = 0.1207\nsamples = 31\nvalue = [2, 29]"] ;
623 -> 624 ;
625 [label="int_rate <= 10.99\ngini = 0.0644\nsamples = 30\nvalue = [1, 29]"] ;
624 -> 625 ;
626 [label="gini = 0.0\nsamples = 29\nvalue = [0, 29]"] ;
625 -> 626 ;
627 [label="gini = 0.0\nsamples = 1\nvalue = [1, 0]"] ;
625 -> 627 ;
628 [label="gini = 0.0\nsamples = 1\nvalue = [1, 0]"] ;
624 -> 628 ;
629 [label="gini = 0.0\nsamples = 145\nvalue = [0, 145]"] ;
623 -> 629 ;
630 [label="total_pymnt_inv <= 8247.9648\ngini = 0.3367\nsamples = 28\nvalue = [6, 22]"] ;
622 -> 630 ;
631 [label="int_rate <= 12.53\ngini = 0.4938\nsamples = 9\nvalue = [5, 4]"] ;
630 -> 631 ;
632 [label="funded_amnt_inv <= 7426.377\ngini = 0.32\nsamples = 5\nvalue = [1, 4]"] ;
631 -> 632 ;
633 [label="gini = 0.0\nsamples = 1\nvalue = [1, 0]"] ;
632 -> 633 ;
634 [label="gini = 0.0\nsamples = 4\nvalue = [0, 4]"] ;
632 -> 634 ;
635 [label="gini = 0.0\nsamples = 4\nvalue = [4, 0]"] ;
631 -> 635 ;
636 [label="open_acc <= 19.5\ngini = 0.0997\nsamples = 19\nvalue = [1, 18]"] ;
630 -> 636 ;
637 [label="gini = 0.0\nsamples = 18\nvalue = [0, 18]"] ;
636 -> 637 ;
638 [label="gini = 0.0\nsamples = 1\nvalue = [1, 0]"] ;
636 -> 638 ;
639 [label="funded_amnt_inv <= 8750.0\ngini = 0.1391\nsamples = 226\nvalue = [209, 17]"] ;
621 -> 639 ;
640 [label="total_pymnt_inv <= 8287.5\ngini = 0.4918\nsamples = 39\nvalue = [22, 17]"] ;
639 -> 640 ;
641 [label="gini = 0.0\nsamples = 21\nvalue = [21, 0]"] ;
640 -> 641 ;
642 [label="annual_inc <= 152000.0\ngini = 0.1049\nsamples = 18\nvalue = [1, 17]"] ;
640 -> 642 ;
643 [label="gini = 0.0\nsamples = 17\nvalue = [0, 17]"] ;
642 -> 643 ;
644 [label="gini = 0.0\nsamples = 1\nvalue = [1, 0]"] ;
642 -> 644 ;
645 [label="gini = 0.0\nsamples = 187\nvalue = [187, 0]"] ;
639 -> 645 ;
646 [label="total_pymnt_inv <= 9771.54\ngini = 0.0688\nsamples = 7770\nvalue = [277, 7493]"] ;
620 -> 646 ;
647 [label="funded_amnt_inv <= 9625.0\ngini = 0.2322\nsamples = 373\nvalue = [50, 323]"] ;
646 -> 647 ;
648 [label="dti <= 29.125\ngini = 0.0744\nsamples = 336\nvalue = [13, 323]"] ;
647 -> 648 ;
649 [label="annual_inc <= 35002.0\ngini = 0.0691\nsamples = 335\nvalue = [12, 323]"] ;
648 -> 649 ;
650 [label="installment <= 285.35\ngini = 0.2604\nsamples = 39\nvalue = [6, 33]"] ;
649 -> 650 ;
651 [label="gini = 0.0\nsamples = 19\nvalue = [0, 19]"] ;
650 -> 651 ;
652 [label="installment <= 287.615\ngini = 0.42\nsamples = 20\nvalue = [6, 14]"] ;
650 -> 652 ;
653 [label="gini = 0.0\nsamples = 2\nvalue = [2, 0]"] ;
652 -> 653 ;
654 [label="funded_amnt_inv <= 8899.4404\ngini = 0.3457\nsamples = 18\nvalue = [4, 14]"] ;
652 -> 654 ;
655 [label="gini = 0.0\nsamples = 10\nvalue = [0, 10]"] ;
654 -> 655 ;
656 [label="total_pymnt_inv <= 9646.0293\ngini = 0.5\nsamples = 8\nvalue = [4, 4]"] ;
654 -> 656 ;
657 [label="int_rate <= 15.23\ngini = 0.32\nsamples = 5\nvalue = [4, 1]"] ;
656 -> 657 ;
658 [label="gini = 0.0\nsamples = 4\nvalue = [4, 0]"] ;
657 -> 658 ;
659 [label="gini = 0.0\nsamples = 1\nvalue = [0, 1]"] ;
657 -> 659 ;
660 [label="gini = 0.0\nsamples = 3\nvalue = [0, 3]"] ;
656 -> 660 ;
661 [label="funded_amnt_inv <= 9487.5\ngini = 0.0397\nsamples = 296\nvalue = [6, 290]"] ;
649 -> 661 ;
662 [label="delinq_2yrs <= 1.5\ngini = 0.0337\nsamples = 292\nvalue = [5, 287]"] ;
661 -> 662 ;
663 [label="open_acc <= 15.5\ngini = 0.0275\nsamples = 287\nvalue = [4, 283]"] ;
662 -> 663 ;
664 [label="loan_amnt <= 17000.0\ngini = 0.0152\nsamples = 261\nvalue = [2, 259]"] ;
663 -> 664 ;
665 [label="total_pymnt_inv <= 8910.8301\ngini = 0.0079\nsamples = 253\nvalue = [1, 252]"] ;
664 -> 665 ;
666 [label="funded_amnt_inv <= 8550.0\ngini = 0.1528\nsamples = 12\nvalue = [1, 11]"] ;
665 -> 666 ;
667 [label="gini = 0.0\nsamples = 11\nvalue = [0, 11]"] ;
666 -> 667 ;
668 [label="gini = 0.0\nsamples = 1\nvalue = [1, 0]"] ;
666 -> 668 ;
669 [label="gini = 0.0\nsamples = 241\nvalue = [0, 241]"] ;
665 -> 669 ;
670 [label="installment <= 446.645\ngini = 0.2188\nsamples = 8\nvalue = [1, 7]"] ;
664 -> 670 ;
671 [label="dti <= 5.53\ngini = 0.5\nsamples = 2\nvalue = [1, 1]"] ;
670 -> 671 ;
672 [label="gini = 0.0\nsamples = 1\nvalue = [0, 1]"] ;
671 -> 672 ;
673 [label="gini = 0.0\nsamples = 1\nvalue = [1, 0]"] ;
671 -> 673 ;
674 [label="gini = 0.0\nsamples = 6\nvalue = [0, 6]"] ;
670 -> 674 ;
675 [label="pub_rec_bankruptcies <= 0.5\ngini = 0.142\nsamples = 26\nvalue = [2, 24]"] ;
663 -> 675 ;
676 [label="annual_inc <= 39211.9375\ngini = 0.0768\nsamples = 25\nvalue = [1, 24]"] ;
675 -> 676 ;
677 [label="loan_amnt <= 8737.5\ngini = 0.4444\nsamples = 3\nvalue = [1, 2]"] ;
676 -> 677 ;
678 [label="gini = 0.0\nsamples = 1\nvalue = [1, 0]"] ;
677 -> 678 ;
679 [label="gini = 0.0\nsamples = 2\nvalue = [0, 2]"] ;
677 -> 679 ;
680 [label="gini = 0.0\nsamples = 22\nvalue = [0, 22]"] ;
676 -> 680 ;
681 [label="gini = 0.0\nsamples = 1\nvalue = [1, 0]"] ;
675 -> 681 ;
682 [label="annual_inc <= 105750.0\ngini = 0.32\nsamples = 5\nvalue = [1, 4]"] ;
662 -> 682 ;
683 [label="gini = 0.0\nsamples = 4\nvalue = [0, 4]"] ;
682 -> 683 ;
684 [label="gini = 0.0\nsamples = 1\nvalue = [1, 0]"] ;
682 -> 684 ;
685 [label="total_pymnt_inv <= 9438.6152\ngini = 0.375\nsamples = 4\nvalue = [1, 3]"] ;
661 -> 685 ;
686 [label="gini = 0.0\nsamples = 1\nvalue = [1, 0]"] ;
685 -> 686 ;
687 [label="gini = 0.0\nsamples = 3\nvalue = [0, 3]"] ;
685 -> 687 ;
688 [label="gini = 0.0\nsamples = 1\nvalue = [1, 0]"] ;
648 -> 688 ;
689 [label="gini = 0.0\nsamples = 37\nvalue = [37, 0]"] ;
647 -> 689 ;
690 [label="installment <= 472.995\ngini = 0.0595\nsamples = 7397\nvalue = [227, 7170]"] ;
646 -> 690 ;
691 [label="pub_rec_bankruptcies <= 1.5\ngini = 0.027\nsamples = 4391\nvalue = [60, 4331]"] ;
690 -> 691 ;
692 [label="inq_last_6mths <= 5.5\ngini = 0.0265\nsamples = 4390\nvalue = [59, 4331]"] ;
691 -> 692 ;
693 [label="installment <= 324.32\ngini = 0.0257\nsamples = 4385\nvalue = [57, 4328]"] ;
692 -> 693 ;
694 [label="revol_util <= 0.45\ngini = 0.0015\nsamples = 1329\nvalue = [1, 1328]"] ;
693 -> 694 ;
695 [label="revol_util <= 0.3\ngini = 0.054\nsamples = 36\nvalue = [1, 35]"] ;
694 -> 695 ;
696 [label="gini = 0.0\nsamples = 35\nvalue = [0, 35]"] ;
695 -> 696 ;
697 [label="gini = 0.0\nsamples = 1\nvalue = [1, 0]"] ;
695 -> 697 ;
698 [label="gini = 0.0\nsamples = 1293\nvalue = [0, 1293]"] ;
694 -> 698 ;
699 [label="total_pymnt_inv <= 11026.6309\ngini = 0.036\nsamples = 3056\nvalue = [56, 3000]"] ;
693 -> 699 ;
700 [label="funded_amnt_inv <= 10700.0\ngini = 0.2311\nsamples = 180\nvalue = [24, 156]"] ;
699 -> 700 ;
701 [label="annual_inc <= 47504.0\ngini = 0.1341\nsamples = 166\nvalue = [12, 154]"] ;
700 -> 701 ;
702 [label="open_acc <= 14.0\ngini = 0.2873\nsamples = 46\nvalue = [8, 38]"] ;
701 -> 702 ;
703 [label="dti <= 21.295\ngini = 0.2355\nsamples = 44\nvalue = [6, 38]"] ;
702 -> 703 ;
704 [label="revol_util <= 91.05\ngini = 0.142\nsamples = 39\nvalue = [3, 36]"] ;
703 -> 704 ;
705 [label="gini = 0.0997\nsamples = 38\nvalue = [2, 36]"] ;
704 -> 705 ;
706 [label="gini = 0.0\nsamples = 1\nvalue = [1, 0]"] ;
704 -> 706 ;
707 [label="revol_util <= 76.65\ngini = 0.48\nsamples = 5\nvalue = [3, 2]"] ;
703 -> 707 ;
708 [label="gini = 0.0\nsamples = 3\nvalue = [3, 0]"] ;
707 -> 708 ;
709 [label="gini = 0.0\nsamples = 2\nvalue = [0, 2]"] ;
707 -> 709 ;
710 [label="gini = 0.0\nsamples = 2\nvalue = [2, 0]"] ;
702 -> 710 ;
711 [label="revol_util <= 2.7\ngini = 0.0644\nsamples = 120\nvalue = [4, 116]"] ;
701 -> 711 ;
712 [label="gini = 0.0\nsamples = 1\nvalue = [1, 0]"] ;
711 -> 712 ;
713 [label="installment <= 324.44\ngini = 0.0491\nsamples = 119\nvalue = [3, 116]"] ;
711 -> 713 ;
714 [label="total_pymnt_inv <= 10319.2949\ngini = 0.375\nsamples = 4\nvalue = [1, 3]"] ;
713 -> 714 ;
715 [label="gini = 0.0\nsamples = 1\nvalue = [1, 0]"] ;
714 -> 715 ;
716 [label="gini = 0.0\nsamples = 3\nvalue = [0, 3]"] ;
714 -> 716 ;
717 [label="funded_amnt_inv <= 10141.6074\ngini = 0.0342\nsamples = 115\nvalue = [2, 113]"] ;
713 -> 717 ;
718 [label="gini = 0.0185\nsamples = 107\nvalue = [1, 106]"] ;
717 -> 718 ;
719 [label="gini = 0.2188\nsamples = 8\nvalue = [1, 7]"] ;
717 -> 719 ;
720 [label="revol_util <= 15.05\ngini = 0.2449\nsamples = 14\nvalue = [12, 2]"] ;
700 -> 720 ;
721 [label="gini = 0.0\nsamples = 1\nvalue = [0, 1]"] ;
720 -> 721 ;
722 [label="total_pymnt_inv <= 11016.1953\ngini = 0.142\nsamples = 13\nvalue = [12, 1]"] ;
720 -> 722 ;
723 [label="gini = 0.0\nsamples = 11\nvalue = [11, 0]"] ;
722 -> 723 ;
724 [label="total_pymnt_inv <= 11025.3496\ngini = 0.5\nsamples = 2\nvalue = [1, 1]"] ;
722 -> 724 ;
725 [label="gini = 0.0\nsamples = 1\nvalue = [0, 1]"] ;
724 -> 725 ;
726 [label="gini = 0.0\nsamples = 1\nvalue = [1, 0]"] ;
724 -> 726 ;
727 [label="total_pymnt_inv <= 12203.3906\ngini = 0.022\nsamples = 2876\nvalue = [32, 2844]"] ;
699 -> 727 ;
728 [label="funded_amnt_inv <= 11962.5\ngini = 0.0498\nsamples = 704\nvalue = [18, 686]"] ;
727 -> 728 ;
729 [label="installment <= 324.395\ngini = 0.0173\nsamples = 688\nvalue = [6, 682]"] ;
728 -> 729 ;
730 [label="dti <= 11.085\ngini = 0.32\nsamples = 5\nvalue = [1, 4]"] ;
729 -> 730 ;
731 [label="gini = 0.0\nsamples = 3\nvalue = [0, 3]"] ;
730 -> 731 ;
732 [label="open_acc <= 12.0\ngini = 0.5\nsamples = 2\nvalue = [1, 1]"] ;
730 -> 732 ;
733 [label="gini = 0.0\nsamples = 1\nvalue = [1, 0]"] ;
732 -> 733 ;
734 [label="gini = 0.0\nsamples = 1\nvalue = [0, 1]"] ;
732 -> 734 ;
735 [label="revol_util <= 90.45\ngini = 0.0145\nsamples = 683\nvalue = [5, 678]"] ;
729 -> 735 ;
736 [label="total_pymnt_inv <= 11941.165\ngini = 0.0091\nsamples = 653\nvalue = [3, 650]"] ;
735 -> 736 ;
737 [label="gini = 0.0\nsamples = 457\nvalue = [0, 457]"] ;
736 -> 737 ;
738 [label="gini = 0.0301\nsamples = 196\nvalue = [3, 193]"] ;
736 -> 738 ;
739 [label="revol_util <= 90.65\ngini = 0.1244\nsamples = 30\nvalue = [2, 28]"] ;
735 -> 739 ;
740 [label="gini = 0.0\nsamples = 1\nvalue = [1, 0]"] ;
739 -> 740 ;
741 [label="gini = 0.0666\nsamples = 29\nvalue = [1, 28]"] ;
739 -> 741 ;
742 [label="total_pymnt_inv <= 12085.7598\ngini = 0.375\nsamples = 16\nvalue = [12, 4]"] ;
728 -> 742 ;
743 [label="gini = 0.0\nsamples = 9\nvalue = [9, 0]"] ;
742 -> 743 ;
744 [label="funded_amnt_inv <= 12150.0\ngini = 0.4898\nsamples = 7\nvalue = [3, 4]"] ;
742 -> 744 ;
745 [label="gini = 0.0\nsamples = 4\nvalue = [0, 4]"] ;
744 -> 745 ;
746 [label="gini = 0.0\nsamples = 3\nvalue = [3, 0]"] ;
744 -> 746 ;
747 [label="dti <= 0.025\ngini = 0.0128\nsamples = 2172\nvalue = [14, 2158]"] ;
727 -> 747 ;
748 [label="int_rate <= 7.99\ngini = 0.4444\nsamples = 3\nvalue = [1, 2]"] ;
747 -> 748 ;
749 [label="gini = 0.0\nsamples = 1\nvalue = [1, 0]"] ;
748 -> 749 ;
750 [label="gini = 0.0\nsamples = 2\nvalue = [0, 2]"] ;
748 -> 750 ;
751 [label="revol_util <= 97.45\ngini = 0.0119\nsamples = 2169\nvalue = [13, 2156]"] ;
747 -> 751 ;
752 [label="total_pymnt_inv <= 14370.4648\ngini = 0.0111\nsamples = 2154\nvalue = [12, 2142]"] ;
751 -> 752 ;
753 [label="total_pymnt_inv <= 14367.5605\ngini = 0.0176\nsamples = 1349\nvalue = [12, 1337]"] ;
752 -> 753 ;
754 [label="gini = 0.0162\nsamples = 1348\nvalue = [11, 1337]"] ;
753 -> 754 ;
755 [label="gini = 0.0\nsamples = 1\nvalue = [1, 0]"] ;
753 -> 755 ;
756 [label="gini = 0.0\nsamples = 805\nvalue = [0, 805]"] ;
752 -> 756 ;
757 [label="revol_util <= 97.55\ngini = 0.1244\nsamples = 15\nvalue = [1, 14]"] ;
751 -> 757 ;
758 [label="gini = 0.0\nsamples = 1\nvalue = [1, 0]"] ;
757 -> 758 ;
759 [label="gini = 0.0\nsamples = 14\nvalue = [0, 14]"] ;
757 -> 759 ;
760 [label="open_acc <= 9.5\ngini = 0.48\nsamples = 5\nvalue = [2, 3]"] ;
692 -> 760 ;
761 [label="gini = 0.0\nsamples = 2\nvalue = [0, 2]"] ;
760 -> 761 ;
762 [label="funded_amnt <= 10625.0\ngini = 0.4444\nsamples = 3\nvalue = [2, 1]"] ;
760 -> 762 ;
763 [label="gini = 0.0\nsamples = 1\nvalue = [0, 1]"] ;
762 -> 763 ;
764 [label="gini = 0.0\nsamples = 2\nvalue = [2, 0]"] ;
762 -> 764 ;
765 [label="gini = 0.0\nsamples = 1\nvalue = [1, 0]"] ;
691 -> 765 ;
766 [label="total_pymnt_inv <= 15671.3105\ngini = 0.1049\nsamples = 3006\nvalue = [167, 2839]"] ;
690 -> 766 ;
767 [label="funded_amnt_inv <= 14819.6973\ngini = 0.4694\nsamples = 271\nvalue = [102, 169]"] ;
766 -> 767 ;
768 [label="funded_amnt_inv <= 14069.3184\ngini = 0.1567\nsamples = 175\nvalue = [15, 160]"] ;
767 -> 768 ;
769 [label="total_pymnt_inv <= 15608.0703\ngini = 0.0763\nsamples = 151\nvalue = [6, 145]"] ;
768 -> 769 ;
770 [label="int_rate <= 15.975\ngini = 0.0649\nsamples = 149\nvalue = [5, 144]"] ;
769 -> 770 ;
771 [label="funded_amnt <= 14037.5\ngini = 0.0529\nsamples = 147\nvalue = [4, 143]"] ;
770 -> 771 ;
772 [label="open_acc <= 5.5\ngini = 0.3457\nsamples = 9\nvalue = [2, 7]"] ;
771 -> 772 ;
773 [label="gini = 0.0\nsamples = 1\nvalue = [1, 0]"] ;
772 -> 773 ;
774 [label="revol_util <= 53.05\ngini = 0.2188\nsamples = 8\nvalue = [1, 7]"] ;
772 -> 774 ;
775 [label="gini = 0.0\nsamples = 1\nvalue = [1, 0]"] ;
774 -> 775 ;
776 [label="gini = 0.0\nsamples = 7\nvalue = [0, 7]"] ;
774 -> 776 ;
777 [label="dti <= 1.435\ngini = 0.0286\nsamples = 138\nvalue = [2, 136]"] ;
771 -> 777 ;
778 [label="revol_util <= 32.2\ngini = 0.32\nsamples = 5\nvalue = [1, 4]"] ;
777 -> 778 ;
779 [label="gini = 0.0\nsamples = 4\nvalue = [0, 4]"] ;
778 -> 779 ;
780 [label="gini = 0.0\nsamples = 1\nvalue = [1, 0]"] ;
778 -> 780 ;
781 [label="open_acc <= 4.5\ngini = 0.0149\nsamples = 133\nvalue = [1, 132]"] ;
777 -> 781 ;
782 [label="dti <= 7.81\ngini = 0.32\nsamples = 5\nvalue = [1, 4]"] ;
781 -> 782 ;
783 [label="gini = 0.0\nsamples = 3\nvalue = [0, 3]"] ;
782 -> 783 ;
784 [label="gini = 0.5\nsamples = 2\nvalue = [1, 1]"] ;
782 -> 784 ;
785 [label="gini = 0.0\nsamples = 128\nvalue = [0, 128]"] ;
781 -> 785 ;
786 [label="annual_inc <= 56000.0\ngini = 0.5\nsamples = 2\nvalue = [1, 1]"] ;
770 -> 786 ;
787 [label="gini = 0.0\nsamples = 1\nvalue = [0, 1]"] ;
786 -> 787 ;
788 [label="gini = 0.0\nsamples = 1\nvalue = [1, 0]"] ;
786 -> 788 ;
789 [label="delinq_2yrs <= 0.5\ngini = 0.5\nsamples = 2\nvalue = [1, 1]"] ;
769 -> 789 ;
790 [label="gini = 0.0\nsamples = 1\nvalue = [0, 1]"] ;
789 -> 790 ;
791 [label="gini = 0.0\nsamples = 1\nvalue = [1, 0]"] ;
789 -> 791 ;
792 [label="total_pymnt_inv <= 14356.9902\ngini = 0.4688\nsamples = 24\nvalue = [9, 15]"] ;
768 -> 792 ;
793 [label="gini = 0.0\nsamples = 9\nvalue = [9, 0]"] ;
792 -> 793 ;
794 [label="gini = 0.0\nsamples = 15\nvalue = [0, 15]"] ;
792 -> 794 ;
795 [label="total_pymnt_inv <= 14932.8799\ngini = 0.1699\nsamples = 96\nvalue = [87, 9]"] ;
767 -> 795 ;
796 [label="gini = 0.0\nsamples = 76\nvalue = [76, 0]"] ;
795 -> 796 ;
797 [label="loan_amnt <= 17500.0\ngini = 0.495\nsamples = 20\nvalue = [11, 9]"] ;
795 -> 797 ;
798 [label="inq_last_6mths <= 0.5\ngini = 0.375\nsamples = 12\nvalue = [3, 9]"] ;
797 -> 798 ;
799 [label="dti <= 14.265\ngini = 0.5\nsamples = 6\nvalue = [3, 3]"] ;
798 -> 799 ;
800 [label="gini = 0.0\nsamples = 3\nvalue = [0, 3]"] ;
799 -> 800 ;
801 [label="gini = 0.0\nsamples = 3\nvalue = [3, 0]"] ;
799 -> 801 ;
802 [label="gini = 0.0\nsamples = 6\nvalue = [0, 6]"] ;
798 -> 802 ;
803 [label="gini = 0.0\nsamples = 8\nvalue = [8, 0]"] ;
797 -> 803 ;
804 [label="total_pymnt_inv <= 16214.3848\ngini = 0.0464\nsamples = 2735\nvalue = [65, 2670]"] ;
766 -> 804 ;
805 [label="funded_amnt_inv <= 16115.8398\ngini = 0.1975\nsamples = 90\nvalue = [10, 80]"] ;
804 -> 805 ;
806 [label="total_pymnt_inv <= 16212.3945\ngini = 0.0697\nsamples = 83\nvalue = [3, 80]"] ;
805 -> 806 ;
807 [label="total_pymnt_inv <= 16177.4102\ngini = 0.0476\nsamples = 82\nvalue = [2, 80]"] ;
806 -> 807 ;
808 [label="open_acc <= 4.5\ngini = 0.0253\nsamples = 78\nvalue = [1, 77]"] ;
807 -> 808 ;
809 [label="installment <= 477.395\ngini = 0.2778\nsamples = 6\nvalue = [1, 5]"] ;
808 -> 809 ;
810 [label="gini = 0.0\nsamples = 1\nvalue = [1, 0]"] ;
809 -> 810 ;
811 [label="gini = 0.0\nsamples = 5\nvalue = [0, 5]"] ;
809 -> 811 ;
812 [label="gini = 0.0\nsamples = 72\nvalue = [0, 72]"] ;
808 -> 812 ;
813 [label="total_pymnt_inv <= 16187.7695\ngini = 0.375\nsamples = 4\nvalue = [1, 3]"] ;
807 -> 813 ;
814 [label="gini = 0.0\nsamples = 1\nvalue = [1, 0]"] ;
813 -> 814 ;
815 [label="gini = 0.0\nsamples = 3\nvalue = [0, 3]"] ;
813 -> 815 ;
816 [label="gini = 0.0\nsamples = 1\nvalue = [1, 0]"] ;
806 -> 816 ;
817 [label="gini = 0.0\nsamples = 7\nvalue = [7, 0]"] ;
805 -> 817 ;
818 [label="dti <= 28.56\ngini = 0.0407\nsamples = 2645\nvalue = [55, 2590]"] ;
804 -> 818 ;
819 [label="revol_util <= 99.35\ngini = 0.0393\nsamples = 2640\nvalue = [53, 2587]"] ;
818 -> 819 ;
820 [label="dti <= 3.955\ngini = 0.038\nsamples = 2634\nvalue = [51, 2583]"] ;
819 -> 820 ;
821 [label="int_rate <= 15.825\ngini = 0.1256\nsamples = 193\nvalue = [13, 180]"] ;
820 -> 821 ;
822 [label="dti <= 3.945\ngini = 0.1091\nsamples = 190\nvalue = [11, 179]"] ;
821 -> 822 ;
823 [label="installment <= 655.945\ngini = 0.1002\nsamples = 189\nvalue = [10, 179]"] ;
822 -> 823 ;
824 [label="gini = 0.0\nsamples = 84\nvalue = [0, 84]"] ;
823 -> 824 ;
825 [label="total_pymnt_inv <= 19789.4336\ngini = 0.1723\nsamples = 105\nvalue = [10, 95]"] ;
823 -> 825 ;
826 [label="gini = 0.4628\nsamples = 11\nvalue = [7, 4]"] ;
825 -> 826 ;
827 [label="gini = 0.0618\nsamples = 94\nvalue = [3, 91]"] ;
825 -> 827 ;
828 [label="gini = 0.0\nsamples = 1\nvalue = [1, 0]"] ;
822 -> 828 ;
829 [label="int_rate <= 16.035\ngini = 0.4444\nsamples = 3\nvalue = [2, 1]"] ;
821 -> 829 ;
830 [label="gini = 0.0\nsamples = 2\nvalue = [2, 0]"] ;
829 -> 830 ;
831 [label="gini = 0.0\nsamples = 1\nvalue = [0, 1]"] ;
829 -> 831 ;
832 [label="funded_amnt_inv <= 13530.4297\ngini = 0.0307\nsamples = 2441\nvalue = [38, 2403]"] ;
820 -> 832 ;
833 [label="inq_last_6mths <= 1.0\ngini = 0.4444\nsamples = 3\nvalue = [1, 2]"] ;
832 -> 833 ;
834 [label="gini = 0.0\nsamples = 2\nvalue = [0, 2]"] ;
833 -> 834 ;
835 [label="gini = 0.0\nsamples = 1\nvalue = [1, 0]"] ;
833 -> 835 ;
836 [label="installment <= 867.625\ngini = 0.0299\nsamples = 2438\nvalue = [37, 2401]"] ;
832 -> 836 ;
837 [label="total_pymnt_inv <= 16601.3652\ngini = 0.0231\nsamples = 2220\nvalue = [26, 2194]"] ;
836 -> 837 ;
838 [label="total_pymnt_inv <= 16594.1855\ngini = 0.1014\nsamples = 56\nvalue = [3, 53]"] ;
837 -> 838 ;
839 [label="gini = 0.0701\nsamples = 55\nvalue = [2, 53]"] ;
838 -> 839 ;
840 [label="gini = 0.0\nsamples = 1\nvalue = [1, 0]"] ;
838 -> 840 ;
841 [label="installment <= 548.73\ngini = 0.021\nsamples = 2164\nvalue = [23, 2141]"] ;
837 -> 841 ;
842 [label="gini = 0.0\nsamples = 716\nvalue = [0, 716]"] ;
841 -> 842 ;
843 [label="gini = 0.0313\nsamples = 1448\nvalue = [23, 1425]"] ;
841 -> 843 ;
844 [label="total_pymnt_inv <= 26565.0957\ngini = 0.0958\nsamples = 218\nvalue = [11, 207]"] ;
836 -> 844 ;
845 [label="gini = 0.0\nsamples = 8\nvalue = [8, 0]"] ;
844 -> 845 ;
846 [label="revol_util <= 76.95\ngini = 0.0282\nsamples = 210\nvalue = [3, 207]"] ;
844 -> 846 ;
847 [label="gini = 0.0113\nsamples = 176\nvalue = [1, 175]"] ;
846 -> 847 ;
848 [label="gini = 0.1107\nsamples = 34\nvalue = [2, 32]"] ;
846 -> 848 ;
849 [label="total_pymnt_inv <= 24069.8691\ngini = 0.4444\nsamples = 6\nvalue = [2, 4]"] ;
819 -> 849 ;
850 [label="gini = 0.0\nsamples = 4\nvalue = [0, 4]"] ;
849 -> 850 ;
851 [label="gini = 0.0\nsamples = 2\nvalue = [2, 0]"] ;
849 -> 851 ;
852 [label="inq_last_6mths <= 0.5\ngini = 0.48\nsamples = 5\nvalue = [2, 3]"] ;
818 -> 852 ;
853 [label="gini = 0.0\nsamples = 2\nvalue = [2, 0]"] ;
852 -> 853 ;
854 [label="gini = 0.0\nsamples = 3\nvalue = [0, 3]"] ;
852 -> 854 ;
855 [label="total_pymnt_inv <= 10883.7949\ngini = 0.207\nsamples = 4000\nvalue = [469, 3531]"] ;
469 -> 855 ;
856 [label="funded_amnt_inv <= 9474.7646\ngini = 0.3783\nsamples = 1062\nvalue = [269, 793]"] ;
855 -> 856 ;
857 [label="installment <= 177.325\ngini = 0.1468\nsamples = 840\nvalue = [67, 773]"] ;
856 -> 857 ;
858 [label="total_pymnt_inv <= 7558.7197\ngini = 0.0833\nsamples = 666\nvalue = [29, 637]"] ;
857 -> 858 ;
859 [label="installment <= 151.66\ngini = 0.144\nsamples = 333\nvalue = [26, 307]"] ;
858 -> 859 ;
860 [label="installment <= 133.005\ngini = 0.0902\nsamples = 317\nvalue = [15, 302]"] ;
859 -> 860 ;
861 [label="open_acc <= 23.5\ngini = 0.0422\nsamples = 278\nvalue = [6, 272]"] ;
860 -> 861 ;
862 [label="Source Verified <= 0.5\ngini = 0.0356\nsamples = 276\nvalue = [5, 271]"] ;
861 -> 862 ;
863 [label="gini = 0.0\nsamples = 178\nvalue = [0, 178]"] ;
862 -> 863 ;
864 [label="installment <= 127.475\ngini = 0.0968\nsamples = 98\nvalue = [5, 93]"] ;
862 -> 864 ;
865 [label="delinq_2yrs <= 1.5\ngini = 0.0644\nsamples = 90\nvalue = [3, 87]"] ;
864 -> 865 ;
866 [label="total_pymnt_inv <= 5780.23\ngini = 0.0449\nsamples = 87\nvalue = [2, 85]"] ;
865 -> 866 ;
867 [label="installment <= 109.48\ngini = 0.2188\nsamples = 16\nvalue = [2, 14]"] ;
866 -> 867 ;
868 [label="gini = 0.0\nsamples = 14\nvalue = [0, 14]"] ;
867 -> 868 ;
869 [label="gini = 0.0\nsamples = 2\nvalue = [2, 0]"] ;
867 -> 869 ;
870 [label="gini = 0.0\nsamples = 71\nvalue = [0, 71]"] ;
866 -> 870 ;
871 [label="annual_inc <= 65002.0\ngini = 0.4444\nsamples = 3\nvalue = [1, 2]"] ;
865 -> 871 ;
872 [label="gini = 0.0\nsamples = 2\nvalue = [0, 2]"] ;
871 -> 872 ;
873 [label="gini = 0.0\nsamples = 1\nvalue = [1, 0]"] ;
871 -> 873 ;
874 [label="installment <= 128.595\ngini = 0.375\nsamples = 8\nvalue = [2, 6]"] ;
864 -> 874 ;
875 [label="gini = 0.0\nsamples = 2\nvalue = [2, 0]"] ;
874 -> 875 ;
876 [label="gini = 0.0\nsamples = 6\nvalue = [0, 6]"] ;
874 -> 876 ;
877 [label="funded_amnt_inv <= 5425.0\ngini = 0.5\nsamples = 2\nvalue = [1, 1]"] ;
861 -> 877 ;
878 [label="gini = 0.0\nsamples = 1\nvalue = [0, 1]"] ;
877 -> 878 ;
879 [label="gini = 0.0\nsamples = 1\nvalue = [1, 0]"] ;
877 -> 879 ;
880 [label="loan_amnt <= 5937.5\ngini = 0.355\nsamples = 39\nvalue = [9, 30]"] ;
860 -> 880 ;
881 [label="gini = 0.0\nsamples = 2\nvalue = [2, 0]"] ;
880 -> 881 ;
882 [label="annual_inc <= 21600.0\ngini = 0.3068\nsamples = 37\nvalue = [7, 30]"] ;
880 -> 882 ;
883 [label="total_pymnt_inv <= 7280.355\ngini = 0.375\nsamples = 4\nvalue = [3, 1]"] ;
882 -> 883 ;
884 [label="gini = 0.0\nsamples = 3\nvalue = [3, 0]"] ;
883 -> 884 ;
885 [label="gini = 0.0\nsamples = 1\nvalue = [0, 1]"] ;
883 -> 885 ;
886 [label="total_pymnt_inv <= 5822.4854\ngini = 0.213\nsamples = 33\nvalue = [4, 29]"] ;
882 -> 886 ;
887 [label="gini = 0.0\nsamples = 1\nvalue = [1, 0]"] ;
886 -> 887 ;
888 [label="installment <= 133.25\ngini = 0.1699\nsamples = 32\nvalue = [3, 29]"] ;
886 -> 888 ;
889 [label="total_pymnt_inv <= 7125.75\ngini = 0.5\nsamples = 2\nvalue = [1, 1]"] ;
888 -> 889 ;
890 [label="gini = 0.0\nsamples = 1\nvalue = [0, 1]"] ;
889 -> 890 ;
891 [label="gini = 0.0\nsamples = 1\nvalue = [1, 0]"] ;
889 -> 891 ;
892 [label="int_rate <= 15.01\ngini = 0.1244\nsamples = 30\nvalue = [2, 28]"] ;
888 -> 892 ;
893 [label="int_rate <= 10.665\ngini = 0.074\nsamples = 26\nvalue = [1, 25]"] ;
892 -> 893 ;
894 [label="int_rate <= 10.48\ngini = 0.2449\nsamples = 7\nvalue = [1, 6]"] ;
893 -> 894 ;
895 [label="gini = 0.0\nsamples = 6\nvalue = [0, 6]"] ;
894 -> 895 ;
896 [label="gini = 0.0\nsamples = 1\nvalue = [1, 0]"] ;
894 -> 896 ;
897 [label="gini = 0.0\nsamples = 19\nvalue = [0, 19]"] ;
893 -> 897 ;
898 [label="installment <= 144.01\ngini = 0.375\nsamples = 4\nvalue = [1, 3]"] ;
892 -> 898 ;
899 [label="gini = 0.0\nsamples = 1\nvalue = [1, 0]"] ;
898 -> 899 ;
900 [label="gini = 0.0\nsamples = 3\nvalue = [0, 3]"] ;
898 -> 900 ;
901 [label="funded_amnt_inv <= 6450.0\ngini = 0.4297\nsamples = 16\nvalue = [11, 5]"] ;
859 -> 901 ;
902 [label="gini = 0.0\nsamples = 2\nvalue = [0, 2]"] ;
901 -> 902 ;
903 [label="total_pymnt_inv <= 7244.02\ngini = 0.3367\nsamples = 14\nvalue = [11, 3]"] ;
901 -> 903 ;
904 [label="gini = 0.0\nsamples = 8\nvalue = [8, 0]"] ;
903 -> 904 ;
905 [label="int_rate <= 15.25\ngini = 0.5\nsamples = 6\nvalue = [3, 3]"] ;
903 -> 905 ;
906 [label="int_rate <= 11.56\ngini = 0.375\nsamples = 4\nvalue = [1, 3]"] ;
905 -> 906 ;
907 [label="gini = 0.0\nsamples = 1\nvalue = [1, 0]"] ;
906 -> 907 ;
908 [label="gini = 0.0\nsamples = 3\nvalue = [0, 3]"] ;
906 -> 908 ;
909 [label="gini = 0.0\nsamples = 2\nvalue = [2, 0]"] ;
905 -> 909 ;
910 [label="annual_inc <= 21576.0\ngini = 0.0179\nsamples = 333\nvalue = [3, 330]"] ;
858 -> 910 ;
911 [label="revol_util <= 6.65\ngini = 0.375\nsamples = 4\nvalue = [1, 3]"] ;
910 -> 911 ;
912 [label="gini = 0.0\nsamples = 1\nvalue = [1, 0]"] ;
911 -> 912 ;
913 [label="gini = 0.0\nsamples = 3\nvalue = [0, 3]"] ;
911 -> 913 ;
914 [label="annual_inc <= 24250.0\ngini = 0.0121\nsamples = 329\nvalue = [2, 327]"] ;
910 -> 914 ;
915 [label="Verified <= 0.5\ngini = 0.142\nsamples = 13\nvalue = [1, 12]"] ;
914 -> 915 ;
916 [label="gini = 0.0\nsamples = 12\nvalue = [0, 12]"] ;
915 -> 916 ;
917 [label="gini = 0.0\nsamples = 1\nvalue = [1, 0]"] ;
915 -> 917 ;
918 [label="delinq_2yrs <= 0.5\ngini = 0.0063\nsamples = 316\nvalue = [1, 315]"] ;
914 -> 918 ;
919 [label="gini = 0.0\nsamples = 283\nvalue = [0, 283]"] ;
918 -> 919 ;
920 [label="dti <= 16.055\ngini = 0.0588\nsamples = 33\nvalue = [1, 32]"] ;
918 -> 920 ;
921 [label="gini = 0.0\nsamples = 25\nvalue = [0, 25]"] ;
920 -> 921 ;
922 [label="dti <= 16.495\ngini = 0.2188\nsamples = 8\nvalue = [1, 7]"] ;
920 -> 922 ;
923 [label="gini = 0.0\nsamples = 1\nvalue = [1, 0]"] ;
922 -> 923 ;
924 [label="gini = 0.0\nsamples = 7\nvalue = [0, 7]"] ;
922 -> 924 ;
925 [label="total_pymnt_inv <= 8501.8398\ngini = 0.3414\nsamples = 174\nvalue = [38, 136]"] ;
857 -> 925 ;
926 [label="funded_amnt_inv <= 7325.0\ngini = 0.4444\nsamples = 42\nvalue = [28, 14]"] ;
925 -> 926 ;
927 [label="gini = 0.0\nsamples = 10\nvalue = [0, 10]"] ;
926 -> 927 ;
928 [label="total_pymnt_inv <= 8073.7148\ngini = 0.2188\nsamples = 32\nvalue = [28, 4]"] ;
926 -> 928 ;
929 [label="gini = 0.0\nsamples = 25\nvalue = [25, 0]"] ;
928 -> 929 ;
930 [label="annual_inc <= 106000.0\ngini = 0.4898\nsamples = 7\nvalue = [3, 4]"] ;
928 -> 930 ;
931 [label="installment <= 199.22\ngini = 0.32\nsamples = 5\nvalue = [1, 4]"] ;
930 -> 931 ;
932 [label="gini = 0.0\nsamples = 4\nvalue = [0, 4]"] ;
931 -> 932 ;
933 [label="gini = 0.0\nsamples = 1\nvalue = [1, 0]"] ;
931 -> 933 ;
934 [label="gini = 0.0\nsamples = 2\nvalue = [2, 0]"] ;
930 -> 934 ;
935 [label="revol_util <= 95.85\ngini = 0.14\nsamples = 132\nvalue = [10, 122]"] ;
925 -> 935 ;
936 [label="pub_rec_bankruptcies <= 0.5\ngini = 0.128\nsamples = 131\nvalue = [9, 122]"] ;
935 -> 936 ;
937 [label="int_rate <= 14.625\ngini = 0.1042\nsamples = 127\nvalue = [7, 120]"] ;
936 -> 937 ;
938 [label="open_acc <= 18.0\ngini = 0.0416\nsamples = 94\nvalue = [2, 92]"] ;
937 -> 938 ;
939 [label="total_pymnt_inv <= 8622.3701\ngini = 0.0217\nsamples = 91\nvalue = [1, 90]"] ;
938 -> 939 ;
940 [label="open_acc <= 7.5\ngini = 0.375\nsamples = 4\nvalue = [1, 3]"] ;
939 -> 940 ;
941 [label="gini = 0.0\nsamples = 1\nvalue = [1, 0]"] ;
940 -> 941 ;
942 [label="gini = 0.0\nsamples = 3\nvalue = [0, 3]"] ;
940 -> 942 ;
943 [label="gini = 0.0\nsamples = 87\nvalue = [0, 87]"] ;
939 -> 943 ;
944 [label="total_pymnt_inv <= 9817.2051\ngini = 0.4444\nsamples = 3\nvalue = [1, 2]"] ;
938 -> 944 ;
945 [label="gini = 0.0\nsamples = 1\nvalue = [1, 0]"] ;
944 -> 945 ;
946 [label="gini = 0.0\nsamples = 2\nvalue = [0, 2]"] ;
944 -> 946 ;
947 [label="installment <= 215.965\ngini = 0.2571\nsamples = 33\nvalue = [5, 28]"] ;
937 -> 947 ;
948 [label="int_rate <= 15.22\ngini = 0.2188\nsamples = 32\nvalue = [4, 28]"] ;
947 -> 948 ;
949 [label="int_rate <= 15.055\ngini = 0.3911\nsamples = 15\nvalue = [4, 11]"] ;
948 -> 949 ;
950 [label="total_pymnt_inv <= 8984.335\ngini = 0.18\nsamples = 10\nvalue = [1, 9]"] ;
949 -> 950 ;
951 [label="gini = 0.0\nsamples = 1\nvalue = [1, 0]"] ;
950 -> 951 ;
952 [label="gini = 0.0\nsamples = 9\nvalue = [0, 9]"] ;
950 -> 952 ;
953 [label="revol_util <= 46.1\ngini = 0.48\nsamples = 5\nvalue = [3, 2]"] ;
949 -> 953 ;
954 [label="int_rate <= 15.205\ngini = 0.4444\nsamples = 3\nvalue = [1, 2]"] ;
953 -> 954 ;
955 [label="gini = 0.0\nsamples = 1\nvalue = [1, 0]"] ;
954 -> 955 ;
956 [label="gini = 0.0\nsamples = 2\nvalue = [0, 2]"] ;
954 -> 956 ;
957 [label="gini = 0.0\nsamples = 2\nvalue = [2, 0]"] ;
953 -> 957 ;
958 [label="gini = 0.0\nsamples = 17\nvalue = [0, 17]"] ;
948 -> 958 ;
959 [label="gini = 0.0\nsamples = 1\nvalue = [1, 0]"] ;
947 -> 959 ;
960 [label="int_rate <= 13.6\ngini = 0.5\nsamples = 4\nvalue = [2, 2]"] ;
936 -> 960 ;
961 [label="gini = 0.0\nsamples = 2\nvalue = [2, 0]"] ;
960 -> 961 ;
962 [label="gini = 0.0\nsamples = 2\nvalue = [0, 2]"] ;
960 -> 962 ;
963 [label="gini = 0.0\nsamples = 1\nvalue = [1, 0]"] ;
935 -> 963 ;
964 [label="total_pymnt_inv <= 10062.9551\ngini = 0.1639\nsamples = 222\nvalue = [202, 20]"] ;
856 -> 964 ;
965 [label="int_rate <= 7.285\ngini = 0.0112\nsamples = 178\nvalue = [177, 1]"] ;
964 -> 965 ;
966 [label="gini = 0.0\nsamples = 1\nvalue = [0, 1]"] ;
965 -> 966 ;
967 [label="gini = 0.0\nsamples = 177\nvalue = [177, 0]"] ;
965 -> 967 ;
968 [label="funded_amnt_inv <= 10825.0\ngini = 0.4907\nsamples = 44\nvalue = [25, 19]"] ;
964 -> 968 ;
969 [label="funded_amnt_inv <= 9961.9766\ngini = 0.2355\nsamples = 22\nvalue = [3, 19]"] ;
968 -> 969 ;
970 [label="gini = 0.0\nsamples = 13\nvalue = [0, 13]"] ;
969 -> 970 ;
971 [label="total_pymnt_inv <= 10617.6299\ngini = 0.4444\nsamples = 9\nvalue = [3, 6]"] ;
969 -> 971 ;
972 [label="total_pymnt_inv <= 10431.0146\ngini = 0.375\nsamples = 4\nvalue = [3, 1]"] ;
971 -> 972 ;
973 [label="gini = 0.0\nsamples = 1\nvalue = [0, 1]"] ;
972 -> 973 ;
974 [label="gini = 0.0\nsamples = 3\nvalue = [3, 0]"] ;
972 -> 974 ;
975 [label="gini = 0.0\nsamples = 5\nvalue = [0, 5]"] ;
971 -> 975 ;
976 [label="gini = 0.0\nsamples = 22\nvalue = [22, 0]"] ;
968 -> 976 ;
977 [label="funded_amnt_inv <= 15587.5\ngini = 0.1269\nsamples = 2938\nvalue = [200, 2738]"] ;
855 -> 977 ;
978 [label="total_pymnt_inv <= 16039.0195\ngini = 0.0699\nsamples = 1488\nvalue = [54, 1434]"] ;
977 -> 978 ;
979 [label="installment <= 286.84\ngini = 0.1008\nsamples = 902\nvalue = [48, 854]"] ;
978 -> 979 ;
980 [label="total_pymnt_inv <= 12300.4297\ngini = 0.0512\nsamples = 760\nvalue = [20, 740]"] ;
979 -> 980 ;
981 [label="installment <= 268.265\ngini = 0.1177\nsamples = 223\nvalue = [14, 209]"] ;
980 -> 981 ;
982 [label="total_pymnt_inv <= 12296.1855\ngini = 0.072\nsamples = 214\nvalue = [8, 206]"] ;
981 -> 982 ;
983 [label="installment <= 219.235\ngini = 0.0636\nsamples = 213\nvalue = [7, 206]"] ;
982 -> 983 ;
984 [label="total_pymnt_inv <= 12134.6348\ngini = 0.0123\nsamples = 162\nvalue = [1, 161]"] ;
983 -> 984 ;
985 [label="gini = 0.0\nsamples = 147\nvalue = [0, 147]"] ;
984 -> 985 ;
986 [label="total_pymnt_inv <= 12143.0996\ngini = 0.1244\nsamples = 15\nvalue = [1, 14]"] ;
984 -> 986 ;
987 [label="gini = 0.0\nsamples = 1\nvalue = [1, 0]"] ;
986 -> 987 ;
988 [label="gini = 0.0\nsamples = 14\nvalue = [0, 14]"] ;
986 -> 988 ;
989 [label="pub_rec_bankruptcies <= 0.5\ngini = 0.2076\nsamples = 51\nvalue = [6, 45]"] ;
983 -> 989 ;
990 [label="int_rate <= 15.985\ngini = 0.1528\nsamples = 48\nvalue = [4, 44]"] ;
989 -> 990 ;
991 [label="revol_util <= 65.4\ngini = 0.1195\nsamples = 47\nvalue = [3, 44]"] ;
990 -> 991 ;
992 [label="gini = 0.0\nsamples = 36\nvalue = [0, 36]"] ;
991 -> 992 ;
993 [label="revol_util <= 71.0\ngini = 0.3967\nsamples = 11\nvalue = [3, 8]"] ;
991 -> 993 ;
994 [label="gini = 0.0\nsamples = 3\nvalue = [3, 0]"] ;
993 -> 994 ;
995 [label="gini = 0.0\nsamples = 8\nvalue = [0, 8]"] ;
993 -> 995 ;
996 [label="gini = 0.0\nsamples = 1\nvalue = [1, 0]"] ;
990 -> 996 ;
997 [label="loan_amnt <= 9800.0\ngini = 0.4444\nsamples = 3\nvalue = [2, 1]"] ;
989 -> 997 ;
998 [label="gini = 0.0\nsamples = 1\nvalue = [0, 1]"] ;
997 -> 998 ;
999 [label="gini = 0.0\nsamples = 2\nvalue = [2, 0]"] ;
997 -> 999 ;
1000 [label="gini = 0.0\nsamples = 1\nvalue = [1, 0]"] ;
982 -> 1000 ;
1001 [label="open_acc <= 7.5\ngini = 0.4444\nsamples = 9\nvalue = [6, 3]"] ;
981 -> 1001 ;
1002 [label="gini = 0.0\nsamples = 3\nvalue = [0, 3]"] ;
1001 -> 1002 ;
1003 [label="gini = 0.0\nsamples = 6\nvalue = [6, 0]"] ;
1001 -> 1003 ;
1004 [label="revol_util <= 94.1\ngini = 0.0221\nsamples = 537\nvalue = [6, 531]"] ;
980 -> 1004 ;
1005 [label="annual_inc <= 25022.0\ngini = 0.0187\nsamples = 530\nvalue = [5, 525]"] ;
1004 -> 1005 ;
1006 [label="funded_amnt_inv <= 11975.0\ngini = 0.1107\nsamples = 17\nvalue = [1, 16]"] ;
1005 -> 1006 ;
1007 [label="gini = 0.0\nsamples = 15\nvalue = [0, 15]"] ;
1006 -> 1007 ;
1008 [label="total_pymnt_inv <= 13855.6699\ngini = 0.5\nsamples = 2\nvalue = [1, 1]"] ;
1006 -> 1008 ;
1009 [label="gini = 0.0\nsamples = 1\nvalue = [1, 0]"] ;
1008 -> 1009 ;
1010 [label="gini = 0.0\nsamples = 1\nvalue = [0, 1]"] ;
1008 -> 1010 ;
1011 [label="dti <= 14.54\ngini = 0.0155\nsamples = 513\nvalue = [4, 509]"] ;
1005 -> 1011 ;
1012 [label="gini = 0.0\nsamples = 264\nvalue = [0, 264]"] ;
1011 -> 1012 ;
1013 [label="dti <= 14.625\ngini = 0.0316\nsamples = 249\nvalue = [4, 245]"] ;
1011 -> 1013 ;
1014 [label="gini = 0.0\nsamples = 1\nvalue = [1, 0]"] ;
1013 -> 1014 ;
1015 [label="annual_inc <= 79500.0\ngini = 0.0239\nsamples = 248\nvalue = [3, 245]"] ;
1013 -> 1015 ;
1016 [label="inq_last_6mths <= 2.5\ngini = 0.0096\nsamples = 207\nvalue = [1, 206]"] ;
1015 -> 1016 ;
1017 [label="gini = 0.0\nsamples = 191\nvalue = [0, 191]"] ;
1016 -> 1017 ;
1018 [label="int_rate <= 11.155\ngini = 0.1172\nsamples = 16\nvalue = [1, 15]"] ;
1016 -> 1018 ;
1019 [label="dti <= 18.075\ngini = 0.5\nsamples = 2\nvalue = [1, 1]"] ;
1018 -> 1019 ;
1020 [label="gini = 0.0\nsamples = 1\nvalue = [1, 0]"] ;
1019 -> 1020 ;
1021 [label="gini = 0.0\nsamples = 1\nvalue = [0, 1]"] ;
1019 -> 1021 ;
1022 [label="gini = 0.0\nsamples = 14\nvalue = [0, 14]"] ;
1018 -> 1022 ;
1023 [label="delinq_2yrs <= 0.5\ngini = 0.0928\nsamples = 41\nvalue = [2, 39]"] ;
1015 -> 1023 ;
1024 [label="installment <= 269.38\ngini = 0.05\nsamples = 39\nvalue = [1, 38]"] ;
1023 -> 1024 ;
1025 [label="gini = 0.0\nsamples = 32\nvalue = [0, 32]"] ;
1024 -> 1025 ;
1026 [label="installment <= 270.26\ngini = 0.2449\nsamples = 7\nvalue = [1, 6]"] ;
1024 -> 1026 ;
1027 [label="gini = 0.0\nsamples = 1\nvalue = [1, 0]"] ;
1026 -> 1027 ;
1028 [label="gini = 0.0\nsamples = 6\nvalue = [0, 6]"] ;
1026 -> 1028 ;
1029 [label="dti <= 17.68\ngini = 0.5\nsamples = 2\nvalue = [1, 1]"] ;
1023 -> 1029 ;
1030 [label="gini = 0.0\nsamples = 1\nvalue = [1, 0]"] ;
1029 -> 1030 ;
1031 [label="gini = 0.0\nsamples = 1\nvalue = [0, 1]"] ;
1029 -> 1031 ;
1032 [label="pub_rec_bankruptcies <= 0.5\ngini = 0.2449\nsamples = 7\nvalue = [1, 6]"] ;
1004 -> 1032 ;
1033 [label="gini = 0.0\nsamples = 6\nvalue = [0, 6]"] ;
1032 -> 1033 ;
1034 [label="gini = 0.0\nsamples = 1\nvalue = [1, 0]"] ;
1032 -> 1034 ;
1035 [label="total_pymnt_inv <= 13347.6445\ngini = 0.3166\nsamples = 142\nvalue = [28, 114]"] ;
979 -> 1035 ;
1036 [label="funded_amnt_inv <= 12950.0\ngini = 0.4938\nsamples = 27\nvalue = [12, 15]"] ;
1035 -> 1036 ;
1037 [label="annual_inc <= 40828.1992\ngini = 0.2076\nsamples = 17\nvalue = [2, 15]"] ;
1036 -> 1037 ;
1038 [label="gini = 0.0\nsamples = 2\nvalue = [2, 0]"] ;
1037 -> 1038 ;
1039 [label="gini = 0.0\nsamples = 15\nvalue = [0, 15]"] ;
1037 -> 1039 ;
1040 [label="gini = 0.0\nsamples = 10\nvalue = [10, 0]"] ;
1036 -> 1040 ;
1041 [label="annual_inc <= 115888.0\ngini = 0.2395\nsamples = 115\nvalue = [16, 99]"] ;
1035 -> 1041 ;
1042 [label="open_acc <= 3.5\ngini = 0.1908\nsamples = 103\nvalue = [11, 92]"] ;
1041 -> 1042 ;
1043 [label="gini = 0.0\nsamples = 1\nvalue = [1, 0]"] ;
1042 -> 1043 ;
1044 [label="revol_util <= 62.25\ngini = 0.1769\nsamples = 102\nvalue = [10, 92]"] ;
1042 -> 1044 ;
1045 [label="funded_amnt_inv <= 14725.0\ngini = 0.1049\nsamples = 72\nvalue = [4, 68]"] ;
1044 -> 1045 ;
1046 [label="loan_amnt <= 20250.0\ngini = 0.0655\nsamples = 59\nvalue = [2, 57]"] ;
1045 -> 1046 ;
1047 [label="int_rate <= 15.975\ngini = 0.0351\nsamples = 56\nvalue = [1, 55]"] ;
1046 -> 1047 ;
1048 [label="gini = 0.0\nsamples = 50\nvalue = [0, 50]"] ;
1047 -> 1048 ;
1049 [label="open_acc <= 6.5\ngini = 0.2778\nsamples = 6\nvalue = [1, 5]"] ;
1047 -> 1049 ;
1050 [label="gini = 0.0\nsamples = 1\nvalue = [1, 0]"] ;
1049 -> 1050 ;
1051 [label="gini = 0.0\nsamples = 5\nvalue = [0, 5]"] ;
1049 -> 1051 ;
1052 [label="open_acc <= 15.0\ngini = 0.4444\nsamples = 3\nvalue = [1, 2]"] ;
1046 -> 1052 ;
1053 [label="gini = 0.0\nsamples = 2\nvalue = [0, 2]"] ;
1052 -> 1053 ;
1054 [label="gini = 0.0\nsamples = 1\nvalue = [1, 0]"] ;
1052 -> 1054 ;
1055 [label="total_pymnt_inv <= 14727.7402\ngini = 0.2604\nsamples = 13\nvalue = [2, 11]"] ;
1045 -> 1055 ;
1056 [label="gini = 0.0\nsamples = 2\nvalue = [2, 0]"] ;
1055 -> 1056 ;
1057 [label="gini = 0.0\nsamples = 11\nvalue = [0, 11]"] ;
1055 -> 1057 ;
1058 [label="revol_util <= 72.15\ngini = 0.32\nsamples = 30\nvalue = [6, 24]"] ;
1044 -> 1058 ;
1059 [label="total_pymnt_inv <= 15067.2549\ngini = 0.4861\nsamples = 12\nvalue = [5, 7]"] ;
1058 -> 1059 ;
1060 [label="gini = 0.0\nsamples = 4\nvalue = [4, 0]"] ;
1059 -> 1060 ;
1061 [label="funded_amnt_inv <= 14875.0\ngini = 0.2188\nsamples = 8\nvalue = [1, 7]"] ;
1059 -> 1061 ;
1062 [label="gini = 0.0\nsamples = 7\nvalue = [0, 7]"] ;
1061 -> 1062 ;
1063 [label="gini = 0.0\nsamples = 1\nvalue = [1, 0]"] ;
1061 -> 1063 ;
1064 [label="open_acc <= 14.0\ngini = 0.1049\nsamples = 18\nvalue = [1, 17]"] ;
1058 -> 1064 ;
1065 [label="gini = 0.0\nsamples = 17\nvalue = [0, 17]"] ;
1064 -> 1065 ;
1066 [label="gini = 0.0\nsamples = 1\nvalue = [1, 0]"] ;
1064 -> 1066 ;
1067 [label="annual_inc <= 123500.0\ngini = 0.4861\nsamples = 12\nvalue = [5, 7]"] ;
1041 -> 1067 ;
1068 [label="gini = 0.0\nsamples = 5\nvalue = [5, 0]"] ;
1067 -> 1068 ;
1069 [label="gini = 0.0\nsamples = 7\nvalue = [0, 7]"] ;
1067 -> 1069 ;
1070 [label="revol_util <= 71.85\ngini = 0.0203\nsamples = 586\nvalue = [6, 580]"] ;
978 -> 1070 ;
1071 [label="dti <= 3.495\ngini = 0.0086\nsamples = 461\nvalue = [2, 459]"] ;
1070 -> 1071 ;
1072 [label="dti <= 3.41\ngini = 0.095\nsamples = 20\nvalue = [1, 19]"] ;
1071 -> 1072 ;
1073 [label="gini = 0.0\nsamples = 19\nvalue = [0, 19]"] ;
1072 -> 1073 ;
1074 [label="gini = 0.0\nsamples = 1\nvalue = [1, 0]"] ;
1072 -> 1074 ;
1075 [label="revol_util <= 20.1\ngini = 0.0045\nsamples = 441\nvalue = [1, 440]"] ;
1071 -> 1075 ;
1076 [label="revol_util <= 19.8\ngini = 0.0235\nsamples = 84\nvalue = [1, 83]"] ;
1075 -> 1076 ;
1077 [label="gini = 0.0\nsamples = 82\nvalue = [0, 82]"] ;
1076 -> 1077 ;
1078 [label="annual_inc <= 64300.0\ngini = 0.5\nsamples = 2\nvalue = [1, 1]"] ;
1076 -> 1078 ;
1079 [label="gini = 0.0\nsamples = 1\nvalue = [0, 1]"] ;
1078 -> 1079 ;
1080 [label="gini = 0.0\nsamples = 1\nvalue = [1, 0]"] ;
1078 -> 1080 ;
1081 [label="gini = 0.0\nsamples = 357\nvalue = [0, 357]"] ;
1075 -> 1081 ;
1082 [label="revol_util <= 71.95\ngini = 0.062\nsamples = 125\nvalue = [4, 121]"] ;
1070 -> 1082 ;
1083 [label="int_rate <= 13.905\ngini = 0.5\nsamples = 2\nvalue = [1, 1]"] ;
1082 -> 1083 ;
1084 [label="gini = 0.0\nsamples = 1\nvalue = [1, 0]"] ;
1083 -> 1084 ;
1085 [label="gini = 0.0\nsamples = 1\nvalue = [0, 1]"] ;
1083 -> 1085 ;
1086 [label="funded_amnt <= 14937.5\ngini = 0.0476\nsamples = 123\nvalue = [3, 120]"] ;
1082 -> 1086 ;
1087 [label="gini = 0.0\nsamples = 78\nvalue = [0, 78]"] ;
1086 -> 1087 ;
1088 [label="total_pymnt_inv <= 17809.8438\ngini = 0.1244\nsamples = 45\nvalue = [3, 42]"] ;
1086 -> 1088 ;
1089 [label="open_acc <= 8.0\ngini = 0.5\nsamples = 4\nvalue = [2, 2]"] ;
1088 -> 1089 ;
1090 [label="gini = 0.0\nsamples = 2\nvalue = [0, 2]"] ;
1089 -> 1090 ;
1091 [label="gini = 0.0\nsamples = 2\nvalue = [2, 0]"] ;
1089 -> 1091 ;
1092 [label="funded_amnt_inv <= 14526.2432\ngini = 0.0476\nsamples = 41\nvalue = [1, 40]"] ;
1088 -> 1092 ;
1093 [label="gini = 0.0\nsamples = 1\nvalue = [1, 0]"] ;
1092 -> 1093 ;
1094 [label="gini = 0.0\nsamples = 40\nvalue = [0, 40]"] ;
1092 -> 1094 ;
1095 [label="total_pymnt_inv <= 17440.3438\ngini = 0.1811\nsamples = 1450\nvalue = [146, 1304]"] ;
977 -> 1095 ;
1096 [label="loan_amnt <= 16687.5\ngini = 0.2729\nsamples = 92\nvalue = [77, 15]"] ;
1095 -> 1096 ;
1097 [label="total_pymnt_inv <= 15549.4004\ngini = 0.4994\nsamples = 29\nvalue = [14, 15]"] ;
1096 -> 1097 ;
1098 [label="gini = 0.0\nsamples = 8\nvalue = [8, 0]"] ;
1097 -> 1098 ;
1099 [label="inq_last_6mths <= 1.5\ngini = 0.4082\nsamples = 21\nvalue = [6, 15]"] ;
1097 -> 1099 ;
1100 [label="revol_util <= 29.35\ngini = 0.48\nsamples = 15\nvalue = [6, 9]"] ;
1099 -> 1100 ;
1101 [label="funded_amnt <= 16250.0\ngini = 0.2449\nsamples = 7\nvalue = [1, 6]"] ;
1100 -> 1101 ;
1102 [label="gini = 0.0\nsamples = 6\nvalue = [0, 6]"] ;
1101 -> 1102 ;
1103 [label="gini = 0.0\nsamples = 1\nvalue = [1, 0]"] ;
1101 -> 1103 ;
1104 [label="funded_amnt_inv <= 15937.5\ngini = 0.4688\nsamples = 8\nvalue = [5, 3]"] ;
1100 -> 1104 ;
1105 [label="gini = 0.0\nsamples = 4\nvalue = [4, 0]"] ;
1104 -> 1105 ;
1106 [label="total_pymnt_inv <= 17322.5508\ngini = 0.375\nsamples = 4\nvalue = [1, 3]"] ;
1104 -> 1106 ;
1107 [label="gini = 0.0\nsamples = 3\nvalue = [0, 3]"] ;
1106 -> 1107 ;
1108 [label="gini = 0.0\nsamples = 1\nvalue = [1, 0]"] ;
1106 -> 1108 ;
1109 [label="gini = 0.0\nsamples = 6\nvalue = [0, 6]"] ;
1099 -> 1109 ;
1110 [label="gini = 0.0\nsamples = 63\nvalue = [63, 0]"] ;
1096 -> 1110 ;
1111 [label="total_pymnt_inv <= 20138.1152\ngini = 0.0965\nsamples = 1358\nvalue = [69, 1289]"] ;
1095 -> 1111 ;
1112 [label="funded_amnt_inv <= 19625.0\ngini = 0.3324\nsamples = 95\nvalue = [20, 75]"] ;
1111 -> 1112 ;
1113 [label="revol_util <= 85.8\ngini = 0.1913\nsamples = 84\nvalue = [9, 75]"] ;
1112 -> 1113 ;
1114 [label="total_pymnt_inv <= 18098.1445\ngini = 0.1562\nsamples = 82\nvalue = [7, 75]"] ;
1113 -> 1114 ;
1115 [label="total_pymnt_inv <= 17964.7891\ngini = 0.375\nsamples = 12\nvalue = [3, 9]"] ;
1114 -> 1115 ;
1116 [label="gini = 0.0\nsamples = 8\nvalue = [0, 8]"] ;
1115 -> 1116 ;
1117 [label="annual_inc <= 59500.0\ngini = 0.375\nsamples = 4\nvalue = [3, 1]"] ;
1115 -> 1117 ;
1118 [label="gini = 0.0\nsamples = 1\nvalue = [0, 1]"] ;
1117 -> 1118 ;
1119 [label="gini = 0.0\nsamples = 3\nvalue = [3, 0]"] ;
1117 -> 1119 ;
1120 [label="installment <= 385.49\ngini = 0.1078\nsamples = 70\nvalue = [4, 66]"] ;
1114 -> 1120 ;
1121 [label="gini = 0.0\nsamples = 38\nvalue = [0, 38]"] ;
1120 -> 1121 ;
1122 [label="installment <= 385.635\ngini = 0.2188\nsamples = 32\nvalue = [4, 28]"] ;
1120 -> 1122 ;
1123 [label="gini = 0.0\nsamples = 1\nvalue = [1, 0]"] ;
1122 -> 1123 ;
1124 [label="dti <= 18.56\ngini = 0.1748\nsamples = 31\nvalue = [3, 28]"] ;
1122 -> 1124 ;
1125 [label="gini = 0.0\nsamples = 22\nvalue = [0, 22]"] ;
1124 -> 1125 ;
1126 [label="dti <= 21.39\ngini = 0.4444\nsamples = 9\nvalue = [3, 6]"] ;
1124 -> 1126 ;
1127 [label="open_acc <= 14.5\ngini = 0.375\nsamples = 4\nvalue = [3, 1]"] ;
1126 -> 1127 ;
1128 [label="gini = 0.0\nsamples = 3\nvalue = [3, 0]"] ;
1127 -> 1128 ;
1129 [label="gini = 0.0\nsamples = 1\nvalue = [0, 1]"] ;
1127 -> 1129 ;
1130 [label="gini = 0.0\nsamples = 5\nvalue = [0, 5]"] ;
1126 -> 1130 ;
1131 [label="gini = 0.0\nsamples = 2\nvalue = [2, 0]"] ;
1113 -> 1131 ;
1132 [label="gini = 0.0\nsamples = 11\nvalue = [11, 0]"] ;
1112 -> 1132 ;
1133 [label="installment <= 568.64\ngini = 0.0746\nsamples = 1263\nvalue = [49, 1214]"] ;
1111 -> 1133 ;
1134 [label="total_pymnt_inv <= 24158.6953\ngini = 0.0425\nsamples = 875\nvalue = [19, 856]"] ;
1133 -> 1134 ;
1135 [label="installment <= 540.42\ngini = 0.087\nsamples = 373\nvalue = [17, 356]"] ;
1134 -> 1135 ;
1136 [label="installment <= 441.025\ngini = 0.073\nsamples = 369\nvalue = [14, 355]"] ;
1135 -> 1136 ;
1137 [label="loan_amnt <= 28400.0\ngini = 0.0208\nsamples = 285\nvalue = [3, 282]"] ;
1136 -> 1137 ;
1138 [label="revol_util <= 88.5\ngini = 0.014\nsamples = 284\nvalue = [2, 282]"] ;
1137 -> 1138 ;
1139 [label="inq_last_6mths <= 2.5\ngini = 0.0072\nsamples = 278\nvalue = [1, 277]"] ;
1138 -> 1139 ;
1140 [label="gini = 0.0\nsamples = 258\nvalue = [0, 258]"] ;
1139 -> 1140 ;
1141 [label="revol_util <= 18.15\ngini = 0.095\nsamples = 20\nvalue = [1, 19]"] ;
1139 -> 1141 ;
1142 [label="open_acc <= 12.0\ngini = 0.5\nsamples = 2\nvalue = [1, 1]"] ;
1141 -> 1142 ;
1143 [label="gini = 0.0\nsamples = 1\nvalue = [1, 0]"] ;
1142 -> 1143 ;
1144 [label="gini = 0.0\nsamples = 1\nvalue = [0, 1]"] ;
1142 -> 1144 ;
1145 [label="gini = 0.0\nsamples = 18\nvalue = [0, 18]"] ;
1141 -> 1145 ;
1146 [label="total_pymnt_inv <= 21344.8906\ngini = 0.2778\nsamples = 6\nvalue = [1, 5]"] ;
1138 -> 1146 ;
1147 [label="gini = 0.0\nsamples = 1\nvalue = [1, 0]"] ;
1146 -> 1147 ;
1148 [label="gini = 0.0\nsamples = 5\nvalue = [0, 5]"] ;
1146 -> 1148 ;
1149 [label="gini = 0.0\nsamples = 1\nvalue = [1, 0]"] ;
1137 -> 1149 ;
1150 [label="annual_inc <= 37600.0\ngini = 0.2276\nsamples = 84\nvalue = [11, 73]"] ;
1136 -> 1150 ;
1151 [label="gini = 0.0\nsamples = 2\nvalue = [2, 0]"] ;
1150 -> 1151 ;
1152 [label="revol_util <= 44.45\ngini = 0.1954\nsamples = 82\nvalue = [9, 73]"] ;
1150 -> 1152 ;
1153 [label="installment <= 442.925\ngini = 0.0416\nsamples = 47\nvalue = [1, 46]"] ;
1152 -> 1153 ;
1154 [label="funded_amnt_inv <= 20212.5\ngini = 0.375\nsamples = 4\nvalue = [1, 3]"] ;
1153 -> 1154 ;
1155 [label="gini = 0.0\nsamples = 3\nvalue = [0, 3]"] ;
1154 -> 1155 ;
1156 [label="gini = 0.0\nsamples = 1\nvalue = [1, 0]"] ;
1154 -> 1156 ;
1157 [label="gini = 0.0\nsamples = 43\nvalue = [0, 43]"] ;
1153 -> 1157 ;
1158 [label="annual_inc <= 40448.0\ngini = 0.3527\nsamples = 35\nvalue = [8, 27]"] ;
1152 -> 1158 ;
1159 [label="gini = 0.0\nsamples = 2\nvalue = [2, 0]"] ;
1158 -> 1159 ;
1160 [label="total_pymnt_inv <= 24117.0254\ngini = 0.2975\nsamples = 33\nvalue = [6, 27]"] ;
1158 -> 1160 ;
1161 [label="annual_inc <= 256000.0\ngini = 0.2637\nsamples = 32\nvalue = [5, 27]"] ;
1160 -> 1161 ;
1162 [label="gini = 0.2248\nsamples = 31\nvalue = [4, 27]"] ;
1161 -> 1162 ;
1163 [label="gini = 0.0\nsamples = 1\nvalue = [1, 0]"] ;
1161 -> 1163 ;
1164 [label="gini = 0.0\nsamples = 1\nvalue = [1, 0]"] ;
1160 -> 1164 ;
1165 [label="revol_util <= 21.15\ngini = 0.375\nsamples = 4\nvalue = [3, 1]"] ;
1135 -> 1165 ;
1166 [label="gini = 0.0\nsamples = 1\nvalue = [0, 1]"] ;
1165 -> 1166 ;
1167 [label="gini = 0.0\nsamples = 3\nvalue = [3, 0]"] ;
1165 -> 1167 ;
1168 [label="funded_amnt_inv <= 22962.5\ngini = 0.0079\nsamples = 502\nvalue = [2, 500]"] ;
1134 -> 1168 ;
1169 [label="gini = 0.0\nsamples = 364\nvalue = [0, 364]"] ;
1168 -> 1169 ;
1170 [label="funded_amnt_inv <= 22987.5\ngini = 0.0286\nsamples = 138\nvalue = [2, 136]"] ;
1168 -> 1170 ;
1171 [label="total_pymnt_inv <= 26833.8945\ngini = 0.2188\nsamples = 8\nvalue = [1, 7]"] ;
1170 -> 1171 ;
1172 [label="revol_util <= 46.05\ngini = 0.5\nsamples = 2\nvalue = [1, 1]"] ;
1171 -> 1172 ;
1173 [label="gini = 0.0\nsamples = 1\nvalue = [0, 1]"] ;
1172 -> 1173 ;
1174 [label="gini = 0.0\nsamples = 1\nvalue = [1, 0]"] ;
1172 -> 1174 ;
1175 [label="gini = 0.0\nsamples = 6\nvalue = [0, 6]"] ;
1171 -> 1175 ;
1176 [label="open_acc <= 14.5\ngini = 0.0153\nsamples = 130\nvalue = [1, 129]"] ;
1170 -> 1176 ;
1177 [label="gini = 0.0\nsamples = 110\nvalue = [0, 110]"] ;
1176 -> 1177 ;
1178 [label="dti <= 10.85\ngini = 0.095\nsamples = 20\nvalue = [1, 19]"] ;
1176 -> 1178 ;
1179 [label="dti <= 7.005\ngini = 0.375\nsamples = 4\nvalue = [1, 3]"] ;
1178 -> 1179 ;
1180 [label="gini = 0.0\nsamples = 3\nvalue = [0, 3]"] ;
1179 -> 1180 ;
1181 [label="gini = 0.0\nsamples = 1\nvalue = [1, 0]"] ;
1179 -> 1181 ;
1182 [label="gini = 0.0\nsamples = 16\nvalue = [0, 16]"] ;
1178 -> 1182 ;
1183 [label="total_pymnt_inv <= 25400.8711\ngini = 0.1427\nsamples = 388\nvalue = [30, 358]"] ;
1133 -> 1183 ;
1184 [label="annual_inc <= 105250.0\ngini = 0.255\nsamples = 20\nvalue = [17, 3]"] ;
1183 -> 1184 ;
1185 [label="gini = 0.0\nsamples = 13\nvalue = [13, 0]"] ;
1184 -> 1185 ;
1186 [label="funded_amnt_inv <= 24937.5\ngini = 0.4898\nsamples = 7\nvalue = [4, 3]"] ;
1184 -> 1186 ;
1187 [label="open_acc <= 10.5\ngini = 0.375\nsamples = 4\nvalue = [1, 3]"] ;
1186 -> 1187 ;
1188 [label="gini = 0.0\nsamples = 1\nvalue = [1, 0]"] ;
1187 -> 1188 ;
1189 [label="gini = 0.0\nsamples = 3\nvalue = [0, 3]"] ;
1187 -> 1189 ;
1190 [label="gini = 0.0\nsamples = 3\nvalue = [3, 0]"] ;
1186 -> 1190 ;
