digraph Tree {
node [shape=box] ;
0 [label="total_pymnt_inv <= 3215.0298\ngini = 0.2478\nsamples = 27316\nvalue = [3958, 23358]"] ;
1 [label="funded_amnt_inv <= 3000.0017\ngini = 0.491\nsamples = 3573\nvalue = [1547, 2026]"] ;
0 -> 1 [labeldistance=2.5, labelangle=45, headlabel="True"] ;
2 [label="total_pymnt_inv <= 1000.535\ngini = 0.3024\nsamples = 2483\nvalue = [461, 2022]"] ;
1 -> 2 ;
3 [label="funded_amnt_inv <= 987.5\ngini = 0.4987\nsamples = 447\nvalue = [235, 212]"] ;
2 -> 3 ;
4 [label="total_pymnt_inv <= 147.11\ngini = 0.3011\nsamples = 260\nvalue = [48, 212]"] ;
3 -> 4 ;
5 [label="int_rate <= 9.73\ngini = 0.437\nsamples = 124\nvalue = [40, 84]"] ;
4 -> 5 ;
6 [label="delinq_2yrs <= 1.5\ngini = 0.0928\nsamples = 41\nvalue = [2, 39]"] ;
5 -> 6 ;
7 [label="gini = 0.0487\nsamples = 40\nvalue = [1, 39]"] ;
6 -> 7 ;
8 [label="gini = 0.0\nsamples = 1\nvalue = [1, 0]"] ;
6 -> 8 ;
9 [label="funded_amnt_inv <= 0.0001\ngini = 0.4964\nsamples = 83\nvalue = [38, 45]"] ;
5 -> 9 ;
10 [label="gini = 0.4515\nsamples = 61\nvalue = [21, 40]"] ;
9 -> 10 ;
11 [label="gini = 0.3512\nsamples = 22\nvalue = [17, 5]"] ;
9 -> 11 ;
12 [label="loan_amnt <= 13250.0\ngini = 0.1107\nsamples = 136\nvalue = [8, 128]"] ;
4 -> 12 ;
13 [label="term <= 48.0\ngini = 0.0862\nsamples = 133\nvalue = [6, 127]"] ;
12 -> 13 ;
14 [label="gini = 0.0729\nsamples = 132\nvalue = [5, 127]"] ;
13 -> 14 ;
15 [label="gini = 0.0\nsamples = 1\nvalue = [1, 0]"] ;
13 -> 15 ;
16 [label="open_acc <= 8.5\ngini = 0.4444\nsamples = 3\nvalue = [2, 1]"] ;
12 -> 16 ;
17 [label="gini = 0.0\nsamples = 1\nvalue = [0, 1]"] ;
16 -> 17 ;
18 [label="gini = 0.0\nsamples = 2\nvalue = [2, 0]"] ;
16 -> 18 ;
19 [label="gini = 0.0\nsamples = 187\nvalue = [187, 0]"] ;
3 -> 19 ;
20 [label="funded_amnt_inv <= 2796.5518\ngini = 0.1974\nsamples = 2036\nvalue = [226, 1810]"] ;
2 -> 20 ;
21 [label="total_pymnt_inv <= 1902.4551\ngini = 0.1495\nsamples = 1843\nvalue = [150, 1693]"] ;
20 -> 21 ;
22 [label="funded_amnt_inv <= 1850.2778\ngini = 0.2463\nsamples = 716\nvalue = [103, 613]"] ;
21 -> 22 ;
23 [label="funded_amnt_inv <= 1668.5426\ngini = 0.125\nsamples = 657\nvalue = [44, 613]"] ;
22 -> 23 ;
24 [label="gini = 0.1027\nsamples = 626\nvalue = [34, 592]"] ;
23 -> 24 ;
25 [label="gini = 0.437\nsamples = 31\nvalue = [10, 21]"] ;
23 -> 25 ;
26 [label="gini = 0.0\nsamples = 59\nvalue = [59, 0]"] ;
22 -> 26 ;
27 [label="open_acc <= 3.5\ngini = 0.0799\nsamples = 1127\nvalue = [47, 1080]"] ;
21 -> 27 ;
28 [label="dti <= 24.675\ngini = 0.179\nsamples = 161\nvalue = [16, 145]"] ;
27 -> 28 ;
29 [label="gini = 0.1606\nsamples = 159\nvalue = [14, 145]"] ;
28 -> 29 ;
30 [label="gini = 0.0\nsamples = 2\nvalue = [2, 0]"] ;
28 -> 30 ;
31 [label="term <= 48.0\ngini = 0.0621\nsamples = 966\nvalue = [31, 935]"] ;
27 -> 31 ;
32 [label="gini = 0.05\nsamples = 897\nvalue = [23, 874]"] ;
31 -> 32 ;
33 [label="gini = 0.205\nsamples = 69\nvalue = [8, 61]"] ;
31 -> 33 ;
34 [label="total_pymnt_inv <= 2808.3052\ngini = 0.4774\nsamples = 193\nvalue = [76, 117]"] ;
20 -> 34 ;
35 [label="gini = 0.0\nsamples = 72\nvalue = [72, 0]"] ;
34 -> 35 ;
36 [label="total_pymnt_inv <= 2823.075\ngini = 0.0639\nsamples = 121\nvalue = [4, 117]"] ;
34 -> 36 ;
37 [label="installment <= 87.68\ngini = 0.5\nsamples = 2\nvalue = [1, 1]"] ;
36 -> 37 ;
38 [label="gini = 0.0\nsamples = 1\nvalue = [0, 1]"] ;
37 -> 38 ;
39 [label="gini = 0.0\nsamples = 1\nvalue = [1, 0]"] ;
37 -> 39 ;
40 [label="installment <= 99.295\ngini = 0.0491\nsamples = 119\nvalue = [3, 116]"] ;
36 -> 40 ;
41 [label="gini = 0.0\nsamples = 101\nvalue = [0, 101]"] ;
40 -> 41 ;
42 [label="gini = 0.2778\nsamples = 18\nvalue = [3, 15]"] ;
40 -> 42 ;
43 [label="funded_amnt_inv <= 3162.5\ngini = 0.0073\nsamples = 1090\nvalue = [1086, 4]"] ;
1 -> 43 ;
44 [label="total_pymnt_inv <= 2931.98\ngini = 0.3911\nsamples = 15\nvalue = [11, 4]"] ;
43 -> 44 ;
45 [label="gini = 0.0\nsamples = 11\nvalue = [11, 0]"] ;
44 -> 45 ;
46 [label="gini = 0.0\nsamples = 4\nvalue = [0, 4]"] ;
44 -> 46 ;
47 [label="gini = 0.0\nsamples = 1075\nvalue = [1075, 0]"] ;
43 -> 47 ;
48 [label="int_rate <= 16.075\ngini = 0.1825\nsamples = 23743\nvalue = [2411, 21332]"] ;
0 -> 48 [labeldistance=2.5, labelangle=-45, headlabel="False"] ;
49 [label="total_pymnt_inv <= 5343.79\ngini = 0.1444\nsamples = 20137\nvalue = [1578, 18559]"] ;
48 -> 49 ;
50 [label="funded_amnt_inv <= 5112.4961\ngini = 0.2816\nsamples = 3055\nvalue = [518, 2537]"] ;
49 -> 50 ;
51 [label="funded_amnt_inv <= 4995.3716\ngini = 0.1011\nsamples = 2679\nvalue = [143, 2536]"] ;
50 -> 51 ;
52 [label="funded_amnt_inv <= 4770.1533\ngini = 0.0726\nsamples = 2545\nvalue = [96, 2449]"] ;
51 -> 52 ;
53 [label="total_pymnt_inv <= 4104.7002\ngini = 0.0603\nsamples = 2409\nvalue = [75, 2334]"] ;
52 -> 53 ;
54 [label="gini = 0.1019\nsamples = 1096\nvalue = [59, 1037]"] ;
53 -> 54 ;
55 [label="gini = 0.0241\nsamples = 1313\nvalue = [16, 1297]"] ;
53 -> 55 ;
56 [label="total_pymnt_inv <= 4848.4297\ngini = 0.2611\nsamples = 136\nvalue = [21, 115]"] ;
52 -> 56 ;
57 [label="gini = 0.0\nsamples = 15\nvalue = [15, 0]"] ;
56 -> 57 ;
58 [label="gini = 0.0943\nsamples = 121\nvalue = [6, 115]"] ;
56 -> 58 ;
59 [label="total_pymnt_inv <= 5013.0952\ngini = 0.4554\nsamples = 134\nvalue = [47, 87]"] ;
51 -> 59 ;
60 [label="gini = 0.0\nsamples = 40\nvalue = [40, 0]"] ;
59 -> 60 ;
61 [label="dti <= 15.23\ngini = 0.1378\nsamples = 94\nvalue = [7, 87]"] ;
59 -> 61 ;
62 [label="gini = 0.0\nsamples = 65\nvalue = [0, 65]"] ;
61 -> 62 ;
63 [label="gini = 0.3662\nsamples = 29\nvalue = [7, 22]"] ;
61 -> 63 ;
64 [label="installment <= 111.325\ngini = 0.0053\nsamples = 376\nvalue = [375, 1]"] ;
50 -> 64 ;
65 [label="gini = 0.0\nsamples = 1\nvalue = [0, 1]"] ;
64 -> 65 ;
66 [label="gini = 0.0\nsamples = 375\nvalue = [375, 0]"] ;
64 -> 66 ;
67 [label="term <= 48.0\ngini = 0.1164\nsamples = 17082\nvalue = [1060, 16022]"] ;
49 -> 67 ;
68 [label="installment <= 271.395\ngini = 0.0863\nsamples = 13082\nvalue = [591, 12491]"] ;
67 -> 68 ;
69 [label="total_pymnt_inv <= 6549.7354\ngini = 0.0389\nsamples = 4882\nvalue = [97, 4785]"] ;
68 -> 69 ;
70 [label="funded_amnt_inv <= 6458.0249\ngini = 0.0772\nsamples = 1840\nvalue = [74, 1766]"] ;
69 -> 70 ;
71 [label="gini = 0.0402\nsamples = 1803\nvalue = [37, 1766]"] ;
70 -> 71 ;
72 [label="gini = 0.0\nsamples = 37\nvalue = [37, 0]"] ;
70 -> 72 ;
73 [label="installment <= 225.26\ngini = 0.015\nsamples = 3042\nvalue = [23, 3019]"] ;
69 -> 73 ;
74 [label="gini = 0.0\nsamples = 1537\nvalue = [0, 1537]"] ;
73 -> 74 ;
75 [label="gini = 0.0301\nsamples = 1505\nvalue = [23, 1482]"] ;
73 -> 75 ;
76 [label="total_pymnt_inv <= 8798.3047\ngini = 0.1132\nsamples = 8200\nvalue = [494, 7706]"] ;
68 -> 76 ;
77 [label="funded_amnt_inv <= 7981.9189\ngini = 0.5\nsamples = 430\nvalue = [217, 213]"] ;
76 -> 77 ;
78 [label="gini = 0.0754\nsamples = 204\nvalue = [8, 196]"] ;
77 -> 78 ;
79 [label="gini = 0.1391\nsamples = 226\nvalue = [209, 17]"] ;
77 -> 79 ;
80 [label="total_pymnt_inv <= 9771.54\ngini = 0.0688\nsamples = 7770\nvalue = [277, 7493]"] ;
76 -> 80 ;
81 [label="gini = 0.2322\nsamples = 373\nvalue = [50, 323]"] ;
80 -> 81 ;
82 [label="gini = 0.0595\nsamples = 7397\nvalue = [227, 7170]"] ;
80 -> 82 ;
83 [label="total_pymnt_inv <= 10883.7949\ngini = 0.207\nsamples = 4000\nvalue = [469, 3531]"] ;
67 -> 83 ;
84 [label="funded_amnt_inv <= 9474.7646\ngini = 0.3783\nsamples = 1062\nvalue = [269, 793]"] ;
83 -> 84 ;
85 [label="installment <= 177.325\ngini = 0.1468\nsamples = 840\nvalue = [67, 773]"] ;
84 -> 85 ;
86 [label="gini = 0.0833\nsamples = 666\nvalue = [29, 637]"] ;
85 -> 86 ;
87 [label="gini = 0.3414\nsamples = 174\nvalue = [38, 136]"] ;
85 -> 87 ;
88 [label="total_pymnt_inv <= 10062.9551\ngini = 0.1639\nsamples = 222\nvalue = [202, 20]"] ;
84 -> 88 ;
89 [label="gini = 0.0112\nsamples = 178\nvalue = [177, 1]"] ;
88 -> 89 ;
90 [label="gini = 0.4907\nsamples = 44\nvalue = [25, 19]"] ;
88 -> 90 ;
91 [label="funded_amnt_inv <= 15587.5\ngini = 0.1269\nsamples = 2938\nvalue = [200, 2738]"] ;
83 -> 91 ;
92 [label="total_pymnt_inv <= 16039.0195\ngini = 0.0699\nsamples = 1488\nvalue = [54, 1434]"] ;
91 -> 92 ;
93 [label="gini = 0.1008\nsamples = 902\nvalue = [48, 854]"] ;
92 -> 93 ;
94 [label="gini = 0.0203\nsamples = 586\nvalue = [6, 580]"] ;
92 -> 94 ;
95 [label="total_pymnt_inv <= 17440.3438\ngini = 0.1811\nsamples = 1450\nvalue = [146, 1304]"] ;
91 -> 95 ;
96 [label="gini = 0.2729\nsamples = 92\nvalue = [77, 15]"] ;
95 -> 96 ;
97 [label="gini = 0.0965\nsamples = 1358\nvalue = [69, 1289]"] ;
95 -> 97 ;
98 [label="total_pymnt_inv <= 11089.125\ngini = 0.3553\nsamples = 3606\nvalue = [833, 2773]"] ;
48 -> 98 ;
99 [label="funded_amnt_inv <= 9487.5\ngini = 0.4965\nsamples = 1116\nvalue = [511, 605]"] ;
98 -> 99 ;
100 [label="total_pymnt_inv <= 6839.8203\ngini = 0.2956\nsamples = 721\nvalue = [130, 591]"] ;
99 -> 100 ;
101 [label="funded_amnt_inv <= 5900.0\ngini = 0.4116\nsamples = 352\nvalue = [102, 250]"] ;
100 -> 101 ;
102 [label="int_rate <= 20.755\ngini = 0.2147\nsamples = 278\nvalue = [34, 244]"] ;
101 -> 102 ;
103 [label="gini = 0.1871\nsamples = 268\nvalue = [28, 240]"] ;
102 -> 103 ;
104 [label="gini = 0.48\nsamples = 10\nvalue = [6, 4]"] ;
102 -> 104 ;
105 [label="installment <= 167.405\ngini = 0.149\nsamples = 74\nvalue = [68, 6]"] ;
101 -> 105 ;
106 [label="gini = 0.4444\nsamples = 15\nvalue = [10, 5]"] ;
105 -> 106 ;
107 [label="gini = 0.0333\nsamples = 59\nvalue = [58, 1]"] ;
105 -> 107 ;
108 [label="funded_amnt_inv <= 7274.9053\ngini = 0.1402\nsamples = 369\nvalue = [28, 341]"] ;
100 -> 108 ;
109 [label="annual_inc <= 155000.0\ngini = 0.0252\nsamples = 235\nvalue = [3, 232]"] ;
108 -> 109 ;
110 [label="gini = 0.0174\nsamples = 228\nvalue = [2, 226]"] ;
109 -> 110 ;
111 [label="gini = 0.2449\nsamples = 7\nvalue = [1, 6]"] ;
109 -> 111 ;
112 [label="total_pymnt_inv <= 8939.9248\ngini = 0.3035\nsamples = 134\nvalue = [25, 109]"] ;
108 -> 112 ;
113 [label="gini = 0.4885\nsamples = 33\nvalue = [14, 19]"] ;
112 -> 113 ;
114 [label="gini = 0.1941\nsamples = 101\nvalue = [11, 90]"] ;
112 -> 114 ;
115 [label="total_pymnt_inv <= 10400.5703\ngini = 0.0684\nsamples = 395\nvalue = [381, 14]"] ;
99 -> 115 ;
116 [label="installment <= 248.075\ngini = 0.0056\nsamples = 353\nvalue = [352, 1]"] ;
115 -> 116 ;
117 [label="installment <= 246.345\ngini = 0.1528\nsamples = 12\nvalue = [11, 1]"] ;
116 -> 117 ;
118 [label="gini = 0.0\nsamples = 11\nvalue = [11, 0]"] ;
117 -> 118 ;
119 [label="gini = 0.0\nsamples = 1\nvalue = [0, 1]"] ;
117 -> 119 ;
120 [label="gini = 0.0\nsamples = 341\nvalue = [341, 0]"] ;
116 -> 120 ;
121 [label="funded_amnt_inv <= 10900.0\ngini = 0.4274\nsamples = 42\nvalue = [29, 13]"] ;
115 -> 121 ;
122 [label="int_rate <= 18.41\ngini = 0.1327\nsamples = 14\nvalue = [1, 13]"] ;
121 -> 122 ;
123 [label="gini = 0.0\nsamples = 13\nvalue = [0, 13]"] ;
122 -> 123 ;
124 [label="gini = 0.0\nsamples = 1\nvalue = [1, 0]"] ;
122 -> 124 ;
125 [label="gini = 0.0\nsamples = 28\nvalue = [28, 0]"] ;
121 -> 125 ;
126 [label="total_pymnt_inv <= 19881.1797\ngini = 0.2252\nsamples = 2490\nvalue = [322, 2168]"] ;
98 -> 126 ;
127 [label="funded_amnt_inv <= 16050.0\ngini = 0.324\nsamples = 1008\nvalue = [205, 803]"] ;
126 -> 127 ;
128 [label="funded_amnt_inv <= 13196.6309\ngini = 0.1485\nsamples = 854\nvalue = [69, 785]"] ;
127 -> 128 ;
129 [label="funded_amnt_inv <= 11187.5\ngini = 0.0817\nsamples = 609\nvalue = [26, 583]"] ;
128 -> 129 ;
130 [label="gini = 0.0179\nsamples = 332\nvalue = [3, 329]"] ;
129 -> 130 ;
131 [label="gini = 0.1523\nsamples = 277\nvalue = [23, 254]"] ;
129 -> 131 ;
132 [label="total_pymnt_inv <= 14347.1953\ngini = 0.2894\nsamples = 245\nvalue = [43, 202]"] ;
128 -> 132 ;
133 [label="gini = 0.2778\nsamples = 18\nvalue = [15, 3]"] ;
132 -> 133 ;
134 [label="gini = 0.2163\nsamples = 227\nvalue = [28, 199]"] ;
132 -> 134 ;
135 [label="funded_amnt_inv <= 17962.5\ngini = 0.2064\nsamples = 154\nvalue = [136, 18]"] ;
127 -> 135 ;
136 [label="total_pymnt_inv <= 16568.5508\ngini = 0.4861\nsamples = 36\nvalue = [21, 15]"] ;
135 -> 136 ;
137 [label="gini = 0.0\nsamples = 16\nvalue = [16, 0]"] ;
136 -> 137 ;
138 [label="gini = 0.375\nsamples = 20\nvalue = [5, 15]"] ;
136 -> 138 ;
139 [label="installment <= 464.735\ngini = 0.0496\nsamples = 118\nvalue = [115, 3]"] ;
135 -> 139 ;
140 [label="gini = 0.4082\nsamples = 7\nvalue = [5, 2]"] ;
139 -> 140 ;
141 [label="gini = 0.0179\nsamples = 111\nvalue = [110, 1]"] ;
139 -> 141 ;
142 [label="loan_amnt <= 21225.0\ngini = 0.1454\nsamples = 1482\nvalue = [117, 1365]"] ;
126 -> 142 ;
143 [label="total_pymnt_inv <= 20807.0586\ngini = 0.06\nsamples = 646\nvalue = [20, 626]"] ;
142 -> 143 ;
144 [label="funded_amnt_inv <= 19987.5\ngini = 0.1499\nsamples = 98\nvalue = [8, 90]"] ;
143 -> 144 ;
145 [label="gini = 0.1017\nsamples = 93\nvalue = [5, 88]"] ;
144 -> 145 ;
146 [label="gini = 0.48\nsamples = 5\nvalue = [3, 2]"] ;
144 -> 146 ;
147 [label="loan_amnt <= 17900.0\ngini = 0.0428\nsamples = 548\nvalue = [12, 536]"] ;
143 -> 147 ;
148 [label="gini = 0.0\nsamples = 227\nvalue = [0, 227]"] ;
147 -> 148 ;
149 [label="gini = 0.072\nsamples = 321\nvalue = [12, 309]"] ;
147 -> 149 ;
150 [label="total_pymnt_inv <= 25985.8555\ngini = 0.2051\nsamples = 836\nvalue = [97, 739]"] ;
142 -> 150 ;
151 [label="funded_amnt_inv <= 21987.5\ngini = 0.4948\nsamples = 98\nvalue = [44, 54]"] ;
150 -> 151 ;
152 [label="gini = 0.2149\nsamples = 49\nvalue = [6, 43]"] ;
151 -> 152 ;
153 [label="gini = 0.3482\nsamples = 49\nvalue = [38, 11]"] ;
151 -> 153 ;
154 [label="total_pymnt_inv <= 29566.1445\ngini = 0.1333\nsamples = 738\nvalue = [53, 685]"] ;
150 -> 154 ;
155 [label="gini = 0.3223\nsamples = 104\nvalue = [21, 83]"] ;
154 -> 155 ;
156 [label="gini = 0.0959\nsamples = 634\nvalue = [32, 602]"] ;
154 -> 156 ;
}