digraph Tree {
node [shape=box] ;
0 [label="total_pymnt_inv <= 3215.0298\ngini = 0.2478\nsamples = 27316\nvalue = [3958, 23358]"] ;
1 [label="funded_amnt_inv <= 3000.0017\ngini = 0.491\nsamples = 3573\nvalue = [1547, 2026]"] ;
0 -> 1 [labeldistance=2.5, labelangle=45, headlabel="True"] ;
2 [label="total_pymnt_inv <= 1000.535\ngini = 0.3024\nsamples = 2483\nvalue = [461, 2022]"] ;
1 -> 2 ;
3 [label="funded_amnt_inv <= 987.5\ngini = 0.4987\nsamples = 447\nvalue = [235, 212]"] ;
2 -> 3 ;
4 [label="total_pymnt_inv <= 147.11\ngini = 0.3011\nsamples = 260\nvalue = [48, 212]"] ;
3 -> 4 ;
5 [label="int_rate <= 9.73\ngini = 0.437\nsamples = 124\nvalue = [40, 84]"] ;
4 -> 5 ;
6 [label="delinq_2yrs <= 1.5\ngini = 0.0928\nsamples = 41\nvalue = [2, 39]"] ;
5 -> 6 ;
7 [label="inq_last_6mths <= 5.5\ngini = 0.0487\nsamples = 40\nvalue = [1, 39]"] ;
6 -> 7 ;
8 [label="gini = 0.0\nsamples = 38\nvalue = [0, 38]"] ;
7 -> 8 ;
9 [label="total_pymnt_inv <= 12.59\ngini = 0.5\nsamples = 2\nvalue = [1, 1]"] ;
7 -> 9 ;
10 [label="gini = 0.0\nsamples = 1\nvalue = [1, 0]"] ;
9 -> 10 ;
11 [label="gini = 0.0\nsamples = 1\nvalue = [0, 1]"] ;
9 -> 11 ;
12 [label="gini = 0.0\nsamples = 1\nvalue = [1, 0]"] ;
6 -> 12 ;
13 [label="funded_amnt_inv <= 0.0001\ngini = 0.4964\nsamples = 83\nvalue = [38, 45]"] ;
5 -> 13 ;
14 [label="funded_amnt <= 10650.0\ngini = 0.4515\nsamples = 61\nvalue = [21, 40]"] ;
13 -> 14 ;
15 [label="open_acc <= 6.5\ngini = 0.4228\nsamples = 56\nvalue = [17, 39]"] ;
14 -> 15 ;
16 [label="gini = 0.5\nsamples = 18\nvalue = [9, 9]"] ;
15 -> 16 ;
17 [label="gini = 0.3324\nsamples = 38\nvalue = [8, 30]"] ;
15 -> 17 ;
18 [label="installment <= 488.605\ngini = 0.32\nsamples = 5\nvalue = [4, 1]"] ;
14 -> 18 ;
19 [label="gini = 0.0\nsamples = 4\nvalue = [4, 0]"] ;
18 -> 19 ;
20 [label="gini = 0.0\nsamples = 1\nvalue = [0, 1]"] ;
18 -> 20 ;
21 [label="funded_amnt_inv <= 0.2471\ngini = 0.3512\nsamples = 22\nvalue = [17, 5]"] ;
13 -> 21 ;
22 [label="gini = 0.0\nsamples = 14\nvalue = [14, 0]"] ;
21 -> 22 ;
23 [label="funded_amnt_inv <= 148.3656\ngini = 0.4688\nsamples = 8\nvalue = [3, 5]"] ;
21 -> 23 ;
24 [label="gini = 0.0\nsamples = 5\nvalue = [0, 5]"] ;
23 -> 24 ;
25 [label="gini = 0.0\nsamples = 3\nvalue = [3, 0]"] ;
23 -> 25 ;
26 [label="loan_amnt <= 13250.0\ngini = 0.1107\nsamples = 136\nvalue = [8, 128]"] ;
4 -> 26 ;
27 [label="term <= 48.0\ngini = 0.0862\nsamples = 133\nvalue = [6, 127]"] ;
26 -> 27 ;
28 [label="loan_amnt <= 8250.0\ngini = 0.0729\nsamples = 132\nvalue = [5, 127]"] ;
27 -> 28 ;
29 [label="Source Verified <= 0.5\ngini = 0.0476\nsamples = 123\nvalue = [3, 120]"] ;
28 -> 29 ;
30 [label="gini = 0.033\nsamples = 119\nvalue = [2, 117]"] ;
29 -> 30 ;
31 [label="gini = 0.375\nsamples = 4\nvalue = [1, 3]"] ;
29 -> 31 ;
32 [label="total_pymnt_inv <= 357.105\ngini = 0.3457\nsamples = 9\nvalue = [2, 7]"] ;
28 -> 32 ;
33 [label="gini = 0.0\nsamples = 2\nvalue = [2, 0]"] ;
32 -> 33 ;
34 [label="gini = 0.0\nsamples = 7\nvalue = [0, 7]"] ;
32 -> 34 ;
35 [label="gini = 0.0\nsamples = 1\nvalue = [1, 0]"] ;
27 -> 35 ;
36 [label="loan_amnt <= 16725.0\ngini = 0.4444\nsamples = 3\nvalue = [2, 1]"] ;
26 -> 36 ;
37 [label="gini = 0.0\nsamples = 2\nvalue = [2, 0]"] ;
36 -> 37 ;
38 [label="gini = 0.0\nsamples = 1\nvalue = [0, 1]"] ;
36 -> 38 ;
39 [label="gini = 0.0\nsamples = 187\nvalue = [187, 0]"] ;
3 -> 39 ;
40 [label="funded_amnt_inv <= 2796.5518\ngini = 0.1974\nsamples = 2036\nvalue = [226, 1810]"] ;
2 -> 40 ;
41 [label="total_pymnt_inv <= 1902.4551\ngini = 0.1495\nsamples = 1843\nvalue = [150, 1693]"] ;
40 -> 41 ;
42 [label="funded_amnt_inv <= 1850.2778\ngini = 0.2463\nsamples = 716\nvalue = [103, 613]"] ;
41 -> 42 ;
43 [label="funded_amnt_inv <= 1668.5426\ngini = 0.125\nsamples = 657\nvalue = [44, 613]"] ;
42 -> 43 ;
44 [label="delinq_2yrs <= 3.5\ngini = 0.1027\nsamples = 626\nvalue = [34, 592]"] ;
43 -> 44 ;
45 [label="funded_amnt_inv <= 1203.0649\ngini = 0.0975\nsamples = 623\nvalue = [32, 591]"] ;
44 -> 45 ;
46 [label="gini = 0.0397\nsamples = 296\nvalue = [6, 290]"] ;
45 -> 46 ;
47 [label="gini = 0.1464\nsamples = 327\nvalue = [26, 301]"] ;
45 -> 47 ;
48 [label="loan_amnt <= 1100.0\ngini = 0.4444\nsamples = 3\nvalue = [2, 1]"] ;
44 -> 48 ;
49 [label="gini = 0.0\nsamples = 1\nvalue = [0, 1]"] ;
48 -> 49 ;
50 [label="gini = 0.0\nsamples = 2\nvalue = [2, 0]"] ;
48 -> 50 ;
51 [label="total_pymnt_inv <= 1735.64\ngini = 0.437\nsamples = 31\nvalue = [10, 21]"] ;
43 -> 51 ;
52 [label="gini = 0.0\nsamples = 9\nvalue = [9, 0]"] ;
51 -> 52 ;
53 [label="open_acc <= 3.0\ngini = 0.0868\nsamples = 22\nvalue = [1, 21]"] ;
51 -> 53 ;
54 [label="gini = 0.5\nsamples = 2\nvalue = [1, 1]"] ;
53 -> 54 ;
55 [label="gini = 0.0\nsamples = 20\nvalue = [0, 20]"] ;
53 -> 55 ;
56 [label="gini = 0.0\nsamples = 59\nvalue = [59, 0]"] ;
42 -> 56 ;
57 [label="open_acc <= 3.5\ngini = 0.0799\nsamples = 1127\nvalue = [47, 1080]"] ;
41 -> 57 ;
58 [label="dti <= 24.675\ngini = 0.179\nsamples = 161\nvalue = [16, 145]"] ;
57 -> 58 ;
59 [label="installment <= 88.65\ngini = 0.1606\nsamples = 159\nvalue = [14, 145]"] ;
58 -> 59 ;
60 [label="revol_util <= 99.8\ngini = 0.1195\nsamples = 141\nvalue = [9, 132]"] ;
59 -> 60 ;
61 [label="gini = 0.1085\nsamples = 139\nvalue = [8, 131]"] ;
60 -> 61 ;
62 [label="gini = 0.5\nsamples = 2\nvalue = [1, 1]"] ;
60 -> 62 ;
63 [label="loan_amnt <= 2737.5\ngini = 0.4012\nsamples = 18\nvalue = [5, 13]"] ;
59 -> 63 ;
64 [label="gini = 0.32\nsamples = 5\nvalue = [4, 1]"] ;
63 -> 64 ;
65 [label="gini = 0.142\nsamples = 13\nvalue = [1, 12]"] ;
63 -> 65 ;
66 [label="gini = 0.0\nsamples = 2\nvalue = [2, 0]"] ;
58 -> 66 ;
67 [label="term <= 48.0\ngini = 0.0621\nsamples = 966\nvalue = [31, 935]"] ;
57 -> 67 ;
68 [label="installment <= 77.355\ngini = 0.05\nsamples = 897\nvalue = [23, 874]"] ;
67 -> 68 ;
69 [label="revol_util <= 96.8\ngini = 0.012\nsamples = 496\nvalue = [3, 493]"] ;
68 -> 69 ;
70 [label="gini = 0.0083\nsamples = 482\nvalue = [2, 480]"] ;
69 -> 70 ;
71 [label="gini = 0.1327\nsamples = 14\nvalue = [1, 13]"] ;
69 -> 71 ;
72 [label="total_pymnt_inv <= 2454.8999\ngini = 0.0948\nsamples = 401\nvalue = [20, 381]"] ;
68 -> 72 ;
73 [label="gini = 0.4082\nsamples = 49\nvalue = [14, 35]"] ;
72 -> 73 ;
74 [label="gini = 0.0335\nsamples = 352\nvalue = [6, 346]"] ;
72 -> 74 ;
75 [label="revol_util <= 24.665\ngini = 0.205\nsamples = 69\nvalue = [8, 61]"] ;
67 -> 75 ;
76 [label="revol_util <= 23.0\ngini = 0.4082\nsamples = 21\nvalue = [6, 15]"] ;
75 -> 76 ;
77 [label="gini = 0.2076\nsamples = 17\nvalue = [2, 15]"] ;
76 -> 77 ;
78 [label="gini = 0.0\nsamples = 4\nvalue = [4, 0]"] ;
76 -> 78 ;
79 [label="open_acc <= 19.0\ngini = 0.0799\nsamples = 48\nvalue = [2, 46]"] ;
75 -> 79 ;
80 [label="gini = 0.0416\nsamples = 47\nvalue = [1, 46]"] ;
79 -> 80 ;
81 [label="gini = 0.0\nsamples = 1\nvalue = [1, 0]"] ;
79 -> 81 ;
82 [label="total_pymnt_inv <= 2808.3052\ngini = 0.4774\nsamples = 193\nvalue = [76, 117]"] ;
40 -> 82 ;
83 [label="gini = 0.0\nsamples = 72\nvalue = [72, 0]"] ;
82 -> 83 ;
84 [label="total_pymnt_inv <= 2823.075\ngini = 0.0639\nsamples = 121\nvalue = [4, 117]"] ;
82 -> 84 ;
85 [label="total_pymnt_inv <= 2818.49\ngini = 0.5\nsamples = 2\nvalue = [1, 1]"] ;
84 -> 85 ;
86 [label="gini = 0.0\nsamples = 1\nvalue = [0, 1]"] ;
85 -> 86 ;
87 [label="gini = 0.0\nsamples = 1\nvalue = [1, 0]"] ;
85 -> 87 ;
88 [label="installment <= 99.295\ngini = 0.0491\nsamples = 119\nvalue = [3, 116]"] ;
84 -> 88 ;
89 [label="gini = 0.0\nsamples = 101\nvalue = [0, 101]"] ;
88 -> 89 ;
90 [label="installment <= 99.99\ngini = 0.2778\nsamples = 18\nvalue = [3, 15]"] ;
88 -> 90 ;
91 [label="gini = 0.0\nsamples = 3\nvalue = [3, 0]"] ;
90 -> 91 ;
92 [label="gini = 0.0\nsamples = 15\nvalue = [0, 15]"] ;
90 -> 92 ;
93 [label="funded_amnt_inv <= 3162.5\ngini = 0.0073\nsamples = 1090\nvalue = [1086, 4]"] ;
1 -> 93 ;
94 [label="total_pymnt_inv <= 2931.98\ngini = 0.3911\nsamples = 15\nvalue = [11, 4]"] ;
93 -> 94 ;
95 [label="gini = 0.0\nsamples = 11\nvalue = [11, 0]"] ;
94 -> 95 ;
96 [label="gini = 0.0\nsamples = 4\nvalue = [0, 4]"] ;
94 -> 96 ;
97 [label="gini = 0.0\nsamples = 1075\nvalue = [1075, 0]"] ;
93 -> 97 ;
98 [label="int_rate <= 16.075\ngini = 0.1825\nsamples = 23743\nvalue = [2411, 21332]"] ;
0 -> 98 [labeldistance=2.5, labelangle=-45, headlabel="False"] ;
99 [label="total_pymnt_inv <= 5343.79\ngini = 0.1444\nsamples = 20137\nvalue = [1578, 18559]"] ;
98 -> 99 ;
100 [label="funded_amnt_inv <= 5112.4961\ngini = 0.2816\nsamples = 3055\nvalue = [518, 2537]"] ;
99 -> 100 ;
101 [label="funded_amnt_inv <= 4995.3716\ngini = 0.1011\nsamples = 2679\nvalue = [143, 2536]"] ;
100 -> 101 ;
102 [label="funded_amnt_inv <= 4770.1533\ngini = 0.0726\nsamples = 2545\nvalue = [96, 2449]"] ;
101 -> 102 ;
103 [label="total_pymnt_inv <= 4104.7002\ngini = 0.0603\nsamples = 2409\nvalue = [75, 2334]"] ;
102 -> 103 ;
104 [label="funded_amnt_inv <= 4100.0\ngini = 0.1019\nsamples = 1096\nvalue = [59, 1037]"] ;
103 -> 104 ;
105 [label="funded_amnt_inv <= 3787.5\ngini = 0.0813\nsamples = 1083\nvalue = [46, 1037]"] ;
104 -> 105 ;
106 [label="gini = 0.0515\nsamples = 1020\nvalue = [27, 993]"] ;
105 -> 106 ;
107 [label="gini = 0.4213\nsamples = 63\nvalue = [19, 44]"] ;
105 -> 107 ;
108 [label="gini = 0.0\nsamples = 13\nvalue = [13, 0]"] ;
104 -> 108 ;
109 [label="int_rate <= 13.95\ngini = 0.0241\nsamples = 1313\nvalue = [16, 1297]"] ;
103 -> 109 ;
110 [label="open_acc <= 3.5\ngini = 0.0159\nsamples = 1124\nvalue = [9, 1115]"] ;
109 -> 110 ;
111 [label="gini = 0.0997\nsamples = 57\nvalue = [3, 54]"] ;
110 -> 111 ;
112 [label="gini = 0.0112\nsamples = 1067\nvalue = [6, 1061]"] ;
110 -> 112 ;
113 [label="dti <= 12.975\ngini = 0.0713\nsamples = 189\nvalue = [7, 182]"] ;
109 -> 113 ;
114 [label="gini = 0.0194\nsamples = 102\nvalue = [1, 101]"] ;
113 -> 114 ;
115 [label="gini = 0.1284\nsamples = 87\nvalue = [6, 81]"] ;
113 -> 115 ;
116 [label="total_pymnt_inv <= 4848.4297\ngini = 0.2611\nsamples = 136\nvalue = [21, 115]"] ;
102 -> 116 ;
117 [label="gini = 0.0\nsamples = 15\nvalue = [15, 0]"] ;
116 -> 117 ;
118 [label="revol_util <= 92.7\ngini = 0.0943\nsamples = 121\nvalue = [6, 115]"] ;
116 -> 118 ;
119 [label="dti <= 0.12\ngini = 0.065\nsamples = 119\nvalue = [4, 115]"] ;
118 -> 119 ;
120 [label="gini = 0.0\nsamples = 1\nvalue = [1, 0]"] ;
119 -> 120 ;
121 [label="gini = 0.0496\nsamples = 118\nvalue = [3, 115]"] ;
119 -> 121 ;
122 [label="gini = 0.0\nsamples = 2\nvalue = [2, 0]"] ;
118 -> 122 ;
123 [label="total_pymnt_inv <= 5013.0952\ngini = 0.4554\nsamples = 134\nvalue = [47, 87]"] ;
101 -> 123 ;
124 [label="gini = 0.0\nsamples = 40\nvalue = [40, 0]"] ;
123 -> 124 ;
125 [label="dti <= 15.23\ngini = 0.1378\nsamples = 94\nvalue = [7, 87]"] ;
123 -> 125 ;
126 [label="gini = 0.0\nsamples = 65\nvalue = [0, 65]"] ;
125 -> 126 ;
127 [label="int_rate <= 8.695\ngini = 0.3662\nsamples = 29\nvalue = [7, 22]"] ;
125 -> 127 ;
128 [label="gini = 0.0\nsamples = 14\nvalue = [0, 14]"] ;
127 -> 128 ;
129 [label="dti <= 16.405\ngini = 0.4978\nsamples = 15\nvalue = [7, 8]"] ;
127 -> 129 ;
130 [label="gini = 0.0\nsamples = 3\nvalue = [3, 0]"] ;
129 -> 130 ;
131 [label="gini = 0.4444\nsamples = 12\nvalue = [4, 8]"] ;
129 -> 131 ;
132 [label="installment <= 111.325\ngini = 0.0053\nsamples = 376\nvalue = [375, 1]"] ;
100 -> 132 ;
133 [label="gini = 0.0\nsamples = 1\nvalue = [0, 1]"] ;
132 -> 133 ;
134 [label="gini = 0.0\nsamples = 375\nvalue = [375, 0]"] ;
132 -> 134 ;
135 [label="term <= 48.0\ngini = 0.1164\nsamples = 17082\nvalue = [1060, 16022]"] ;
99 -> 135 ;
136 [label="installment <= 271.395\ngini = 0.0863\nsamples = 13082\nvalue = [591, 12491]"] ;
135 -> 136 ;
137 [label="total_pymnt_inv <= 6549.7354\ngini = 0.0389\nsamples = 4882\nvalue = [97, 4785]"] ;
136 -> 137 ;
138 [label="funded_amnt_inv <= 6458.0249\ngini = 0.0772\nsamples = 1840\nvalue = [74, 1766]"] ;
137 -> 138 ;
139 [label="installment <= 189.145\ngini = 0.0402\nsamples = 1803\nvalue = [37, 1766]"] ;
138 -> 139 ;
140 [label="total_pymnt_inv <= 6546.2549\ngini = 0.0197\nsamples = 1610\nvalue = [16, 1594]"] ;
139 -> 140 ;
141 [label="gini = 0.0185\nsamples = 1607\nvalue = [15, 1592]"] ;
140 -> 141 ;
142 [label="gini = 0.4444\nsamples = 3\nvalue = [1, 2]"] ;
140 -> 142 ;
143 [label="funded_amnt_inv <= 5962.5347\ngini = 0.1939\nsamples = 193\nvalue = [21, 172]"] ;
139 -> 143 ;
144 [label="gini = 0.0517\nsamples = 113\nvalue = [3, 110]"] ;
143 -> 144 ;
145 [label="gini = 0.3488\nsamples = 80\nvalue = [18, 62]"] ;
143 -> 145 ;
146 [label="gini = 0.0\nsamples = 37\nvalue = [37, 0]"] ;
138 -> 146 ;
147 [label="installment <= 225.26\ngini = 0.015\nsamples = 3042\nvalue = [23, 3019]"] ;
137 -> 147 ;
148 [label="gini = 0.0\nsamples = 1537\nvalue = [0, 1537]"] ;
147 -> 148 ;
149 [label="total_pymnt_inv <= 7087.7197\ngini = 0.0301\nsamples = 1505\nvalue = [23, 1482]"] ;
147 -> 149 ;
150 [label="funded_amnt_inv <= 6875.0\ngini = 0.3856\nsamples = 23\nvalue = [6, 17]"] ;
149 -> 150 ;
151 [label="gini = 0.0\nsamples = 15\nvalue = [0, 15]"] ;
150 -> 151 ;
152 [label="gini = 0.375\nsamples = 8\nvalue = [6, 2]"] ;
150 -> 152 ;
153 [label="total_pymnt_inv <= 8008.5898\ngini = 0.0227\nsamples = 1482\nvalue = [17, 1465]"] ;
149 -> 153 ;
154 [label="gini = 0.1161\nsamples = 194\nvalue = [12, 182]"] ;
153 -> 154 ;
155 [label="gini = 0.0077\nsamples = 1288\nvalue = [5, 1283]"] ;
153 -> 155 ;
156 [label="total_pymnt_inv <= 8798.3047\ngini = 0.1132\nsamples = 8200\nvalue = [494, 7706]"] ;
136 -> 156 ;
157 [label="funded_amnt_inv <= 7981.9189\ngini = 0.5\nsamples = 430\nvalue = [217, 213]"] ;
156 -> 157 ;
158 [label="funded_amnt_inv <= 7399.5371\ngini = 0.0754\nsamples = 204\nvalue = [8, 196]"] ;
157 -> 158 ;
159 [label="int_rate <= 11.085\ngini = 0.0225\nsamples = 176\nvalue = [2, 174]"] ;
158 -> 159 ;
160 [label="gini = 0.1207\nsamples = 31\nvalue = [2, 29]"] ;
159 -> 160 ;
161 [label="gini = 0.0\nsamples = 145\nvalue = [0, 145]"] ;
159 -> 161 ;
162 [label="total_pymnt_inv <= 8247.9648\ngini = 0.3367\nsamples = 28\nvalue = [6, 22]"] ;
158 -> 162 ;
163 [label="gini = 0.4938\nsamples = 9\nvalue = [5, 4]"] ;
162 -> 163 ;
164 [label="gini = 0.0997\nsamples = 19\nvalue = [1, 18]"] ;
162 -> 164 ;
165 [label="funded_amnt_inv <= 8750.0\ngini = 0.1391\nsamples = 226\nvalue = [209, 17]"] ;
157 -> 165 ;
166 [label="total_pymnt_inv <= 8287.5\ngini = 0.4918\nsamples = 39\nvalue = [22, 17]"] ;
165 -> 166 ;
167 [label="gini = 0.0\nsamples = 21\nvalue = [21, 0]"] ;
166 -> 167 ;
168 [label="gini = 0.1049\nsamples = 18\nvalue = [1, 17]"] ;
166 -> 168 ;
169 [label="gini = 0.0\nsamples = 187\nvalue = [187, 0]"] ;
165 -> 169 ;
170 [label="total_pymnt_inv <= 9771.54\ngini = 0.0688\nsamples = 7770\nvalue = [277, 7493]"] ;
156 -> 170 ;
171 [label="funded_amnt_inv <= 9625.0\ngini = 0.2322\nsamples = 373\nvalue = [50, 323]"] ;
170 -> 171 ;
172 [label="dti <= 29.125\ngini = 0.0744\nsamples = 336\nvalue = [13, 323]"] ;
171 -> 172 ;
173 [label="gini = 0.0691\nsamples = 335\nvalue = [12, 323]"] ;
172 -> 173 ;
174 [label="gini = 0.0\nsamples = 1\nvalue = [1, 0]"] ;
172 -> 174 ;
175 [label="gini = 0.0\nsamples = 37\nvalue = [37, 0]"] ;
171 -> 175 ;
176 [label="installment <= 472.995\ngini = 0.0595\nsamples = 7397\nvalue = [227, 7170]"] ;
170 -> 176 ;
177 [label="pub_rec_bankruptcies <= 1.5\ngini = 0.027\nsamples = 4391\nvalue = [60, 4331]"] ;
176 -> 177 ;
178 [label="gini = 0.0265\nsamples = 4390\nvalue = [59, 4331]"] ;
177 -> 178 ;
179 [label="gini = 0.0\nsamples = 1\nvalue = [1, 0]"] ;
177 -> 179 ;
180 [label="total_pymnt_inv <= 15671.3105\ngini = 0.1049\nsamples = 3006\nvalue = [167, 2839]"] ;
176 -> 180 ;
181 [label="gini = 0.4694\nsamples = 271\nvalue = [102, 169]"] ;
180 -> 181 ;
182 [label="gini = 0.0464\nsamples = 2735\nvalue = [65, 2670]"] ;
180 -> 182 ;
183 [label="total_pymnt_inv <= 10883.7949\ngini = 0.207\nsamples = 4000\nvalue = [469, 3531]"] ;
135 -> 183 ;
184 [label="funded_amnt_inv <= 9474.7646\ngini = 0.3783\nsamples = 1062\nvalue = [269, 793]"] ;
183 -> 184 ;
185 [label="installment <= 177.325\ngini = 0.1468\nsamples = 840\nvalue = [67, 773]"] ;
184 -> 185 ;
186 [label="total_pymnt_inv <= 7558.7197\ngini = 0.0833\nsamples = 666\nvalue = [29, 637]"] ;
185 -> 186 ;
187 [label="installment <= 151.66\ngini = 0.144\nsamples = 333\nvalue = [26, 307]"] ;
186 -> 187 ;
188 [label="gini = 0.0902\nsamples = 317\nvalue = [15, 302]"] ;
187 -> 188 ;
189 [label="gini = 0.4297\nsamples = 16\nvalue = [11, 5]"] ;
187 -> 189 ;
190 [label="annual_inc <= 21576.0\ngini = 0.0179\nsamples = 333\nvalue = [3, 330]"] ;
186 -> 190 ;
191 [label="gini = 0.375\nsamples = 4\nvalue = [1, 3]"] ;
190 -> 191 ;
192 [label="gini = 0.0121\nsamples = 329\nvalue = [2, 327]"] ;
190 -> 192 ;
193 [label="total_pymnt_inv <= 8501.8398\ngini = 0.3414\nsamples = 174\nvalue = [38, 136]"] ;
185 -> 193 ;
194 [label="installment <= 235.45\ngini = 0.4444\nsamples = 42\nvalue = [28, 14]"] ;
193 -> 194 ;
195 [label="gini = 0.2188\nsamples = 32\nvalue = [28, 4]"] ;
194 -> 195 ;
196 [label="gini = 0.0\nsamples = 10\nvalue = [0, 10]"] ;
194 -> 196 ;
197 [label="revol_util <= 95.85\ngini = 0.14\nsamples = 132\nvalue = [10, 122]"] ;
193 -> 197 ;
198 [label="gini = 0.128\nsamples = 131\nvalue = [9, 122]"] ;
197 -> 198 ;
199 [label="gini = 0.0\nsamples = 1\nvalue = [1, 0]"] ;
197 -> 199 ;
200 [label="total_pymnt_inv <= 10062.9551\ngini = 0.1639\nsamples = 222\nvalue = [202, 20]"] ;
184 -> 200 ;
201 [label="int_rate <= 7.285\ngini = 0.0112\nsamples = 178\nvalue = [177, 1]"] ;
200 -> 201 ;
202 [label="gini = 0.0\nsamples = 1\nvalue = [0, 1]"] ;
201 -> 202 ;
203 [label="gini = 0.0\nsamples = 177\nvalue = [177, 0]"] ;
201 -> 203 ;
204 [label="funded_amnt_inv <= 10825.0\ngini = 0.4907\nsamples = 44\nvalue = [25, 19]"] ;
200 -> 204 ;
205 [label="funded_amnt_inv <= 9961.9766\ngini = 0.2355\nsamples = 22\nvalue = [3, 19]"] ;
204 -> 205 ;
206 [label="gini = 0.0\nsamples = 13\nvalue = [0, 13]"] ;
205 -> 206 ;
207 [label="gini = 0.4444\nsamples = 9\nvalue = [3, 6]"] ;
205 -> 207 ;
208 [label="gini = 0.0\nsamples = 22\nvalue = [22, 0]"] ;
204 -> 208 ;
209 [label="funded_amnt_inv <= 15587.5\ngini = 0.1269\nsamples = 2938\nvalue = [200, 2738]"] ;
183 -> 209 ;
210 [label="total_pymnt_inv <= 16039.0195\ngini = 0.0699\nsamples = 1488\nvalue = [54, 1434]"] ;
209 -> 210 ;
211 [label="installment <= 286.84\ngini = 0.1008\nsamples = 902\nvalue = [48, 854]"] ;
210 -> 211 ;
212 [label="total_pymnt_inv <= 12300.4297\ngini = 0.0512\nsamples = 760\nvalue = [20, 740]"] ;
211 -> 212 ;
213 [label="gini = 0.1177\nsamples = 223\nvalue = [14, 209]"] ;
212 -> 213 ;
214 [label="gini = 0.0221\nsamples = 537\nvalue = [6, 531]"] ;
212 -> 214 ;
215 [label="total_pymnt_inv <= 13347.6445\ngini = 0.3166\nsamples = 142\nvalue = [28, 114]"] ;
211 -> 215 ;
216 [label="gini = 0.4938\nsamples = 27\nvalue = [12, 15]"] ;
215 -> 216 ;
217 [label="gini = 0.2395\nsamples = 115\nvalue = [16, 99]"] ;
215 -> 217 ;
218 [label="revol_util <= 71.85\ngini = 0.0203\nsamples = 586\nvalue = [6, 580]"] ;
210 -> 218 ;
219 [label="dti <= 3.495\ngini = 0.0086\nsamples = 461\nvalue = [2, 459]"] ;
218 -> 219 ;
220 [label="gini = 0.095\nsamples = 20\nvalue = [1, 19]"] ;
219 -> 220 ;
221 [label="gini = 0.0045\nsamples = 441\nvalue = [1, 440]"] ;
219 -> 221 ;
222 [label="revol_util <= 71.95\ngini = 0.062\nsamples = 125\nvalue = [4, 121]"] ;
218 -> 222 ;
223 [label="gini = 0.5\nsamples = 2\nvalue = [1, 1]"] ;
222 -> 223 ;
224 [label="gini = 0.0476\nsamples = 123\nvalue = [3, 120]"] ;
222 -> 224 ;
225 [label="total_pymnt_inv <= 17440.3438\ngini = 0.1811\nsamples = 1450\nvalue = [146, 1304]"] ;
209 -> 225 ;
226 [label="loan_amnt <= 16687.5\ngini = 0.2729\nsamples = 92\nvalue = [77, 15]"] ;
225 -> 226 ;
227 [label="total_pymnt_inv <= 15549.4004\ngini = 0.4994\nsamples = 29\nvalue = [14, 15]"] ;
226 -> 227 ;
228 [label="gini = 0.0\nsamples = 8\nvalue = [8, 0]"] ;
227 -> 228 ;
229 [label="gini = 0.4082\nsamples = 21\nvalue = [6, 15]"] ;
227 -> 229 ;
230 [label="gini = 0.0\nsamples = 63\nvalue = [63, 0]"] ;
226 -> 230 ;
231 [label="total_pymnt_inv <= 20138.1152\ngini = 0.0965\nsamples = 1358\nvalue = [69, 1289]"] ;
225 -> 231 ;
232 [label="funded_amnt_inv <= 19625.0\ngini = 0.3324\nsamples = 95\nvalue = [20, 75]"] ;
231 -> 232 ;
233 [label="gini = 0.1913\nsamples = 84\nvalue = [9, 75]"] ;
232 -> 233 ;
234 [label="gini = 0.0\nsamples = 11\nvalue = [11, 0]"] ;
232 -> 234 ;
235 [label="installment <= 568.64\ngini = 0.0746\nsamples = 1263\nvalue = [49, 1214]"] ;
231 -> 235 ;
236 [label="gini = 0.0425\nsamples = 875\nvalue = [19, 856]"] ;
235 -> 236 ;
237 [label="gini = 0.1427\nsamples = 388\nvalue = [30, 358]"] ;
235 -> 237 ;
238 [label="total_pymnt_inv <= 11089.125\ngini = 0.3553\nsamples = 3606\nvalue = [833, 2773]"] ;
98 -> 238 ;
239 [label="funded_amnt_inv <= 9487.5\ngini = 0.4965\nsamples = 1116\nvalue = [511, 605]"] ;
238 -> 239 ;
240 [label="total_pymnt_inv <= 6839.8203\ngini = 0.2956\nsamples = 721\nvalue = [130, 591]"] ;
239 -> 240 ;
241 [label="funded_amnt_inv <= 5900.0\ngini = 0.4116\nsamples = 352\nvalue = [102, 250]"] ;
240 -> 241 ;
242 [label="int_rate <= 20.755\ngini = 0.2147\nsamples = 278\nvalue = [34, 244]"] ;
241 -> 242 ;
243 [label="total_pymnt_inv <= 4062.0352\ngini = 0.1871\nsamples = 268\nvalue = [28, 240]"] ;
242 -> 243 ;
244 [label="funded_amnt_inv <= 3337.5\ngini = 0.3888\nsamples = 53\nvalue = [14, 39]"] ;
243 -> 244 ;
245 [label="gini = 0.0973\nsamples = 39\nvalue = [2, 37]"] ;
244 -> 245 ;
246 [label="gini = 0.2449\nsamples = 14\nvalue = [12, 2]"] ;
244 -> 246 ;
247 [label="dti <= 0.56\ngini = 0.1218\nsamples = 215\nvalue = [14, 201]"] ;
243 -> 247 ;
248 [label="gini = 0.5\nsamples = 6\nvalue = [3, 3]"] ;
247 -> 248 ;
249 [label="gini = 0.0997\nsamples = 209\nvalue = [11, 198]"] ;
247 -> 249 ;
250 [label="inq_last_6mths <= 0.5\ngini = 0.48\nsamples = 10\nvalue = [6, 4]"] ;
242 -> 250 ;
251 [label="gini = 0.0\nsamples = 3\nvalue = [0, 3]"] ;
250 -> 251 ;
252 [label="installment <= 94.56\ngini = 0.2449\nsamples = 7\nvalue = [6, 1]"] ;
250 -> 252 ;
253 [label="gini = 0.0\nsamples = 1\nvalue = [0, 1]"] ;
252 -> 253 ;
254 [label="gini = 0.0\nsamples = 6\nvalue = [6, 0]"] ;
252 -> 254 ;
255 [label="installment <= 167.405\ngini = 0.149\nsamples = 74\nvalue = [68, 6]"] ;
241 -> 255 ;
256 [label="total_pymnt_inv <= 6148.5254\ngini = 0.4444\nsamples = 15\nvalue = [10, 5]"] ;
255 -> 256 ;
257 [label="gini = 0.0\nsamples = 8\nvalue = [8, 0]"] ;
256 -> 257 ;
258 [label="funded_amnt_inv <= 6125.0\ngini = 0.4082\nsamples = 7\nvalue = [2, 5]"] ;
256 -> 258 ;
259 [label="gini = 0.4444\nsamples = 3\nvalue = [2, 1]"] ;
258 -> 259 ;
260 [label="gini = 0.0\nsamples = 4\nvalue = [0, 4]"] ;
258 -> 260 ;
261 [label="revol_util <= 98.95\ngini = 0.0333\nsamples = 59\nvalue = [58, 1]"] ;
255 -> 261 ;
262 [label="gini = 0.0\nsamples = 57\nvalue = [57, 0]"] ;
261 -> 262 ;
263 [label="pub_rec_bankruptcies <= 0.5\ngini = 0.5\nsamples = 2\nvalue = [1, 1]"] ;
261 -> 263 ;
264 [label="gini = 0.0\nsamples = 1\nvalue = [1, 0]"] ;
263 -> 264 ;
265 [label="gini = 0.0\nsamples = 1\nvalue = [0, 1]"] ;
263 -> 265 ;
266 [label="funded_amnt_inv <= 7274.9053\ngini = 0.1402\nsamples = 369\nvalue = [28, 341]"] ;
240 -> 266 ;
267 [label="annual_inc <= 155000.0\ngini = 0.0252\nsamples = 235\nvalue = [3, 232]"] ;
266 -> 267 ;
268 [label="int_rate <= 20.94\ngini = 0.0174\nsamples = 228\nvalue = [2, 226]"] ;
267 -> 268 ;
269 [label="installment <= 123.115\ngini = 0.0091\nsamples = 218\nvalue = [1, 217]"] ;
268 -> 269 ;
270 [label="gini = 0.1653\nsamples = 11\nvalue = [1, 10]"] ;
269 -> 270 ;
271 [label="gini = 0.0\nsamples = 207\nvalue = [0, 207]"] ;
269 -> 271 ;
272 [label="revol_util <= 99.15\ngini = 0.18\nsamples = 10\nvalue = [1, 9]"] ;
268 -> 272 ;
273 [label="gini = 0.0\nsamples = 9\nvalue = [0, 9]"] ;
272 -> 273 ;
274 [label="gini = 0.0\nsamples = 1\nvalue = [1, 0]"] ;
272 -> 274 ;
275 [label="annual_inc <= 170000.0\ngini = 0.2449\nsamples = 7\nvalue = [1, 6]"] ;
267 -> 275 ;
276 [label="gini = 0.0\nsamples = 1\nvalue = [1, 0]"] ;
275 -> 276 ;
277 [label="gini = 0.0\nsamples = 6\nvalue = [0, 6]"] ;
275 -> 277 ;
278 [label="total_pymnt_inv <= 8939.9248\ngini = 0.3035\nsamples = 134\nvalue = [25, 109]"] ;
266 -> 278 ;
279 [label="int_rate <= 17.165\ngini = 0.4885\nsamples = 33\nvalue = [14, 19]"] ;
278 -> 279 ;
280 [label="annual_inc <= 39600.0\ngini = 0.2188\nsamples = 16\nvalue = [2, 14]"] ;
279 -> 280 ;
281 [label="gini = 0.4444\nsamples = 3\nvalue = [2, 1]"] ;
280 -> 281 ;
282 [label="gini = 0.0\nsamples = 13\nvalue = [0, 13]"] ;
280 -> 282 ;
283 [label="dti <= 5.545\ngini = 0.4152\nsamples = 17\nvalue = [12, 5]"] ;
279 -> 283 ;
284 [label="gini = 0.0\nsamples = 3\nvalue = [0, 3]"] ;
283 -> 284 ;
285 [label="gini = 0.2449\nsamples = 14\nvalue = [12, 2]"] ;
283 -> 285 ;
286 [label="installment <= 252.365\ngini = 0.1941\nsamples = 101\nvalue = [11, 90]"] ;
278 -> 286 ;
287 [label="annual_inc <= 71000.0\ngini = 0.4152\nsamples = 34\nvalue = [10, 24]"] ;
286 -> 287 ;
288 [label="gini = 0.4861\nsamples = 24\nvalue = [10, 14]"] ;
287 -> 288 ;
289 [label="gini = 0.0\nsamples = 10\nvalue = [0, 10]"] ;
287 -> 289 ;
290 [label="revol_util <= 99.2\ngini = 0.0294\nsamples = 67\nvalue = [1, 66]"] ;
286 -> 290 ;
291 [label="gini = 0.0\nsamples = 62\nvalue = [0, 62]"] ;
290 -> 291 ;
292 [label="gini = 0.32\nsamples = 5\nvalue = [1, 4]"] ;
290 -> 292 ;
293 [label="total_pymnt_inv <= 10400.5703\ngini = 0.0684\nsamples = 395\nvalue = [381, 14]"] ;
239 -> 293 ;
294 [label="installment <= 248.075\ngini = 0.0056\nsamples = 353\nvalue = [352, 1]"] ;
293 -> 294 ;
295 [label="total_pymnt_inv <= 10032.7305\ngini = 0.1528\nsamples = 12\nvalue = [11, 1]"] ;
294 -> 295 ;
296 [label="gini = 0.0\nsamples = 11\nvalue = [11, 0]"] ;
295 -> 296 ;
297 [label="gini = 0.0\nsamples = 1\nvalue = [0, 1]"] ;
295 -> 297 ;
298 [label="gini = 0.0\nsamples = 341\nvalue = [341, 0]"] ;
294 -> 298 ;
299 [label="funded_amnt_inv <= 10900.0\ngini = 0.4274\nsamples = 42\nvalue = [29, 13]"] ;
293 -> 299 ;
300 [label="dti <= 4.86\ngini = 0.1327\nsamples = 14\nvalue = [1, 13]"] ;
299 -> 300 ;
301 [label="gini = 0.0\nsamples = 1\nvalue = [1, 0]"] ;
300 -> 301 ;
302 [label="gini = 0.0\nsamples = 13\nvalue = [0, 13]"] ;
300 -> 302 ;
303 [label="gini = 0.0\nsamples = 28\nvalue = [28, 0]"] ;
299 -> 303 ;
304 [label="total_pymnt_inv <= 19881.1797\ngini = 0.2252\nsamples = 2490\nvalue = [322, 2168]"] ;
238 -> 304 ;
305 [label="funded_amnt_inv <= 16050.0\ngini = 0.324\nsamples = 1008\nvalue = [205, 803]"] ;
304 -> 305 ;
306 [label="funded_amnt_inv <= 13196.6309\ngini = 0.1485\nsamples = 854\nvalue = [69, 785]"] ;
305 -> 306 ;
307 [label="funded_amnt_inv <= 11187.5\ngini = 0.0817\nsamples = 609\nvalue = [26, 583]"] ;
306 -> 307 ;
308 [label="dti <= 24.135\ngini = 0.0179\nsamples = 332\nvalue = [3, 329]"] ;
307 -> 308 ;
309 [label="open_acc <= 24.5\ngini = 0.0122\nsamples = 325\nvalue = [2, 323]"] ;
308 -> 309 ;
310 [label="gini = 0.0063\nsamples = 314\nvalue = [1, 313]"] ;
309 -> 310 ;
311 [label="gini = 0.1653\nsamples = 11\nvalue = [1, 10]"] ;
309 -> 311 ;
312 [label="revol_util <= 96.25\ngini = 0.2449\nsamples = 7\nvalue = [1, 6]"] ;
308 -> 312 ;
313 [label="gini = 0.0\nsamples = 6\nvalue = [0, 6]"] ;
312 -> 313 ;
314 [label="gini = 0.0\nsamples = 1\nvalue = [1, 0]"] ;
312 -> 314 ;
315 [label="total_pymnt_inv <= 12170.0547\ngini = 0.1523\nsamples = 277\nvalue = [23, 254]"] ;
307 -> 315 ;
316 [label="installment <= 355.37\ngini = 0.3457\nsamples = 9\nvalue = [7, 2]"] ;
315 -> 316 ;
317 [label="gini = 0.0\nsamples = 6\nvalue = [6, 0]"] ;
316 -> 317 ;
318 [label="gini = 0.4444\nsamples = 3\nvalue = [1, 2]"] ;
316 -> 318 ;
319 [label="total_pymnt_inv <= 14385.1797\ngini = 0.1123\nsamples = 268\nvalue = [16, 252]"] ;
315 -> 319 ;
320 [label="gini = 0.2923\nsamples = 45\nvalue = [8, 37]"] ;
319 -> 320 ;
321 [label="gini = 0.0692\nsamples = 223\nvalue = [8, 215]"] ;
319 -> 321 ;
322 [label="total_pymnt_inv <= 14347.1953\ngini = 0.2894\nsamples = 245\nvalue = [43, 202]"] ;
306 -> 322 ;
323 [label="annual_inc <= 112500.0\ngini = 0.2778\nsamples = 18\nvalue = [15, 3]"] ;
322 -> 323 ;
324 [label="loan_amnt <= 19000.0\ngini = 0.1172\nsamples = 16\nvalue = [15, 1]"] ;
323 -> 324 ;
325 [label="gini = 0.0\nsamples = 15\nvalue = [15, 0]"] ;
324 -> 325 ;
326 [label="gini = 0.0\nsamples = 1\nvalue = [0, 1]"] ;
324 -> 326 ;
327 [label="gini = 0.0\nsamples = 2\nvalue = [0, 2]"] ;
323 -> 327 ;
328 [label="total_pymnt_inv <= 17124.7852\ngini = 0.2163\nsamples = 227\nvalue = [28, 199]"] ;
322 -> 328 ;
329 [label="total_pymnt_inv <= 17062.9766\ngini = 0.375\nsamples = 72\nvalue = [18, 54]"] ;
328 -> 329 ;
330 [label="gini = 0.3403\nsamples = 69\nvalue = [15, 54]"] ;
329 -> 330 ;
331 [label="gini = 0.0\nsamples = 3\nvalue = [3, 0]"] ;
329 -> 331 ;
332 [label="open_acc <= 2.5\ngini = 0.1207\nsamples = 155\nvalue = [10, 145]"] ;
328 -> 332 ;
333 [label="gini = 0.48\nsamples = 5\nvalue = [2, 3]"] ;
332 -> 333 ;
334 [label="gini = 0.101\nsamples = 150\nvalue = [8, 142]"] ;
332 -> 334 ;
335 [label="funded_amnt_inv <= 17962.5\ngini = 0.2064\nsamples = 154\nvalue = [136, 18]"] ;
305 -> 335 ;
336 [label="total_pymnt_inv <= 16568.5508\ngini = 0.4861\nsamples = 36\nvalue = [21, 15]"] ;
335 -> 336 ;
337 [label="gini = 0.0\nsamples = 16\nvalue = [16, 0]"] ;
336 -> 337 ;
338 [label="revol_util <= 83.8\ngini = 0.375\nsamples = 20\nvalue = [5, 15]"] ;
336 -> 338 ;
339 [label="Source Verified <= 0.5\ngini = 0.1244\nsamples = 15\nvalue = [1, 14]"] ;
338 -> 339 ;
340 [label="gini = 0.0\nsamples = 12\nvalue = [0, 12]"] ;
339 -> 340 ;
341 [label="gini = 0.4444\nsamples = 3\nvalue = [1, 2]"] ;
339 -> 341 ;
342 [label="open_acc <= 11.0\ngini = 0.32\nsamples = 5\nvalue = [4, 1]"] ;
338 -> 342 ;
343 [label="gini = 0.0\nsamples = 4\nvalue = [4, 0]"] ;
342 -> 343 ;
344 [label="gini = 0.0\nsamples = 1\nvalue = [0, 1]"] ;
342 -> 344 ;
345 [label="installment <= 464.735\ngini = 0.0496\nsamples = 118\nvalue = [115, 3]"] ;
335 -> 345 ;
346 [label="installment <= 460.845\ngini = 0.4082\nsamples = 7\nvalue = [5, 2]"] ;
345 -> 346 ;
347 [label="gini = 0.0\nsamples = 5\nvalue = [5, 0]"] ;
346 -> 347 ;
348 [label="gini = 0.0\nsamples = 2\nvalue = [0, 2]"] ;
346 -> 348 ;
349 [label="revol_util <= 15.25\ngini = 0.0179\nsamples = 111\nvalue = [110, 1]"] ;
345 -> 349 ;
350 [label="open_acc <= 14.0\ngini = 0.2778\nsamples = 6\nvalue = [5, 1]"] ;
349 -> 350 ;
351 [label="gini = 0.0\nsamples = 5\nvalue = [5, 0]"] ;
350 -> 351 ;
352 [label="gini = 0.0\nsamples = 1\nvalue = [0, 1]"] ;
350 -> 352 ;
353 [label="gini = 0.0\nsamples = 105\nvalue = [105, 0]"] ;
349 -> 353 ;
354 [label="loan_amnt <= 21225.0\ngini = 0.1454\nsamples = 1482\nvalue = [117, 1365]"] ;
304 -> 354 ;
355 [label="total_pymnt_inv <= 20807.0586\ngini = 0.06\nsamples = 646\nvalue = [20, 626]"] ;
354 -> 355 ;
356 [label="funded_amnt_inv <= 19987.5\ngini = 0.1499\nsamples = 98\nvalue = [8, 90]"] ;
355 -> 356 ;
357 [label="total_pymnt_inv <= 20669.5664\ngini = 0.1017\nsamples = 93\nvalue = [5, 88]"] ;
356 -> 357 ;
358 [label="revol_util <= 98.35\ngini = 0.0482\nsamples = 81\nvalue = [2, 79]"] ;
357 -> 358 ;
359 [label="gini = 0.0247\nsamples = 80\nvalue = [1, 79]"] ;
358 -> 359 ;
360 [label="gini = 0.0\nsamples = 1\nvalue = [1, 0]"] ;
358 -> 360 ;
361 [label="Verified <= 0.5\ngini = 0.375\nsamples = 12\nvalue = [3, 9]"] ;
357 -> 361 ;
362 [label="gini = 0.0\nsamples = 7\nvalue = [0, 7]"] ;
361 -> 362 ;
363 [label="gini = 0.48\nsamples = 5\nvalue = [3, 2]"] ;
361 -> 363 ;
364 [label="dti <= 11.56\ngini = 0.48\nsamples = 5\nvalue = [3, 2]"] ;
356 -> 364 ;
365 [label="gini = 0.0\nsamples = 3\nvalue = [3, 0]"] ;
364 -> 365 ;
366 [label="gini = 0.0\nsamples = 2\nvalue = [0, 2]"] ;
364 -> 366 ;
367 [label="loan_amnt <= 17900.0\ngini = 0.0428\nsamples = 548\nvalue = [12, 536]"] ;
355 -> 367 ;
368 [label="gini = 0.0\nsamples = 227\nvalue = [0, 227]"] ;
367 -> 368 ;
369 [label="annual_inc <= 182500.0\ngini = 0.072\nsamples = 321\nvalue = [12, 309]"] ;
367 -> 369 ;
370 [label="dti <= 13.84\ngini = 0.0622\nsamples = 311\nvalue = [10, 301]"] ;
369 -> 370 ;
371 [label="gini = 0.1244\nsamples = 120\nvalue = [8, 112]"] ;
370 -> 371 ;
372 [label="gini = 0.0207\nsamples = 191\nvalue = [2, 189]"] ;
370 -> 372 ;
373 [label="total_pymnt_inv <= 22743.0254\ngini = 0.32\nsamples = 10\nvalue = [2, 8]"] ;
369 -> 373 ;
374 [label="gini = 0.4444\nsamples = 3\nvalue = [2, 1]"] ;
373 -> 374 ;
375 [label="gini = 0.0\nsamples = 7\nvalue = [0, 7]"] ;
373 -> 375 ;
376 [label="total_pymnt_inv <= 25985.8555\ngini = 0.2051\nsamples = 836\nvalue = [97, 739]"] ;
354 -> 376 ;
377 [label="funded_amnt_inv <= 21987.5\ngini = 0.4948\nsamples = 98\nvalue = [44, 54]"] ;
376 -> 377 ;
378 [label="int_rate <= 18.515\ngini = 0.2149\nsamples = 49\nvalue = [6, 43]"] ;
377 -> 378 ;
379 [label="revol_util <= 83.15\ngini = 0.3967\nsamples = 22\nvalue = [6, 16]"] ;
378 -> 379 ;
380 [label="gini = 0.2188\nsamples = 16\nvalue = [2, 14]"] ;
379 -> 380 ;
381 [label="gini = 0.4444\nsamples = 6\nvalue = [4, 2]"] ;
379 -> 381 ;
382 [label="gini = 0.0\nsamples = 27\nvalue = [0, 27]"] ;
378 -> 382 ;
383 [label="dti <= 9.135\ngini = 0.3482\nsamples = 49\nvalue = [38, 11]"] ;
377 -> 383 ;
384 [label="funded_amnt_inv <= 29850.0\ngini = 0.32\nsamples = 5\nvalue = [1, 4]"] ;
383 -> 384 ;
385 [label="gini = 0.0\nsamples = 4\nvalue = [0, 4]"] ;
384 -> 385 ;
386 [label="gini = 0.0\nsamples = 1\nvalue = [1, 0]"] ;
384 -> 386 ;
387 [label="dti <= 17.75\ngini = 0.2676\nsamples = 44\nvalue = [37, 7]"] ;
383 -> 387 ;
388 [label="gini = 0.0\nsamples = 22\nvalue = [22, 0]"] ;
387 -> 388 ;
389 [label="gini = 0.4339\nsamples = 22\nvalue = [15, 7]"] ;
387 -> 389 ;
390 [label="total_pymnt_inv <= 29566.1445\ngini = 0.1333\nsamples = 738\nvalue = [53, 685]"] ;
376 -> 390 ;
391 [label="funded_amnt <= 28550.0\ngini = 0.3223\nsamples = 104\nvalue = [21, 83]"] ;
390 -> 391 ;
392 [label="funded_amnt_inv <= 24759.4883\ngini = 0.2593\nsamples = 98\nvalue = [15, 83]"] ;
391 -> 392 ;
393 [label="gini = 0.1588\nsamples = 69\nvalue = [6, 63]"] ;
392 -> 393 ;
394 [label="gini = 0.4281\nsamples = 29\nvalue = [9, 20]"] ;
392 -> 394 ;
395 [label="gini = 0.0\nsamples = 6\nvalue = [6, 0]"] ;
391 -> 395 ;
396 [label="funded_amnt_inv <= 32271.5039\ngini = 0.0959\nsamples = 634\nvalue = [32, 602]"] ;
390 -> 396 ;
397 [label="dti <= 28.53\ngini = 0.0519\nsamples = 488\nvalue = [13, 475]"] ;
396 -> 397 ;
398 [label="gini = 0.0481\nsamples = 487\nvalue = [12, 475]"] ;
397 -> 398 ;
399 [label="gini = 0.0\nsamples = 1\nvalue = [1, 0]"] ;
397 -> 399 ;
400 [label="total_pymnt_inv <= 43242.2852\ngini = 0.2264\nsamples = 146\nvalue = [19, 127]"] ;
396 -> 400 ;
401 [label="gini = 0.4628\nsamples = 44\nvalue = [16, 28]"] ;
400 -> 401 ;
402 [label="gini = 0.0571\nsamples = 102\nvalue = [3, 99]"] ;
400 -> 402 ;
}